{
  "layers": [
    {
      "activation": "sigmoid",
      "nodes": [
        {
          "weights": [0.734806, 0.987797, -0.358316, 0.798607, 0.0402756, 0.619668, 0.298978, -0.256652, -0.75807, -0.242734, -0.0959217, 0.238572, -0.969518, -0.0259581, 0.800542, 0.433883, 0.0458634, -0.343845, -1.15728, -0.194013, -0.422933, -0.00686345, -0.227134, 0.0371236, -0.170652, -0.765011, 0.443921, -0.137949, -0.976817, 0.411696, 0.156297, 0.90592, 0.452141, 0.83737, 0.638243, -0.605562, 0.309251, -0.056366, 0.353315, 0.686948, 0.760771, -0.546859, 0.234291, 0.847785, 0.457609, 0.0265494, 0.4237, -0.297963, 0.909165, 0.297379, 0.217558, -0.665746, -0.345592, -0.587845, 0.412074, 0.494834, -0.547405, -0.066581, -0.390714, -0.4256, -0.651546, 0.792952, -0.470371, 0.849904],
          "bias": 0.674242
        },
        {
          "weights": [-0.765844, -0.657679, 0.0633198, 0.237661, 0.578086, -0.249732, -0.00156766, -0.980793, 0.972539, -0.0607491, 1.07502, 0.359532, -0.53601, -0.315742, -0.0954822, 0.757042, 0.733729, 0.626985, -0.296066, -1.16372, -0.413985, 1.18233, -0.151073, 0.686263, -0.473351, -0.0306894, -0.877873, -0.36665, 0.871537, 0.981455, 0.964724, 0.92597, -0.723749, -0.0433361, 0.208261, 0.957489, 0.905179, -0.783997, 0.694319, 0.72403, 0.101315, 0.504366, -0.325177, 0.51001, 1.15575, 0.586395, 0.0929391, 0.660072, -0.0659809, 0.798841, 0.906017, 0.732112, 0.464651, -0.845894, 0.401649, -0.961149, 0.446615, 0.457153, -0.641548, 0.18731, 0.439964, -0.703645, 0.0644, 0.667335],
          "bias": 0.141558
        },
        {
          "weights": [-0.771968, 0.521672, 0.0490681, -0.609904, 0.395216, -0.226902, 0.491411, -0.0558594, 0.49248, -0.0933217, 0.439205, 0.648586, -0.664756, -0.0179755, -0.949601, 0.673827, -0.72349, 1.18203, 0.594285, -0.751525, -0.0781274, 0.627553, -0.559952, -0.432459, 0.583331, -0.0981248, 1.04955, 1.33868, -0.507883, 0.726183, 0.24486, -0.561583, 0.14763, -0.820171, -0.0817604, -0.299883, 0.239485, -0.567572, 0.261984, -0.50809, 0.226602, -0.689032, 0.561787, 0.477576, 0.238512, 0.625706, -0.114812, 0.164537, 0.395952, -0.538423, 0.975036, -0.404003, 0.36273, 0.581488, 0.114017, -0.0263429, -0.12098, 0.0325055, -0.146657, 0.161395, -0.269546, -0.969394, 0.527823, 0.806095],
          "bias": -0.889896
        },
        {
          "weights": [-0.643664, -0.651059, 0.256367, -0.32374, 0.835928, 0.748277, 0.902862, -0.806602, 0.356567, 0.208452, 0.38084, 0.292729, -0.643241, -0.495848, -0.588792, -0.646684, 0.97144, 0.152914, 0.957066, 0.573948, 0.924952, -0.0543136, -0.189002, 0.0239345, 0.570642, 0.569723, 0.771871, 0.857946, 0.384134, 0.579106, 0.924643, 0.557058, 0.837435, 0.100958, -0.708369, 0.752081, 0.013769, -0.765348, 0.779439, -0.780602, 0.344631, -0.0654107, 0.221058, 0.66546, 0.400832, 0.640568, 0.848022, 0.165587, -0.43659, 0.799886, 0.0161254, -0.397613, -0.646918, 0.395828, 0.5937, 0.917401, 0.126453, 0.261172, 0.51865, -0.644756, -0.222265, 0.376837, 0.884232, -0.412899],
          "bias": -0.53563
        },
        {
          "weights": [-0.882451, -0.739537, 0.354223, -0.746272, -0.872776, 0.573621, 0.598359, 0.0754097, -0.191724, 0.13086, -0.530655, -0.365378, 0.107951, 0.601657, 0.0175473, -0.353863, -0.694795, 0.734407, 0.135613, 0.650246, 0.0804126, 0.053033, 0.0427609, -0.587668, -0.571053, 0.116405, 0.196723, 0.974258, 0.202656, 0.7917, -0.682648, 0.214168, -0.990438, 0.635808, 0.494544, -0.814611, 0.32321, 0.11333, 0.134237, -0.966704, -0.802884, 0.466161, -0.528158, 0.282979, 0.0484507, 0.493793, 0.81965, 0.222102, 0.0773667, -0.0409247, 0.0676444, -0.748702, 0.752618, 0.817803, -0.340291, -0.807931, 0.0784601, 0.802855, 0.997853, -0.807306, 0.569569, -0.704971, 0.389247, 0.561515],
          "bias": 0.888229
        },
        {
          "weights": [-0.142857, 0.698301, 0.171448, 0.923399, -0.0895041, 0.204744, -0.879486, -0.607752, 0.692177, 0.334307, 0.0678325, -0.030235, 0.218674, -0.594217, -0.725476, -0.952939, 0.512109, -0.689329, 0.631723, 0.643933, 0.360726, -1.10842, -0.734867, -0.0532364, -0.999895, -0.140106, -0.374025, -0.854714, -0.968263, -0.840271, -0.648865, -0.121889, 0.758533, 0.471361, -0.189944, -0.406649, -0.412612, 0.0206502, 0.280865, -0.690067, -0.743669, -0.571227, 0.56544, 0.533993, -0.176141, 0.838475, 0.599877, -0.586221, -0.715335, 0.240736, 0.749484, 0.403367, 0.400704, -0.611822, -0.67793, 0.310167, -0.119676, -0.125946, 0.605302, -0.156826, -0.123831, 0.846865, 0.779403, -0.30718],
          "bias": 0.538332
        },
        {
          "weights": [-0.419087, 0.361849, 0.877631, 0.502937, -0.576874, -0.812436, 0.759268, -0.206451, 0.694654, 0.209835, 0.716153, 0.489455, -0.171543, -0.817931, 0.760934, -0.984726, 0.900958, 0.206427, 0.334507, -0.75038, 0.668919, -0.303215, 0.0427624, -0.561101, -0.759194, 1.03699, 0.525813, -0.861501, 0.835138, -0.802857, 0.480082, -0.708507, 0.427855, 0.251823, 0.829132, 0.840695, 0.481341, 0.688877, -0.254953, 0.107396, -0.236467, -0.633606, -0.38969, 0.613582, -0.482539, -0.624856, 0.53855, -0.650295, 0.534107, -0.118082, -0.435892, 0.10154, 0.501835, 0.57986, 0.502345, 0.687916, 0.460327, -0.0889624, 0.775587, 0.145273, -0.0485905, 0.123134, 0.4624, -0.595102],
          "bias": -0.470515
        },
        {
          "weights": [0.25683, -0.74412, 0.761054, -0.189472, -0.09959, -0.131549, 0.574062, 0.240159, 0.452116, 0.0450579, 0.646377, 0.748228, -0.378824, -0.941985, 0.330823, 0.342935, -0.462124, -0.604086, -0.249776, -0.800597, 1.09134, -0.510948, 0.491137, -0.121335, -0.746452, -0.158742, 1.00059, 0.369901, -0.746068, -0.619402, 0.858515, 0.417491, -0.483514, 0.513107, -0.751232, 0.386571, -0.612348, 0.924427, -0.215651, 0.806614, -0.152861, -0.626979, 0.63039, 0.501016, -0.593114, -0.0366147, -0.211065, -0.0775532, 0.363928, 0.552868, 0.0260542, 0.320403, 1.04019, -0.423725, -0.835967, -0.757044, 0.215087, -0.934072, 0.619637, 0.340693, -0.708521, 0.34463, -0.20676, -0.156979],
          "bias": 0.0287974
        },
        {
          "weights": [0.0212596, -0.740083, 0.185174, -0.176659, -0.0830277, -0.00821212, 0.67048, 0.262933, -0.404883, 0.048948, 0.212266, 0.10851, 0.613183, -0.741922, -0.106802, 0.281797, 0.559424, -1.10323, -0.0422983, -0.645678, -0.394212, 0.223434, -0.0299759, -0.499099, 0.133797, -0.130284, -0.189691, -0.848586, 0.293251, 0.649022, 0.291362, -0.518415, 0.930373, -0.460054, 0.23667, -0.290485, 0.351816, -0.0526962, -0.682017, -0.918817, -0.975646, 0.803451, 0.656121, 0.724, -0.905006, -0.459447, 0.152075, 0.887158, -0.271596, -0.855315, 0.790133, 0.0791992, 0.901055, 0.40119, 0.633591, -0.00433467, 0.921832, -0.508287, 0.474092, 0.302363, -0.917625, -0.216804, 0.863743, -0.907458],
          "bias": 0.443338
        },
        {
          "weights": [0.168669, -0.0601126, -0.23646, -0.855925, 0.0501659, -0.155277, -0.83157, -0.192051, -0.544824, 0.963134, 0.731991, 0.514093, 0.329287, 0.504482, 0.687231, 0.387343, -0.0137502, 0.315139, 0.672701, -1.06566, -0.659995, -0.32696, -0.385076, 0.00659841, 0.718969, 0.323814, 0.299587, -0.014067, 0.728511, 0.392187, 0.885764, -0.422603, -0.798803, -0.50169, -0.179185, 0.411662, 0.641489, 0.0332142, -1.15107, 0.843078, -0.146964, 0.150125, -0.242964, 1.09857, -0.410761, -0.541774, 0.198263, 0.204086, 0.339744, -0.144137, 0.717623, 0.944746, -0.250446, 0.451583, -0.113242, -0.506927, 0.152896, -0.970005, -0.00476221, -0.367053, 0.362627, -0.225123, 0.139021, 0.492502],
          "bias": 0.200055
        },
        {
          "weights": [0.860493, -0.256135, -0.294041, -0.249605, -0.196823, -0.450963, 0.603432, 0.998171, 0.350942, 0.496104, -1.08995, 0.533143, -0.276742, 0.219881, 0.179821, 0.305347, -0.134825, -0.203176, -1.15915, -0.27382, 1.08044, -0.623811, 0.39321, 0.925672, 0.567761, -0.550661, 0.310854, -0.893549, 0.278795, -0.229365, 0.766306, 0.187119, 0.453343, -0.599568, 0.898107, -0.858302, -0.186037, 0.597246, -0.522369, -0.733368, 0.0370501, -0.495522, -0.859511, 0.837933, 0.726395, 0.31465, 0.230052, -0.244033, -0.679019, 0.109737, 0.138776, -0.858573, 0.801005, -0.0461242, -0.935274, 0.338253, 0.042637, 0.359308, 0.680891, -0.703506, -1.00398, 0.341585, 0.556382, 0.522129],
          "bias": 0.940974
        },
        {
          "weights": [0.493896, 0.778649, -0.376072, 0.0348422, -0.966659, -0.10944, -0.928108, -0.495961, -0.00273019, 0.885062, -1.21374, -1.28547, -0.228605, -0.296056, -0.395218, -0.798453, -0.62015, -0.647144, 0.542756, 0.611266, 0.200172, -0.0873464, -1.18115, -0.67692, -0.0088178, -0.108846, -0.676576, -1.12003, -1.06075, 0.847565, -1.03459, 0.69706, 0.692644, -0.260493, -0.343423, 0.557886, 0.359211, -0.27255, -0.504179, -0.447236, -0.311143, -0.300572, -0.0888625, 0.559651, 0.451644, 0.503662, 0.985808, -0.844497, -0.737212, 0.547641, 0.13647, 0.141128, 0.252595, 0.88417, 0.528223, -0.832504, -0.685314, 0.941505, -0.499737, -0.571636, 0.766014, -0.458731, -0.78509, 0.548144],
          "bias": 0.406674
        },
        {
          "weights": [-0.0531883, 0.274129, -0.238302, 0.750606, 0.504153, 0.314462, -0.560537, -0.870992, -0.848973, -0.868101, 1.2413, 0.90043, -0.926256, -0.720641, 0.855163, 0.891904, 0.45055, 0.345542, 0.303452, -0.170324, -0.584596, 0.425921, 0.696559, -0.427133, 0.735976, 0.709952, -0.641611, -0.478873, -0.7571, 0.926063, 0.415664, 0.112712, 0.25064, -0.812075, -0.120683, -0.145942, 0.642262, 0.252733, -0.341256, 0.710636, 0.434679, -0.268758, 0.245789, 0.446843, 0.00274664, 0.102307, 0.246209, -0.700821, -0.760104, -0.449326, 0.51012, -0.0930251, 0.574667, -0.303775, 0.488189, 0.392372, -0.198236, 0.872492, 0.669617, 0.0288428, 0.910182, 0.153065, -0.919624, 0.0996435],
          "bias": 0.119839
        },
        {
          "weights": [-0.0563061, 0.854437, -0.0421791, -0.753526, -0.261761, -0.331543, 0.681153, 0.526703, 0.971468, 0.141714, -0.786056, -0.0229621, -0.729335, -0.514413, 0.369537, -0.0851378, -0.907857, -0.873876, -0.534629, -0.11921, 0.576076, 0.79157, 0.63809, 0.557412, 0.633246, -0.40653, 0.175317, -0.372626, -0.432652, -0.684565, -1.02931, 0.736416, -0.639505, 0.121196, 0.906945, 0.0646881, 0.692898, 0.46534, -0.460993, 0.782269, -0.194242, -0.0203812, -0.109238, 0.0792711, 0.519892, -0.748936, -0.85333, 0.767421, -0.477757, -0.380515, -0.438925, -0.830325, -0.315336, -0.563287, 0.820028, -0.617067, 0.167364, 0.170989, 0.169244, 0.965318, 0.682278, 0.353768, 0.696502, -0.962458],
          "bias": -0.732871
        },
        {
          "weights": [0.679391, 0.136276, -0.693086, 0.343435, 0.761712, -0.910817, -0.850807, -0.23752, 0.00109394, 0.44913, -1.01577, -0.136147, 0.475609, -1.1327, 0.804784, -0.550013, -0.0844839, -1.33687, -0.11431, 0.635739, 0.93702, 0.287265, -0.80322, -0.0524905, -0.24815, -0.359103, -0.459861, -1.22642, -1.02274, -0.411959, -0.495073, 0.873878, 0.798374, -0.0328064, 0.163455, 0.444054, -0.145271, 0.284746, -0.502305, 0.998921, -0.184365, -0.181126, 0.340013, -0.64219, -0.27283, 0.135327, -0.0204358, 0.881019, 0.0981944, -1.12846, 0.052292, -0.179265, 0.773498, 0.955824, 0.824794, -0.536318, -0.712563, -0.553219, -0.4307, -0.576941, 0.0500139, 0.17103, -0.644199, -0.0927475],
          "bias": -0.808659
        },
        {
          "weights": [0.573114, -0.532661, 0.0775018, -0.0603813, -0.210095, 0.0764231, 0.755254, 0.55023, -0.642114, -0.765182, -0.474352, 0.453384, 0.00498633, -0.662566, -0.457672, 0.293596, 0.648306, 0.435183, 0.0229023, 0.26846, 0.0617445, 0.414987, 0.749196, 0.686049, -0.961591, -1.0039, -0.428139, 0.189167, -0.590549, 0.523697, 0.0748995, -0.863965, -0.830481, -0.669613, 0.0253396, -0.0220883, 0.391461, -0.353437, -0.659161, 0.800926, 0.0657255, -0.0108421, 0.20883, -0.95582, 0.368809, 0.744686, 0.417637, 0.0704446, 0.20443, -0.558318, -0.573723, -0.564876, 0.92042, -0.836184, -0.797734, -0.963363, -0.559481, -0.0753253, 0.246077, 0.0358326, -0.340753, -0.464808, 0.139475, -0.203627],
          "bias": -0.404382
        },
        {
          "weights": [-0.784872, 0.755797, -0.655153, 0.046035, -0.734549, -0.854227, -0.88824, 0.290838, 0.390832, -0.658144, 0.0678873, 0.505456, 0.997283, 1.05123, -0.617351, -0.605334, -0.708376, 0.103925, -0.357204, -0.698152, -0.189746, -0.335527, 0.237928, 0.88077, 0.675608, 0.803229, -0.461481, -0.515218, 0.263591, 0.341843, 0.138597, 0.323585, 0.0597952, 0.417213, -0.588097, 0.420052, 0.730528, -0.475584, -0.54392, -0.00594113, -0.176764, 0.288819, -0.867963, -0.232449, 0.311011, -0.479209, 0.0166553, 0.404105, 0.381275, 0.655875, 1.07063, -0.618131, 0.863268, -0.225269, -0.759268, 0.581482, -0.136347, -0.274236, 0.792282, 1.01989, -0.92246, -0.095111, 0.295694, 0.0895569],
          "bias": -0.778542
        },
        {
          "weights": [0.665314, -0.585197, 0.965571, -0.853306, 0.0308872, -0.0403705, -0.0300703, -0.640052, 0.131907, 0.658713, 0.661321, 0.848227, -0.351171, -0.0581125, 0.0681093, -0.781495, -0.194337, 0.556443, -0.752156, 0.418109, 0.379321, 0.750644, -0.27812, -0.650618, 0.498142, -0.689612, -0.79097, -0.503448, 0.773622, 0.323132, -0.374951, 0.497103, 0.883504, -0.341386, 0.602463, -0.0326376, 0.660532, -0.538771, 0.0495827, -0.177518, -0.72756, -0.325564, -0.563015, -0.123744, 0.63738, 0.4989, 0.125696, -0.571036, -0.0170952, 0.39089, -0.878425, -0.403606, -0.0703204, -0.478311, -0.00597669, -0.438511, 0.229379, 0.335049, -0.0354799, 0.113112, -0.144307, 0.729895, -0.441727, -0.312746],
          "bias": -0.896982
        },
        {
          "weights": [-0.79793, 0.601646, -0.848585, -0.184203, -0.124016, -0.0261032, 0.0882366, 0.622752, 0.483213, -0.897161, -0.168369, -0.334986, 0.155116, 0.369024, -0.956456, -0.306568, 0.804315, -0.656803, 0.468707, -0.268809, 0.732013, -0.963154, 0.425882, -0.058978, 0.282788, -0.0838927, 0.670995, -0.296608, 0.150057, -0.626406, 0.394872, 0.54849, -0.966328, 0.665961, -0.708015, -0.215249, -0.522473, 0.388317, -0.311132, -0.917953, 0.555362, 0.819486, 0.18371, -0.213833, 0.232902, 0.218972, 0.624488, 0.257794, 0.836297, 0.120352, 0.573686, 0.368404, 0.69435, 0.624487, -0.613699, -0.0574256, -0.729482, -0.871936, 0.955257, 0.547024, -0.509824, 0.428779, 0.165429, -0.406237],
          "bias": 0.149208
        },
        {
          "weights": [0.529716, 0.503419, 0.652551, -0.0177609, -0.964173, 0.734599, -0.462399, 0.814289, -0.122715, 0.42891, 0.409654, -0.785582, 0.218881, -0.28902, 0.899812, -0.644831, -0.719045, 0.452684, -0.865426, 0.826671, 0.820003, 0.140774, -0.866745, 0.853438, -0.0872132, 0.662908, -0.424473, -0.477277, 0.00109024, 0.163118, 0.502487, -0.654073, -0.48929, 0.0936702, 0.416476, -0.404203, -0.0497918, 1.03278, -0.58947, 0.659718, 0.294677, 0.674431, 0.769069, -0.499793, -0.657829, 0.679927, -0.319287, -0.564888, -0.0348731, -0.216183, -0.671147, -0.241976, 0.747037, -0.687947, -0.443969, -0.451232, 0.883064, -0.0425336, -0.109666, -0.298565, 0.966918, -0.714383, 0.0452014, -0.524532],
          "bias": 0.513761
        },
        {
          "weights": [-0.626633, 0.0220053, -0.884116, -0.760866, 0.382832, 0.775601, 0.533811, 0.0114272, 0.498834, 0.842138, -0.0304097, -0.0658809, -0.636019, 0.424766, -0.912994, 0.184084, 0.799135, -0.370973, -0.320179, -0.914242, 0.328271, 0.207642, 0.772506, -0.721089, -0.740833, -0.364117, -0.855065, -0.623592, 0.51486, -0.369545, 0.791765, -0.967677, 0.741141, 0.996263, -0.78042, 0.070287, 0.668508, 0.710082, -0.837461, 0.268554, 0.647406, 0.303129, -0.607424, -0.963473, -0.239825, -0.527638, 0.336979, -0.299183, 0.254945, -0.969732, -0.381968, -0.464911, 0.504785, -0.327009, -0.139388, 0.78519, 0.260468, 0.0989693, -0.670026, -0.099211, 0.799471, -0.79179, -0.048253, 0.559247],
          "bias": -0.847142
        },
        {
          "weights": [0.223204, -0.31678, 0.97205, 0.0284727, -0.181379, 0.240604, -0.324121, -0.880393, 0.631037, -0.171082, 0.422137, -0.51566, -0.657322, 1.04307, 0.363422, -0.67677, -0.545662, 1.25684, 1.1413, -0.12316, -0.345279, 0.920616, -0.331258, 0.894082, 0.964417, 0.0868873, 0.763278, -0.498407, -0.575023, 0.336638, -0.596638, 0.455894, 0.954654, -0.683376, -0.452391, -0.114822, 0.768074, 0.235255, -0.274649, 0.218648, 0.989163, 0.883789, 0.296742, -0.727936, 0.890285, -0.329561, -0.598937, -0.909385, -0.369642, -0.471499, 0.364368, 0.490983, 0.947757, 0.454992, 0.360808, 0.926546, -0.165873, 0.031739, -0.900828, 0.11679, -0.646854, -0.525872, -0.477289, -0.742173],
          "bias": -0.292987
        },
        {
          "weights": [0.00707787, 0.0311028, -0.591255, -0.832677, 0.923985, 0.627393, -0.843514, 0.838156, -0.0454832, -0.688309, 0.728124, 0.857644, -0.483138, 0.57149, -0.72458, 0.117812, -0.243288, 0.897763, 0.235702, -1.21706, -0.449693, -0.00947229, 0.359605, -0.947819, 0.105659, -1.19577, -1.04304, 0.644817, -0.477944, -0.73807, -0.912657, 0.74063, 0.644285, -0.33938, 0.797019, 0.648206, -0.712753, -1.30552, -0.0210946, 0.391576, -0.623869, -0.268189, -0.112408, -0.188449, -0.630327, 0.146252, -0.912964, 0.202616, 0.0129494, 0.353254, 0.429678, -1.00058, -0.910722, -0.681499, -0.848061, 0.476154, -0.132621, -0.559072, 0.0559412, 0.701081, 0.154259, 0.456863, 0.341561, -0.301606],
          "bias": -1.45794
        },
        {
          "weights": [0.249515, -0.733337, -0.296412, 0.313955, 0.673089, -0.904837, 0.690085, -0.446054, 0.131802, -0.143659, 0.0636387, -0.497784, 0.0106737, -0.817037, 0.45681, -0.495582, 0.714978, 0.546133, -0.0745888, -0.822009, 0.390108, -0.669114, 0.299581, -0.983298, 0.407008, -0.363566, -0.12822, -0.123912, -0.938373, 0.609404, -0.0502419, 0.430901, -0.964131, 0.788168, -0.297861, 0.738811, 0.885849, -0.729616, -0.91468, 0.060952, 0.291282, 0.216933, 0.458993, -0.730548, 0.434743, -0.0891658, -0.163151, 0.180196, -0.548176, 0.762608, 0.497411, -0.975187, -0.923989, -0.303328, -0.894047, 0.569096, 0.630432, 0.115112, -0.567033, 0.849077, -0.0784237, 0.563367, 0.24272, -0.0798138],
          "bias": 0.099701
        },
        {
          "weights": [0.987576, -0.370856, 0.326505, -0.577483, -0.107953, -0.612543, 0.713799, -0.845201, 0.892269, -0.85451, 1.22565, 0.414533, 0.316552, 0.264469, 0.305715, -0.10738, -0.648074, 0.810645, 0.487048, -0.228147, 0.135235, 0.0315345, 0.238762, -0.507274, 0.0567714, -0.703484, 0.435382, 0.0950446, 1.09701, -0.629837, -0.940726, 0.815078, -0.0736268, 0.28075, -0.685818, 0.981534, 0.966472, 1.03586, 0.703475, 0.623724, -0.903117, 0.529988, -0.585633, 0.322677, -0.25586, 0.73271, -1.04464, -0.254625, 0.116643, 0.431706, 1.13594, -0.423775, 0.690204, -0.52684, 0.034202, -0.193615, 0.245654, -0.635974, 0.426523, 0.152381, -0.259519, 0.444016, -0.111765, 0.587629],
          "bias": -0.426819
        },
        {
          "weights": [0.125829, 0.406049, -0.480532, 0.077223, 0.379268, -0.856809, 0.174106, -0.0274963, -0.379194, -0.647412, 0.499089, -0.463097, -0.233899, -0.648346, 0.520779, 0.549499, 0.999235, -0.888071, 0.395637, -0.130617, 0.247538, -0.670027, 0.987173, 0.366045, 0.53202, 0.187557, -0.604629, 0.171709, 1.19477, 0.934789, 1.0724, -0.00701826, 0.0209791, -0.643757, -0.805346, -0.576882, -0.364283, 0.579652, 0.577101, 0.0475147, 0.5969, -0.188571, 0.524376, -0.618335, 0.0794821, 0.0609557, 0.683049, -0.150733, -0.0125339, 0.0620909, 0.708353, 1.0473, 0.139701, 0.543896, 0.293311, -0.493282, -0.605947, 0.382832, 0.482754, -0.772941, -0.036384, 0.246804, 0.254187, -0.981259],
          "bias": 0.969347
        },
        {
          "weights": [0.324392, -0.581012, 0.95703, -0.431297, 0.791738, 0.00454469, -0.834398, -0.469558, -0.543805, -0.813808, -0.187663, -0.112569, 0.6245, -1.15656, -0.583909, -0.37452, 0.739115, -1.04204, 0.179504, 0.590607, 1.07694, -1.24247, 0.110678, 0.143939, 0.589651, 1.17657, -0.786011, -0.578836, -0.086342, -0.801842, -0.563589, -0.611913, -0.420571, -0.596315, -0.0938434, -0.799635, 0.15249, 0.150116, 0.248049, 0.784546, 0.308584, -0.638037, 0.29305, 0.0463412, -0.773257, 0.697843, 0.843646, -0.74906, -0.965161, 0.0553561, 0.212092, 0.707502, 0.490812, 0.167407, -0.142358, -0.0129313, -0.236999, 0.0815849, 0.823523, 0.723431, 0.138761, -0.809701, -0.785217, 0.821456],
          "bias": -0.146752
        },
        {
          "weights": [0.171572, -0.807377, 0.842455, -0.706036, 0.0942333, 0.627001, 0.602548, 0.376317, -0.159828, -0.332589, 0.936765, -0.479634, -0.527217, -0.779407, -0.495726, 0.648277, 0.544272, -0.665334, 0.0824484, -0.435832, 0.320686, -0.888461, 0.290167, -0.678311, 0.856287, 0.151642, 0.682697, -0.884434, 0.410103, 0.488465, -0.340872, -0.526183, 0.577795, -0.571741, -0.187885, -0.316055, -0.899924, -0.521334, -0.887846, -0.12968, 0.03774, 0.961599, 0.364867, 0.513071, -0.845552, 0.874368, 0.0799205, 0.61984, -0.855751, -0.847872, -0.814434, 0.408877, -0.820357, 0.421604, 0.687728, 0.978519, -0.534168, 0.269758, -0.974894, 0.760484, -0.352663, -0.414203, -0.758106, -0.767276],
          "bias": 0.13192
        },
        {
          "weights": [0.00967467, -0.0952478, 0.019091, 0.380003, -0.0469029, 0.889411, -0.582257, -0.110416, 0.229166, 0.813239, -0.584802, -0.441152, -0.394695, -0.842864, 0.217444, -0.053521, -0.297403, -0.819471, -0.316951, -0.620784, -0.522597, -0.334933, -0.864384, 0.577599, 0.0723359, -0.492471, -0.876364, 0.227903, -0.722455, -0.635224, -0.451151, 0.566445, 0.370004, 0.715651, -0.142838, -0.830126, 0.35217, 0.25363, 0.415172, -0.215255, 0.17743, -0.772678, 0.907424, -1.13257, -0.557181, 0.112785, 0.0492254, 0.465427, 0.677182, -1.24929, 0.301275, 0.900052, 0.13399, -0.740993, 0.55049, -0.830802, -0.59193, 0.795149, 0.82733, -0.109771, -0.81421, -0.525594, -0.468715, 0.630406],
          "bias": -0.740621
        },
        {
          "weights": [0.477733, 0.953507, 0.696152, -0.158075, 0.166193, -0.519104, -0.980645, 0.34403, -0.661164, -0.946203, -0.448616, 0.814808, 0.0171263, 0.806992, 0.0914021, 0.0843489, 0.11868, 0.414947, -0.524202, -0.250241, -0.717069, -0.452973, 0.964314, -0.565806, -0.822261, -0.73802, -0.467743, -0.0813891, 0.150688, -0.818655, -0.321595, -0.406198, -0.721492, -0.625582, 0.421428, 0.573192, -0.0149198, 0.305578, -0.559994, 0.308602, 0.508879, -0.218861, -0.39163, -0.56594, -0.407386, 0.696351, 0.485617, 0.586557, -0.109352, 0.96963, -0.115343, 0.555597, -1.02435, -0.871541, 1.00021, -0.662697, 0.00315792, -0.341518, -0.0105526, -0.78298, 0.0812764, 0.782166, -0.286972, 0.261991],
          "bias": -1.20389
        },
        {
          "weights": [-0.851245, -0.293309, 0.240801, 0.603837, 0.495422, -0.450597, 0.112715, -0.608987, 0.272224, 0.656312, 0.3484, 0.539792, 0.491944, -0.170275, 0.977097, 0.0934127, 0.243878, 0.891636, 0.601656, 0.38043, 0.293519, 0.929116, 0.0409819, -0.87084, -0.420273, -0.434147, 0.180924, -0.246379, 0.733242, -0.548343, -0.317042, 0.64642, 0.0813254, 0.828814, 0.319281, -0.291591, -0.377015, -0.55073, -0.234304, 0.695355, -0.980717, 0.781735, -0.263111, 0.440637, -0.433657, -0.275741, -0.689606, 0.515975, -0.734309, 0.903549, 0.386483, 0.804944, 0.203552, 0.702317, 0.899274, 0.819936, -0.371725, -0.0218273, -0.818172, -0.812744, 0.414122, -0.185245, 0.77236, -0.565868],
          "bias": -0.460855
        },
        {
          "weights": [0.0226159, 0.0108794, 0.111614, 0.385588, 0.978639, -0.19303, 0.404871, 0.805289, 0.588774, -0.291589, -1.10406, -0.830058, 0.0141233, 0.453179, -0.386635, -0.244706, -0.228412, -0.785361, 0.86412, -0.29457, -0.740883, 0.68308, 0.112518, 0.193436, 0.997267, 0.421305, -0.495091, -0.327524, 0.0499088, -0.0569295, 0.459415, -0.835582, 0.991255, -0.375773, 0.511651, 0.914907, 0.35465, -0.0865397, 0.835994, 0.00786338, 0.663287, 0.864674, 0.367644, -0.288272, 0.3403, 0.975848, 0.538332, -0.782484, -0.681363, 0.420779, -0.253412, -0.504045, 0.338204, -0.87409, 0.72483, 0.332154, 0.445685, -0.72642, -0.855824, -0.44272, 0.223748, 0.644681, -0.248096, 0.245209],
          "bias": -0.722968
        }
      ]
    },
    {
      "activation": "linear",
      "nodes": [
        {
          "weights": [-0.785461, 1.19045, 1.55603, 0.623888, 0.671984, -1.57301, -0.774536, -1.00517, -1.09642, 1.28207, -1.80181, -1.39643, 1.40461, 1.04489, -0.798094, 1.50948, 0.956685, 1.17807, -0.405869, 0.0321509, -0.0939937, 1.38833, 2.11552, 1.4663, 1.88168, -1.43115, -2.57486, -0.440167, -0.961047, 1.62978, 1.33715, -0.227231],
          "bias": 0.189721
        }
      ]
    }
  ]
}
