{
    "layers": [
        {
            "activation": "sigmoid",
            "nodes": [
                {
                    "bias": 0.8554420774245182,
                    "weights": [
                        0.041436580494715214,
                        0.7209593372982737,
                        -0.7475993268879128,
                        -0.6116898533011274,
                        0.9657690208245855,
                        0.6560069404803248,
                        -0.40821731342385403,
                        -0.26027579198604256,
                        -0.5600045563466869,
                        -0.24670813011317894,
                        1.313712726754986,
                        0.6353701469858279,
                        -0.6719825761136311,
                        1.0806726348578186,
                        0.6670697348504653,
                        0.4416054037593331,
                        0.7683531547749196,
                        -0.2543705125737983,
                        0.5804987789276992,
                        -1.4580042107464206,
                        0.07040242284009274,
                        -0.22031396017282784,
                        1.379683222003272,
                        -0.4304978258118489,
                        0.04071398872915366,
                        -0.38118062455518015,
                        0.8713163633858099,
                        1.2235037048053312,
                        1.103275040062327,
                        -0.4058237027474074,
                        0.8947493894127003,
                        -0.353872691911586,
                        -0.7808572639622061,
                        -0.8081477531119731,
                        -0.03388794694646879,
                        -0.5598083194853888,
                        1.3447743338283282,
                        0.5548352338449369,
                        -0.6136297880327934,
                        -0.662001108593308,
                        -0.6204879887497463,
                        -0.459820777470049,
                        0.2551332544942277,
                        -0.36851952183210274,
                        -0.30293820616458234,
                        -0.05376206992034008,
                        0.5772022316670938,
                        0.8934823404501575,
                        0.2191481931224224,
                        0.4481223554457001,
                        1.0364649494247002,
                        -0.6740840421993312,
                        -0.307507731988453,
                        0.08316206779263671,
                        0.07624568276429192,
                        -0.862032340775259,
                        -0.03899033695412346,
                        0.12831138313203638,
                        0.5661783085978489,
                        -0.19087284542881028,
                        0.8699215467344937,
                        0.5557741427588156,
                        0.21182769965931203,
                        0.8456375188406731
                    ]
                },
                {
                    "bias": -0.8915024881123063,
                    "weights": [
                        -0.7537348464847239,
                        -0.9694507261595925,
                        0.6957740977852485,
                        0.8724852958100313,
                        -0.044814761283255566,
                        -0.9662270108080595,
                        -0.7480026929397148,
                        0.5455087216317229,
                        0.33905050407119575,
                        -0.2003333313392165,
                        0.321948535120004,
                        -1.1339828878595972,
                        -0.34724763817025633,
                        0.2846719858534281,
                        0.5305459450606935,
                        0.8398201176150795,
                        0.487763508915791,
                        -1.1129338693497288,
                        -0.4316163775765941,
                        0.33738394387139586,
                        0.49289611339749445,
                        -0.428090681840958,
                        -1.313098193610892,
                        -0.5146023302872675,
                        -0.3587802449980658,
                        0.04070508378631002,
                        -0.9162675712134317,
                        -1.2969679872357742,
                        0.561160152186148,
                        0.8585597961140184,
                        0.9712279541309337,
                        -0.8903134511272951,
                        0.9880792451966922,
                        0.685523208735829,
                        1.0274585361858202,
                        -0.22972525289605084,
                        0.41159810399137,
                        -0.7378084229061634,
                        -0.18877075240471847,
                        0.06336213697835902,
                        0.03383582040380495,
                        -0.8456043258525635,
                        0.3697444530059104,
                        0.7696229686266625,
                        0.34290559219402605,
                        -0.10848784213252091,
                        0.9070340645385493,
                        0.21129486486841675,
                        0.06437086177262041,
                        -0.6634238859232173,
                        -0.7925612014824447,
                        -0.3938853893170011,
                        0.928611179167202,
                        -0.24733913947417185,
                        0.011287083575720383,
                        -0.6840676403064596,
                        0.07366550950038508,
                        0.018747269650337905,
                        -0.48707374347703236,
                        -0.272940482128382,
                        -0.23375014691089385,
                        -0.49230919754705815,
                        0.046773453730518666,
                        -0.03564351472800764
                    ]
                },
                {
                    "bias": 0.9870761236642823,
                    "weights": [
                        0.028945298413254994,
                        0.9076209682541065,
                        0.9225410800066502,
                        0.2631144501562763,
                        -0.6036058280633789,
                        -0.014096783946313307,
                        -0.7030497303712413,
                        -0.44419471800522636,
                        -0.6393368959610057,
                        -0.880272476878144,
                        -0.38011083393749945,
                        0.6129616180643274,
                        0.8329948345819636,
                        0.7664405620695652,
                        -0.6696602011423838,
                        -0.6180039484137687,
                        0.8268100115595431,
                        0.02174990220558617,
                        -0.6668982358632783,
                        -1.0410007633326825,
                        0.43936875063425684,
                        -0.23666663346182848,
                        0.7009434273743443,
                        -0.32260096507268077,
                        -0.11443272750565447,
                        -1.140280773066182,
                        0.6110967479144329,
                        0.8211931300404496,
                        0.5657140363533808,
                        -0.3371365905043641,
                        0.5557363681716235,
                        -0.6646470109301839,
                        -0.4743462724026042,
                        0.471767243933856,
                        0.5183625148468357,
                        0.0345206085625799,
                        -0.26721779810919166,
                        0.8318052205583829,
                        0.16032969611522355,
                        -0.1394050787852169,
                        -0.9848547680232929,
                        0.7149284632192703,
                        -0.9156974988884636,
                        0.8274676754367198,
                        0.5530810016099547,
                        -0.587167419650684,
                        -1.0751235602417228,
                        0.07463133478287198,
                        0.20870060529965007,
                        -0.5325640659257324,
                        0.3683269953061968,
                        -0.3569384605250071,
                        -0.6802184508521264,
                        -0.7135733818018475,
                        0.46076788192596346,
                        0.4943831216052097,
                        -0.09430527272369027,
                        0.19842767957524754,
                        -0.11235880437882562,
                        -0.6587820524963616,
                        0.9455759703519494,
                        -0.5208712832633737,
                        -0.45254459392863544,
                        -0.6578858334840675
                    ]
                },
                {
                    "bias": -0.05611198103154633,
                    "weights": [
                        -0.8540771547025429,
                        0.2641620660499493,
                        -0.506910864965483,
                        -0.9586594458476917,
                        -0.25798475335258275,
                        0.3536840562493,
                        -0.9435142138709846,
                        -0.5007949329450703,
                        0.48024791548040136,
                        0.8539559123357552,
                        0.06716238835478794,
                        0.12959191205450532,
                        -1.185218709707405,
                        -0.728583883335266,
                        0.1458521779374462,
                        -0.7304030785944327,
                        -0.8548291175881536,
                        -1.5152494105381533,
                        -0.7777368462642937,
                        0.2524545776434225,
                        0.8677691132341286,
                        -1.5271580910348266,
                        -0.053544573251414436,
                        -0.2436163673380466,
                        0.2604370868114927,
                        1.6748119811491489,
                        -0.41623495101653807,
                        -0.16670672696064884,
                        -1.0900145856531571,
                        -0.24027502243734475,
                        0.762081176969486,
                        -0.39759323159120663,
                        -0.8208796967849507,
                        -0.7747863324590694,
                        -0.2862445959042891,
                        -0.37580864185914775,
                        0.049175865852403904,
                        -0.23298343667471968,
                        1.0130527049744549,
                        0.05974422723974304,
                        -0.44581097990545027,
                        0.16676841829521896,
                        -0.00370278902289624,
                        -0.4892887671410564,
                        0.31881417979760457,
                        -0.8693705501984142,
                        0.30877778425189517,
                        -0.8658043862626909,
                        -0.8440474746022595,
                        0.28784389750330563,
                        -0.27142616119857277,
                        1.0354389049321424,
                        -0.4404304894836054,
                        0.22491595031517808,
                        -0.3743229652142748,
                        0.368853777353118,
                        -0.46861839735350497,
                        0.043136182726889905,
                        0.10841958090123693,
                        -0.37589211188289623,
                        0.5943367831825861,
                        -0.1588572976919158,
                        0.5902722941666247,
                        -0.8627852768929607
                    ]
                },
                {
                    "bias": -0.9755037008691448,
                    "weights": [
                        -0.7659803842035962,
                        0.05835027296950579,
                        -0.3535487285598874,
                        -0.06574727551347914,
                        -0.5213091101130979,
                        0.7061954986798555,
                        0.4884417445810707,
                        0.646057897082557,
                        -0.29690870144260517,
                        -0.923947147989621,
                        0.9589357022399868,
                        0.205704859385105,
                        0.001782069686972021,
                        1.0282914553573625,
                        0.0017918017701208377,
                        -0.33111831887211574,
                        -0.30529477042392583,
                        -0.030576621787399973,
                        0.06703397973962401,
                        0.06172643019234908,
                        0.0007904813533289784,
                        -0.44966687205045813,
                        1.211318273252566,
                        -0.7708714268034657,
                        0.2545717299238648,
                        -0.5433920292328788,
                        -0.845397330811711,
                        -0.4870784457685189,
                        -0.3261334676442786,
                        -0.6170544665559092,
                        0.1365571733076425,
                        -0.33940264831269285,
                        0.3827879900963922,
                        0.7931168093867867,
                        0.5398209406162751,
                        0.9771171118462283,
                        0.7404145532197238,
                        0.032644379606662124,
                        0.21598973543270428,
                        -0.7815925422038849,
                        0.15934467183395506,
                        0.12661555150782616,
                        0.04824288113377264,
                        -0.884178870731224,
                        0.2106564118758666,
                        -0.9534957133604817,
                        -0.4687503425391785,
                        0.6066028771952738,
                        -0.2182611838068167,
                        0.7486736690934936,
                        -0.013107734965739616,
                        0.7820489359734647,
                        0.4344156213272964,
                        -0.5485509988389056,
                        -0.8777535435423613,
                        -0.060490516508226566,
                        0.6084065519312427,
                        -0.6159172251894685,
                        0.035223914792399835,
                        -0.810554843391584,
                        -0.13701864020763474,
                        -0.8021066951575254,
                        -0.3044183604905467,
                        -0.9086915198288352
                    ]
                },
                {
                    "bias": -0.11444423808038945,
                    "weights": [
                        -0.7095682843167187,
                        0.952787360154459,
                        0.5223301274340275,
                        0.37372353550685733,
                        0.4603241362889876,
                        0.7407375852301425,
                        -0.4669317926591876,
                        -0.3970564600997867,
                        -0.19501568060136198,
                        -0.3743262399799778,
                        0.6112442333042096,
                        -0.011100800004085781,
                        0.36850282222992353,
                        0.18223447227100345,
                        0.6527616715304374,
                        -0.07405340069628008,
                        -0.9548947447700867,
                        0.7019402484226489,
                        -0.2861949789564451,
                        -0.29785485380775656,
                        0.71724711902002,
                        0.6946090060755402,
                        -0.430988252845829,
                        -0.798564565274196,
                        -0.41438224884419805,
                        -0.690625706735278,
                        -0.11553946307031546,
                        -0.0758057462543041,
                        0.22198174845504223,
                        0.011660693260625077,
                        -0.19843758932157307,
                        0.44661055945167805,
                        -0.04594823394247716,
                        -0.7021771058764532,
                        -0.24169394747810719,
                        -0.5706956438011729,
                        -0.8817382898080359,
                        0.30184712544363057,
                        -0.11657602019386122,
                        -0.14142294653757614,
                        0.9790760623193699,
                        -0.48287162680660406,
                        0.714567653158259,
                        0.3449670505744762,
                        0.7511978947766584,
                        0.3493607760764548,
                        -0.8240677192367879,
                        0.6987099487794144,
                        0.002854458523380732,
                        -0.006473244948940784,
                        -0.4820848993644465,
                        -0.3152486258725644,
                        -0.7176065378544576,
                        -0.24449483023598792,
                        -0.030458820786969883,
                        0.03907959490971624,
                        0.40212643211806487,
                        0.9315984798276791,
                        0.8225906518393153,
                        -0.3771314296507318,
                        -0.002573818875128404,
                        -0.3868843258297463,
                        -0.9950841665245054,
                        0.8869146517882658
                    ]
                },
                {
                    "bias": -1.0100803610541231,
                    "weights": [
                        -0.17475007249729246,
                        -0.6987094467965465,
                        -0.020436442000994703,
                        -0.8213477711292672,
                        0.3186099954501773,
                        0.8381406123927517,
                        -0.8422717097412198,
                        0.8507706242849913,
                        0.5677405202611072,
                        0.5239653464052665,
                        0.19221708000185606,
                        -0.48156905416504275,
                        0.7224916737723007,
                        -0.025037574505707205,
                        0.9529565591146036,
                        -0.2807829916853378,
                        0.7190015771049083,
                        -0.47873764526950713,
                        -0.19873538581517075,
                        -0.12096828528650713,
                        0.953050225457305,
                        -1.2899495893413888,
                        -1.3433163658797527,
                        0.7264047096140704,
                        -0.9656509021137146,
                        0.013644193394200246,
                        -0.361689051781562,
                        -0.8264304714366738,
                        -0.6406023027688531,
                        -0.5495903229134601,
                        0.5167115931642046,
                        0.45112827208411344,
                        -0.15252720152611243,
                        -0.45485460535932204,
                        0.7157421067339677,
                        -0.9700659229581726,
                        -0.8960500428212652,
                        0.8458085031688136,
                        -0.6453217889464407,
                        0.9588802857133003,
                        0.3114741366875704,
                        0.5133749748308175,
                        -0.09887137397688543,
                        0.1100466442981787,
                        -0.6389410475072873,
                        -0.13010649263748197,
                        1.1164378652139855,
                        -0.5566844248942493,
                        0.6351026201784158,
                        -0.2475623178787562,
                        -0.01358942971654184,
                        0.6733697211814071,
                        0.5587737147655193,
                        0.5542568000913697,
                        0.2821337496835893,
                        0.26562654379085937,
                        0.7874661273264634,
                        0.815581153061046,
                        0.9130913167787209,
                        -0.8168086430008439,
                        -0.8683897156459106,
                        0.48652691183915686,
                        0.8644727439919826,
                        0.2092361968053673
                    ]
                },
                {
                    "bias": 0.5949786006423662,
                    "weights": [
                        0.4942532440155061,
                        0.3753189907294321,
                        -0.5693341696492089,
                        0.28176203522913257,
                        0.3921724080071656,
                        -0.6104538839359087,
                        -0.4067638290146197,
                        -0.08659885874325357,
                        0.2985285014372918,
                        0.7208593085971007,
                        1.3272534849993267,
                        -0.04273292090240738,
                        0.7452759334740937,
                        -0.37000804404635684,
                        0.7955700642408663,
                        -0.4127815484128806,
                        0.18487709536444252,
                        0.7674255312249347,
                        1.4677038047356905,
                        -1.1605811542747995,
                        -0.9825776661467468,
                        0.9827722386477916,
                        -0.0767792785190681,
                        -0.802626375017048,
                        -0.002786242870048694,
                        -1.2554479734167814,
                        -0.47015339720277405,
                        0.40968125861651755,
                        -0.031014724275270775,
                        0.9062331543225738,
                        -0.5012031813195266,
                        0.910917296964171,
                        0.14369220991790854,
                        -0.07533023541207981,
                        0.06858099294102127,
                        -0.18484007068976446,
                        0.8753472622925079,
                        0.6813481708999257,
                        -0.19319517582006998,
                        -0.35799281921144244,
                        0.5067748108444619,
                        0.0577180988088329,
                        -0.22678817477956814,
                        0.1435849377792631,
                        0.8503204224480263,
                        -0.43406660945158704,
                        0.15696038719172203,
                        -0.6471112909014856,
                        0.8235236032975481,
                        0.9588070445619015,
                        -0.1251687240055932,
                        -1.1975760401378193,
                        -0.9791581647107233,
                        -0.8479446877048921,
                        -0.7776138966208953,
                        0.5615248109966167,
                        0.39530756855165006,
                        -0.03817327741448451,
                        -0.9547345209655979,
                        1.1628646935898188,
                        0.08109301479481913,
                        -0.4314677870978917,
                        0.722888918464486,
                        0.8738921526232233
                    ]
                },
                {
                    "bias": -0.09576391802909401,
                    "weights": [
                        -0.08443175120485558,
                        -0.5902432303830252,
                        -0.1340565425968061,
                        -0.2985162489574944,
                        0.8590225287987956,
                        0.5079506381917516,
                        -0.7917414381130325,
                        -0.05399657369311739,
                        -0.6895747369572403,
                        0.28273282632358976,
                        -1.233822645596918,
                        -0.5323171930138052,
                        -0.16037070885726368,
                        -0.8011506293426176,
                        -0.2680064454991401,
                        -0.5753858441372336,
                        0.17117316982297837,
                        -0.3374391853984202,
                        -0.3787730639685529,
                        -0.7426691380114263,
                        0.509951891974214,
                        -0.949648415535841,
                        -0.004246415418368833,
                        -0.6981739493544092,
                        -0.4042845002395494,
                        0.6419488537411019,
                        0.035299394563093146,
                        -0.32594799370954813,
                        -0.33977320083171997,
                        -0.18183710242845189,
                        -0.32114698717944323,
                        0.8600257848668964,
                        0.3156749155911034,
                        0.5480808413483895,
                        -0.37705984310979523,
                        0.024367094647666298,
                        -0.2259966996537733,
                        -0.1788925532683021,
                        -0.5446199196636581,
                        0.3710318474895469,
                        -0.9474990768113635,
                        -0.7698591960315553,
                        -0.7250733062137875,
                        -0.02931662586653372,
                        -0.6638777497967963,
                        0.012725500547407374,
                        0.6822417780054958,
                        0.8727928278375383,
                        0.9488049819827102,
                        -0.8378932495410645,
                        0.7755915694142423,
                        0.49167843062086874,
                        0.2435732795880798,
                        0.6524255516154372,
                        0.688938926662268,
                        0.556631351614665,
                        -0.48175213089294366,
                        -0.37734364596071823,
                        -0.27912093665409876,
                        0.2450576471074833,
                        0.3109267419420847,
                        0.4075915521977429,
                        0.32273118911438203,
                        -0.15575058532680874
                    ]
                },
                {
                    "bias": -0.09719825858857309,
                    "weights": [
                        0.8842407240924615,
                        -0.9810531427995549,
                        -0.9791459180317568,
                        -0.34599117904249166,
                        -0.8603522730340959,
                        0.3918859294577901,
                        -0.29349025585385513,
                        -0.6256363641590049,
                        0.6713877281506488,
                        0.7034362096821127,
                        0.7315752123102554,
                        0.42242001672980156,
                        0.2764448126312949,
                        0.47543757450242136,
                        -0.3683119385355673,
                        0.5354426622090129,
                        -0.1641416229140673,
                        1.4323621036620422,
                        0.09217326314878806,
                        -1.3715863073872048,
                        0.15072098345385954,
                        -0.11992243816757067,
                        0.379136456262083,
                        -0.8662209137651236,
                        -0.2261310728388517,
                        -1.6505717309473138,
                        0.602102893680379,
                        0.028994605047111682,
                        0.9386214166776733,
                        -0.3735614248092105,
                        0.08707054329107831,
                        0.3204628151471087,
                        -0.4744501409467543,
                        0.1345884612305858,
                        0.8737389983720077,
                        -0.08477487117955554,
                        0.024766852977584127,
                        -0.4156642728257253,
                        -0.5519423132058581,
                        -0.7741642854056154,
                        -0.615582410998448,
                        -0.9124290819023051,
                        -0.1192548026105758,
                        0.5579916254311178,
                        0.6764477811368329,
                        0.5143471688908621,
                        -0.41582207988618025,
                        0.9001790154260485,
                        0.460899228910403,
                        0.9680569886630267,
                        -0.830607096023603,
                        -0.3909222132150137,
                        0.10231081927217953,
                        -0.9520946826990615,
                        -0.04459759942947977,
                        -0.6319456154629335,
                        -0.2030069544925387,
                        -0.23184536641083908,
                        -0.45048513703536486,
                        -0.44743286082168804,
                        0.594109638058166,
                        0.691222840776305,
                        0.5536779517092174,
                        0.8003074944952071
                    ]
                },
                {
                    "bias": -0.9785259273243991,
                    "weights": [
                        0.5281495878138345,
                        -0.5344949204169656,
                        0.40823288699995386,
                        -0.7908690337980487,
                        0.5050663014431793,
                        0.6340686015943384,
                        -0.40645144479649675,
                        0.6206108180902017,
                        -0.4572126033982321,
                        -0.8970570256454204,
                        -0.7016700283636433,
                        -1.414238502133858,
                        0.03153648909196049,
                        -0.7101005560183632,
                        0.5440934819840331,
                        -0.31102435072466006,
                        -0.3821728859945074,
                        -0.7906556048207466,
                        -1.134441211673047,
                        0.5716871738812939,
                        0.8124439698563268,
                        -0.9185088981599551,
                        -1.3721308377532997,
                        -0.6099288769112569,
                        0.2007303550842825,
                        -0.1982193022556133,
                        0.65781300177671,
                        -0.6651362586726858,
                        0.5635452475584397,
                        0.3632373659622403,
                        0.7203625708892226,
                        0.4133649773026653,
                        0.9306413316776236,
                        0.14858947352592616,
                        0.7009660924472324,
                        0.2687871961066131,
                        -0.5395966507703623,
                        -0.7221722954328864,
                        0.4389320095155604,
                        0.33082697788757587,
                        -0.6810125269373006,
                        0.7358683986818083,
                        0.40863972479566313,
                        0.43618959070324476,
                        -1.0922126304971138,
                        -0.036160457752789914,
                        -0.54192738323181,
                        -0.05581251115343189,
                        0.4742301541726246,
                        -0.8525286956873833,
                        -0.882286842102146,
                        0.3436276915816379,
                        0.4289912835149232,
                        -0.23745900972006864,
                        0.6093961484366028,
                        -0.7091498690234264,
                        -0.3246235145836247,
                        0.15104652342900948,
                        0.1828033259058386,
                        -0.6887558447034021,
                        -0.6331649450163321,
                        -0.07145858047132314,
                        0.9739568522078716,
                        -0.4531758946614227
                    ]
                },
                {
                    "bias": -0.4600908410972562,
                    "weights": [
                        0.5964527947811655,
                        0.9825317384593801,
                        -0.12944802042536807,
                        0.8124972934892853,
                        0.03885018687641728,
                        -0.7986210434691148,
                        -0.8685152334480152,
                        -0.21989990827622818,
                        0.6154001874920914,
                        0.5982522962606756,
                        -0.036249332251067606,
                        -0.60959212133896,
                        0.6433007970951234,
                        -1.083929425178307,
                        -0.9522549481840129,
                        -0.80710024098265,
                        -0.7038353000319727,
                        0.04287997588683022,
                        0.14161059607319365,
                        -0.32798113079755586,
                        -0.3795734972303979,
                        0.3897609616909518,
                        0.2052344081180184,
                        0.7811559847468306,
                        -0.24332700634530136,
                        0.9866652007554709,
                        -0.6211744826606251,
                        0.5143100000713142,
                        0.7308376151725834,
                        -0.10677491047592509,
                        0.8002973323871485,
                        0.4463817530527625,
                        -0.07330539779425849,
                        -0.39548358657613575,
                        0.19255269500631245,
                        0.8661281044094871,
                        -0.2789169053352535,
                        0.3485601432422057,
                        -0.1966446460586115,
                        -0.5449420649301921,
                        -0.011383891576614236,
                        0.8183429688164878,
                        -0.005189543978473983,
                        -0.295662621326087,
                        0.7730062470295892,
                        0.012029831462596145,
                        -0.045436280642858845,
                        -0.8010819991124245,
                        -0.7797904190513261,
                        -0.8304999093882238,
                        -0.2382072686688622,
                        -0.21034316275551615,
                        0.739870760410773,
                        -0.8565297251364116,
                        -0.37934854917659816,
                        -0.4509264619326808,
                        -0.9697259124227454,
                        0.02881378448978711,
                        -0.7657120496806279,
                        0.7986484673916658,
                        0.8914220697789625,
                        -0.9979852382084285,
                        0.32658479983293676,
                        -0.10032874955811011
                    ]
                },
                {
                    "bias": -0.13068744129698742,
                    "weights": [
                        -0.41453615455633785,
                        -0.134783961407274,
                        0.4799513004161191,
                        0.975827658537695,
                        0.6108609193986565,
                        0.9350092354859267,
                        -0.03555623397024177,
                        0.4629662649067894,
                        -0.03641793086958023,
                        0.7070553478352053,
                        0.49927617357670295,
                        -0.8111328832788796,
                        -0.36167979386268334,
                        0.663369186881225,
                        -0.7398904644604263,
                        -0.13890243374691458,
                        -0.5964406847937223,
                        0.21733724977274593,
                        -0.2241826611251144,
                        -0.5799417935512445,
                        0.6307484475380642,
                        0.37653777874629313,
                        -0.24513198733884378,
                        -0.22928261348478618,
                        0.4368596009150425,
                        -0.7094121003765337,
                        -0.2857239774168277,
                        0.6138548168445574,
                        0.8881340101292444,
                        0.6558699438504336,
                        -0.9230259594938761,
                        -0.6196129245774881,
                        -0.4914186771453445,
                        0.5376608467257612,
                        -0.6984196558888962,
                        -0.844265039202357,
                        0.5846809485047585,
                        0.2733392022497304,
                        0.4261366032836547,
                        -0.542289481285163,
                        0.02771384596252524,
                        -0.07333029624893407,
                        -0.5238478949983149,
                        0.6594475276334112,
                        -0.3632538335770101,
                        -0.2705184542713124,
                        -0.5968489093010316,
                        -0.0836750450933702,
                        0.868148585720057,
                        0.2953052247430379,
                        0.47811682276775697,
                        0.47037772600067923,
                        -0.7870515881241895,
                        -1.1388257501193697,
                        -0.6737506925290109,
                        0.8243074630500318,
                        -0.4693399339305888,
                        0.12446360808073709,
                        0.26318182482532304,
                        -0.6080062230878939,
                        -0.16576062679348771,
                        0.3423497394390169,
                        -0.2940296285292272,
                        0.2764102161286446
                    ]
                },
                {
                    "bias": -0.7335248444120244,
                    "weights": [
                        0.06218510449965731,
                        0.39585245745063413,
                        -0.6044025968780753,
                        -0.6171563973730227,
                        -0.021739036320587157,
                        -0.14669207816323826,
                        0.41055744952082507,
                        0.9263890366658518,
                        0.35091839514249856,
                        0.08083798414135268,
                        -0.4006692349605986,
                        -0.7607724392685503,
                        0.6046555868671318,
                        0.4868825204354006,
                        0.9767869897078663,
                        -0.20290770251439316,
                        -0.17033411989469738,
                        0.7118211682958914,
                        0.27993521853357967,
                        -0.2757490726548773,
                        0.8350662608610273,
                        0.15764558825300215,
                        0.5946115822214414,
                        0.09207235793213941,
                        -0.7279705543666941,
                        0.5549826845482478,
                        0.8152027588274513,
                        0.7981229859851721,
                        -0.43221555702490355,
                        0.13517997630473155,
                        -0.5160933871394412,
                        0.5163863550482255,
                        -0.46783607707723796,
                        -0.13385000217420015,
                        0.8421465041818629,
                        0.5485706297798216,
                        0.8532565689044646,
                        0.2616739078166213,
                        0.2767830215116345,
                        0.11567185871101526,
                        -0.6093746105252646,
                        0.8306730538656318,
                        0.17901471786154685,
                        -0.9857894212088837,
                        0.357552689333625,
                        0.15339444858416484,
                        -0.33373118832437887,
                        -0.9388858936442462,
                        -0.21206357293392697,
                        1.0944474394353478,
                        -0.06087977501462863,
                        -0.38019763790853606,
                        -0.17119446193275495,
                        -0.8239609086158525,
                        0.8049866800230414,
                        0.2653509980371924,
                        -0.8760199173707608,
                        0.7075187851244205,
                        -0.12026981782180712,
                        -0.3937662618533997,
                        -0.1281173435033363,
                        0.39557831985670067,
                        -0.9054323136366123,
                        0.3759941744506332
                    ]
                },
                {
                    "bias": -0.10165171429235963,
                    "weights": [
                        0.9937976449699131,
                        -0.1135809389471919,
                        -0.9282226757743501,
                        0.30358505030329574,
                        -0.6767670166104878,
                        0.18744918293666513,
                        0.6942104407093537,
                        -0.8007984197702251,
                        -0.5882405562271553,
                        0.6970519151990544,
                        1.1252795255849046,
                        1.3695868233096882,
                        -0.3478427561408556,
                        1.0542591250558675,
                        -0.5992068786170366,
                        -0.5185403830923794,
                        -0.555134463848143,
                        0.6998647634738622,
                        1.0804080443730484,
                        -0.7188434199226292,
                        -0.38439907533858847,
                        0.5865387846458945,
                        0.7099322864204496,
                        -0.2885253826568487,
                        0.6198623485955701,
                        -0.28058016402682917,
                        0.4940012344262803,
                        0.9085966074759607,
                        1.1556878349526984,
                        0.04832861244373983,
                        0.2579031294295477,
                        0.6111414868436482,
                        0.8177181025118185,
                        0.3490994493216744,
                        -0.2011236118496663,
                        -0.5974450819621312,
                        0.07704103039769009,
                        -0.49584445007345934,
                        -1.2832635321261303,
                        -0.006549520886759086,
                        -0.6940111088072933,
                        0.7256600695292739,
                        -0.43883523058324775,
                        -0.13049681720420483,
                        0.9073687869138629,
                        -0.03639126074696402,
                        -0.20519664764443377,
                        0.707431924393136,
                        -0.8365614078177891,
                        0.21247819585276068,
                        -0.3357505234712774,
                        -0.22037334034788988,
                        -0.02055474435533942,
                        -0.19836403820457973,
                        0.7207791343685234,
                        0.11920987680517592,
                        -0.004582356198030713,
                        0.4341739096837929,
                        -0.8653494566051986,
                        -0.07678456408507639,
                        -0.3240730986179779,
                        0.45711507250420524,
                        -0.7760970274806475,
                        -0.8168089472767007
                    ]
                },
                {
                    "bias": -0.9554682105474371,
                    "weights": [
                        0.1386295096662964,
                        -0.6758578613753701,
                        0.43304796024833236,
                        0.7475664865912715,
                        -0.33570519524426445,
                        -0.5735015606384266,
                        -0.9464446231473445,
                        -0.5649027226329328,
                        0.032805612791704686,
                        -0.14347004571159838,
                        0.3426393277413073,
                        -1.4514400920746409,
                        -0.9787187537720625,
                        0.14274990965617973,
                        -0.7966555002129895,
                        -0.09982048957600276,
                        0.9331422531665965,
                        0.08691848570110099,
                        -1.0206150625969717,
                        0.641125176921425,
                        0.4137455048090344,
                        -0.05004918494902837,
                        -1.0527378151820583,
                        -0.3162181234528395,
                        0.6533874588335806,
                        0.45507357689413336,
                        0.02034315595109514,
                        -0.4307237457395116,
                        -0.07122794534777606,
                        0.12260995673008722,
                        0.9037870045081091,
                        -0.623504648741104,
                        0.5565880190378931,
                        0.3820034030710287,
                        -0.7899273157916183,
                        -0.9445779439771916,
                        0.4907632464523046,
                        -0.7620999507502497,
                        0.030822365993435012,
                        -0.1457885322839899,
                        0.03414716805990192,
                        -0.6592602475853051,
                        -0.11878663810221546,
                        0.1465061160526635,
                        0.3423878769444314,
                        0.09906283272737848,
                        -0.6280405982560365,
                        0.6918816071431533,
                        -0.5317991997729052,
                        -0.8201742341830894,
                        -0.043492313806653755,
                        0.970558065327357,
                        1.338982735084038,
                        0.9154985852750898,
                        -0.4623628985969864,
                        0.6469422372276625,
                        -0.48717039985916133,
                        0.4508454713275867,
                        -0.24255523236587417,
                        0.48949898173851053,
                        -0.5779051101167236,
                        -0.2806957761201522,
                        -0.8728092070076657,
                        -0.7601206301525797
                    ]
                },
                {
                    "bias": 0.19113203857995367,
                    "weights": [
                        -0.748747370088821,
                        -0.5392378072902737,
                        0.9356174952982075,
                        -0.5711301563173208,
                        0.11674229387042212,
                        -0.210171037917105,
                        0.46301701174258114,
                        0.47038605970814173,
                        0.683946338335027,
                        -0.36187167342839377,
                        -0.2654397726800303,
                        -0.8396081248721535,
                        -0.4344592117873515,
                        -0.4619949448412235,
                        0.24960901366994204,
                        0.18823701571125406,
                        -0.9813276324334217,
                        -0.42216049733895555,
                        -0.3342376359442999,
                        0.8642259213869187,
                        0.6107083388854089,
                        -0.876572619170257,
                        -1.55506311220826,
                        -0.18014610520570828,
                        0.5861787989671243,
                        1.372843972407445,
                        0.5049559806982798,
                        -1.3894729831542576,
                        0.5037632692113376,
                        0.6203801346689689,
                        -0.5932068337242211,
                        -0.8404924356567173,
                        -0.7962131918390343,
                        -0.6489688717400764,
                        -0.32503699388936724,
                        0.10808429945784588,
                        -0.25958134897073126,
                        -0.8753965290611421,
                        0.26430939479863425,
                        -0.17091254385696375,
                        -0.310477252728528,
                        -0.9842404520409611,
                        0.6062146421206929,
                        0.36226517236753625,
                        -0.5773043910007781,
                        -0.1355337338632605,
                        -0.038347461551766854,
                        -0.040280036181341905,
                        0.82752246401623,
                        0.4174877165336488,
                        -0.6771956145207574,
                        0.4884258284382509,
                        0.0051629009653344216,
                        0.01607283021285073,
                        -0.8411064856260437,
                        -0.8121164617185092,
                        -0.7113080982637163,
                        0.5195300288123683,
                        -0.5066334398028596,
                        -1.1061083335989395,
                        -0.040500525503716495,
                        -0.08693877751330792,
                        -0.6435455994883299,
                        0.4663414524245735
                    ]
                },
                {
                    "bias": -0.8609429177113592,
                    "weights": [
                        -0.05516819053104527,
                        -0.21312944554403868,
                        -0.5864855039801846,
                        -0.0037737698311794965,
                        0.5777857171268135,
                        0.24260195216285152,
                        0.6857489774402925,
                        0.5978262925510418,
                        -0.14690237918258753,
                        0.08869087560507039,
                        0.2545773826921527,
                        1.5333115606985634,
                        0.828645473675642,
                        1.0621249973649263,
                        0.5407247671581454,
                        0.4528404993251154,
                        0.9758529132119627,
                        0.30137098034617726,
                        -0.2769336738504424,
                        -1.0834471380486657,
                        -0.6616992073862161,
                        0.17106163098626662,
                        0.5969838493983525,
                        -0.7268295361319694,
                        -0.26420466288188693,
                        -0.88801800936348,
                        0.47515821673205055,
                        1.5970152571657803,
                        0.880555841949139,
                        0.13601841878333154,
                        -0.11278045393450543,
                        -0.7295943786062273,
                        0.7889371150121731,
                        0.29144187716054276,
                        0.11822151555346719,
                        0.6314628172926701,
                        0.10075693626279561,
                        -0.17436326121849133,
                        -0.7178462624340658,
                        0.4264440068166908,
                        -0.9589282972546892,
                        0.4641204540232992,
                        0.10034375328272066,
                        0.7676271713505385,
                        0.69179536730536,
                        -0.3697112669587212,
                        -0.3672208301009741,
                        -0.022130225329720532,
                        0.417626729895187,
                        0.726224119683534,
                        0.6107103124039263,
                        -1.286377638718429,
                        -0.13906114663449973,
                        -1.527882299438228,
                        -0.7477241248198367,
                        -0.7934486567012261,
                        0.20264243390534187,
                        0.9801627388131631,
                        0.855407902903579,
                        -0.10899780158225263,
                        0.34501525195696325,
                        -0.22736216114245456,
                        -0.20137813370739022,
                        -0.22883358748109717
                    ]
                },
                {
                    "bias": -0.6445070669026478,
                    "weights": [
                        -0.9347462830761197,
                        -0.8621107562734329,
                        -0.32327134223807197,
                        0.017634544995443147,
                        0.10243836655395033,
                        -0.8968273363527037,
                        0.05870624867207663,
                        -0.3941386227468674,
                        0.24281897360590232,
                        -0.22035225817018755,
                        0.696863793251691,
                        1.0384582168802692,
                        0.8955745036537782,
                        -0.3756845699706393,
                        0.3408167787551959,
                        0.18175696357235172,
                        -0.95290154030216,
                        0.5942669140323923,
                        -0.2390214483032743,
                        -0.8662193030090929,
                        0.816483375264982,
                        0.012358473919898914,
                        0.6538910162308693,
                        0.9366843132007328,
                        -0.285527784975957,
                        -1.1761798073248808,
                        -0.12618816953879392,
                        0.6364708280309677,
                        -0.13568003691090882,
                        0.6915171132640962,
                        0.6136010946176984,
                        -0.12464425485797426,
                        0.8279692669529324,
                        -0.7585236947610795,
                        0.7856040663749717,
                        -0.07897303892036263,
                        -0.5738831418595224,
                        -0.13531050282451348,
                        0.36546984690760936,
                        0.6132126206593647,
                        0.7313442797080354,
                        0.11840257037289834,
                        0.510657991352128,
                        0.6407778061075445,
                        0.8309535406252001,
                        -0.18705771236377167,
                        -0.2923825327004863,
                        0.7769937216197111,
                        -0.6106966080193857,
                        0.6223921051222552,
                        -0.9566244750330681,
                        -0.8534044167773954,
                        -0.8715392606403413,
                        0.2844290146530351,
                        -0.7869584051896229,
                        0.09258047449057005,
                        0.5523592808993343,
                        0.2014228893450567,
                        -0.4203094716278415,
                        -0.5629535847504278,
                        -0.03391198036516091,
                        -0.8298171450522808,
                        0.23781705332818315,
                        -0.28052782140696786
                    ]
                },
                {
                    "bias": -0.08902257293686293,
                    "weights": [
                        0.13080734253432946,
                        0.649879812099915,
                        -0.1922025136613299,
                        -0.9174961195874476,
                        0.1861488219286076,
                        -0.5789898939332878,
                        0.8138481601205878,
                        -0.6697039295312501,
                        0.9574127765174083,
                        0.49862217320996427,
                        -0.49702248173933417,
                        0.2790587872686832,
                        -0.560301425947241,
                        1.2029379685242005,
                        0.2239356158412693,
                        0.8841970953551108,
                        0.8948002568887548,
                        0.9127244584091128,
                        -0.3930903942346873,
                        0.06743861510489592,
                        0.583851411622422,
                        0.849606711140279,
                        0.45833012180644,
                        0.05369275112342686,
                        0.9345763576843666,
                        -0.15219276046899263,
                        0.8855149222390635,
                        -0.3524064928049553,
                        -0.07880300817929592,
                        -0.283035245560743,
                        -0.5197191931580563,
                        0.7191243608105575,
                        -0.6854523465435265,
                        0.29872887992902775,
                        0.7228913055843125,
                        0.6555923236086278,
                        1.0624938002224806,
                        0.5404457237188582,
                        0.4371592312458784,
                        0.7283834189774392,
                        0.11409857269101709,
                        0.8399522199175175,
                        -0.48821601548884186,
                        0.5226757863655723,
                        1.1143946523386588,
                        0.7410393477013918,
                        0.05196852015236088,
                        0.6231691863495714,
                        0.3567118408888168,
                        0.9101529537561052,
                        0.11060494714765645,
                        -0.051165974451081224,
                        -0.35654094828542204,
                        -1.3901160401021437,
                        -0.8355690292307453,
                        -0.08478364305793473,
                        0.3973871839220575,
                        -0.792129885308505,
                        0.019975568642828456,
                        1.1441531523527064,
                        0.030986907133795566,
                        0.5621386196287994,
                        0.7048285620775208,
                        0.18708561043584981
                    ]
                },
                {
                    "bias": -0.8360939203149624,
                    "weights": [
                        0.5064568023693081,
                        -0.31221791511039154,
                        -0.31693020058652865,
                        0.12193320185036072,
                        -0.48122536925656034,
                        -0.588546782540412,
                        -0.7639682254586221,
                        -0.5900414928747535,
                        -0.025531139702317796,
                        0.715283496172765,
                        -1.4215305735949941,
                        -0.9643436556737657,
                        -0.11389456386550391,
                        0.32739372575442044,
                        -0.8818680419967827,
                        -0.2955135168952465,
                        -0.17965481485224088,
                        -0.11463137372807122,
                        0.07747568535687278,
                        0.23446353820938745,
                        0.8389062699720823,
                        -1.2265404166684226,
                        -1.4040000388139793,
                        0.7976582272898678,
                        0.6203184079473458,
                        -0.08984219604913166,
                        -0.35824882910494715,
                        -0.6239349771520303,
                        0.4783419708671809,
                        0.7013078132972298,
                        -0.9482223579570789,
                        0.46160915282629866,
                        -0.4549361213366203,
                        -0.232191659798413,
                        -0.3175136714567359,
                        -0.19602906078554008,
                        -0.30265824374336264,
                        -0.10952525879916597,
                        1.0167756725044172,
                        -0.8364519410936404,
                        -0.4651423755405203,
                        0.6023068121706265,
                        -0.08484946492674193,
                        0.5528758957261204,
                        -0.23988926182738923,
                        0.036942411891680564,
                        -0.2610401184201172,
                        -0.8060337387984775,
                        -0.6297862053056184,
                        -1.4228062548982578,
                        -0.1390703451934447,
                        1.2945036686430134,
                        0.06380261301527648,
                        0.9041881044311308,
                        0.9348059212900861,
                        -0.7761358533874787,
                        0.5761420436092382,
                        -0.5721436830107791,
                        0.40632117418866653,
                        0.1725069655434243,
                        -1.073649318691132,
                        0.5008773568556073,
                        -0.00709645403879533,
                        -0.16979801150495089
                    ]
                },
                {
                    "bias": -0.7008366000075631,
                    "weights": [
                        0.5764458997065416,
                        0.8940404979018683,
                        0.4675825375446969,
                        -0.6039799720067438,
                        0.3678375144339341,
                        0.6311305973823791,
                        -0.06912234754726398,
                        -0.020038032447937004,
                        -0.4439012265968608,
                        -0.45553241179116644,
                        -0.1959494338249918,
                        1.102821587008335,
                        -0.06375220620445929,
                        -0.1021198898736094,
                        0.9694127039841436,
                        -0.1342530907756896,
                        0.6087479710619654,
                        1.2878086845791998,
                        0.8808418782038279,
                        -0.4421975123455605,
                        0.4023844546264596,
                        1.2687475826760166,
                        0.04120716718355951,
                        -0.8850689408765495,
                        0.09947796962199629,
                        -1.513240376528869,
                        -0.6455111720162372,
                        0.20209146874993542,
                        0.3828730126873448,
                        0.30470580964171556,
                        -0.14069172242926994,
                        -0.38864789409034317,
                        0.12431165628335972,
                        -0.6889426368036019,
                        -0.10804308057241388,
                        -0.3532683456835605,
                        1.3035319414391051,
                        0.8405796117729447,
                        0.02764461365449693,
                        -0.46632942905012953,
                        -0.51728262636684,
                        0.7903103439759066,
                        -0.9025143576596445,
                        0.3710037629932831,
                        -0.1919314471054113,
                        -0.9498931304535929,
                        -1.150112992353013,
                        0.9819914568131749,
                        -0.9683032082246166,
                        0.9998866094184614,
                        -0.0016752649799422611,
                        0.4009215423035055,
                        -0.0445289746749533,
                        -0.08279420977385787,
                        0.7055999242612075,
                        -0.5270642961967105,
                        0.4692686085911788,
                        -0.7662282361491715,
                        0.07329102934957055,
                        -0.2757589549273598,
                        0.684109152510665,
                        0.9521496929005486,
                        0.11552692070395087,
                        -0.4116454224156427
                    ]
                },
                {
                    "bias": -0.07387961835805368,
                    "weights": [
                        -0.8771009463244588,
                        0.08050374737032873,
                        -0.7238373103196907,
                        -0.9388511609001323,
                        -0.4473851162229595,
                        -0.1901667393698202,
                        -0.4561337872669724,
                        -0.6216909362104214,
                        -0.05729726006151048,
                        0.8891275952985174,
                        -0.6105915922659811,
                        -0.3889375986949977,
                        -1.0014587354143367,
                        -0.5535995734034627,
                        0.07668171407500357,
                        0.7804368239736357,
                        0.6501016857335817,
                        -0.4872914979198552,
                        -0.20062856693739547,
                        0.3379171552496102,
                        -0.18969403185521017,
                        0.13918071886550742,
                        -0.8648360892405241,
                        -0.1370723942001687,
                        -0.2998787096235336,
                        0.47473094560743023,
                        -0.6571525671942537,
                        -0.8351713978534351,
                        -1.120029061017276,
                        -0.16402648697437183,
                        -0.03627214947013674,
                        -0.7107629700148306,
                        0.9958288539181597,
                        0.22892395850019853,
                        -0.5983865483292079,
                        -0.6016225020812394,
                        -1.2411347840447928,
                        -0.05637192569405729,
                        0.2575507494936114,
                        -0.02043943527175085,
                        -0.2166203238147405,
                        0.6802047444348606,
                        -0.9735551204941596,
                        -0.14588226207783167,
                        -0.9464470225714149,
                        0.10403096693229445,
                        -0.07934585716714175,
                        -0.9380489596808557,
                        0.896680448156167,
                        0.5744971165985286,
                        0.0421228876149381,
                        -0.278681480564457,
                        0.7151599968774265,
                        1.0358371043580323,
                        0.47851497905232226,
                        -0.8552015050571419,
                        -0.2632340282496224,
                        0.7157344239371524,
                        -0.2029305227114495,
                        -0.297820433238673,
                        -0.5698648517450218,
                        0.7479313526991436,
                        0.19234097804517525,
                        -0.37311161745950194
                    ]
                },
                {
                    "bias": -0.1700719082535242,
                    "weights": [
                        0.5427268471302125,
                        0.17533211930437576,
                        0.011813741648482923,
                        -0.5630210719830455,
                        -0.8979150801421679,
                        0.9913743063767322,
                        0.22035860513353644,
                        0.7803902708833992,
                        -0.9840802084580438,
                        -0.8961258343868543,
                        -0.8142201788474067,
                        0.022907016652438193,
                        -0.2661880512933492,
                        -0.729555016698479,
                        0.013827439869673608,
                        -0.4143265073254362,
                        0.3935093411214228,
                        0.5302119049797652,
                        -1.0668812984988256,
                        0.051909459291430926,
                        -0.09613515141613811,
                        -0.9431655696566533,
                        0.7599894954122403,
                        -0.3558379511143258,
                        -0.027781330527635872,
                        -0.24739085370962413,
                        0.23521744994068122,
                        -0.3501370567249516,
                        0.8877471863653494,
                        0.8580669190642173,
                        0.6307553605356596,
                        0.4544019994579265,
                        0.0774420793528865,
                        -0.33264583134644793,
                        0.90159634380629,
                        0.15865081209713186,
                        -0.35369674359426617,
                        0.11448539743933778,
                        -0.002384501327482722,
                        -0.2857862214025977,
                        0.2156136972902407,
                        0.11259138446924022,
                        0.7917952582857486,
                        0.9958210007747673,
                        0.34146457509708145,
                        -0.17849302369883122,
                        -0.40001787321179577,
                        -0.20014309659606921,
                        -0.6151480617072191,
                        -0.4384854320042137,
                        0.8196004168018242,
                        0.34128961886865017,
                        -0.1746621949495507,
                        0.7432835418083635,
                        0.9913437481192969,
                        0.7468322998596506,
                        -0.5851144388248746,
                        0.23266319056631213,
                        -0.5330176789001644,
                        -0.7666235480215725,
                        0.041588889090411835,
                        -0.837911740801256,
                        0.7809627129607661,
                        -0.7877847709636133
                    ]
                },
                {
                    "bias": 0.809790920438989,
                    "weights": [
                        0.6723436395043245,
                        0.3917422291784278,
                        0.5673019269329038,
                        -0.21591682881858054,
                        -0.6483405007274544,
                        -0.7184842954010164,
                        0.9996968684716601,
                        0.5038163957669477,
                        -0.8871235260214301,
                        0.9831371158282911,
                        -0.19939402524117192,
                        -0.20302035164425586,
                        -0.5454254714490153,
                        0.6113930468538806,
                        0.34291662245193333,
                        0.15171529313163612,
                        0.5893420202607951,
                        -0.42420992753458836,
                        0.7943957577783225,
                        0.29677506220418315,
                        -0.4036324162604664,
                        0.5052390801007478,
                        0.6016055789351422,
                        0.8463009883865253,
                        -0.8598564573842364,
                        -0.8868924498287218,
                        -0.05234355550465117,
                        -0.8471056320255475,
                        0.7058857029074542,
                        0.13993997956414433,
                        0.17326584942683546,
                        0.47964603150246954,
                        -0.41496840371516,
                        -0.2957539755019546,
                        -0.781951037202839,
                        -0.1451359832695992,
                        -0.08866215501401555,
                        -0.7721560430151408,
                        -0.5083672699236983,
                        0.13293384720242285,
                        -0.753436814878805,
                        0.3163758043156423,
                        -0.9432971136965677,
                        -0.23390360875202781,
                        -0.057446224578291336,
                        0.37988664492883384,
                        0.9709915412779588,
                        -0.34996567170599735,
                        -0.9098886614245776,
                        0.8252576683796039,
                        0.8554731085792436,
                        -0.33548949418680996,
                        0.5217110163245222,
                        0.6355501082220818,
                        -0.44755649889679144,
                        0.6901630217629313,
                        0.6610463809506253,
                        0.531124263783509,
                        0.9923948235774389,
                        0.3856228201387547,
                        -0.3583123219200943,
                        0.16363456526940445,
                        -0.052005195548760375,
                        0.3094452271747614
                    ]
                },
                {
                    "bias": 0.047859880624292674,
                    "weights": [
                        0.21172400620380594,
                        -0.7538636772678531,
                        -0.07776639381319583,
                        0.47515007642803253,
                        -0.31335618687484235,
                        -0.9448325466107729,
                        0.72171326248055,
                        -0.962684738432376,
                        -0.85383401618052,
                        -0.4794726974700916,
                        -0.5102270272070271,
                        -0.14272258126293413,
                        -0.7339183507440896,
                        0.25259511952415864,
                        0.6701924771397338,
                        -0.6520851066578576,
                        0.6829696333422184,
                        -1.0987206330006731,
                        0.31070300479652985,
                        0.7209359446770086,
                        0.19167899746725026,
                        -0.21629800687369266,
                        -0.6883190309971491,
                        -0.544883998830283,
                        0.5804922168983575,
                        0.12385162507340257,
                        0.18200141985304813,
                        -1.0657539199544765,
                        -0.09907263794885969,
                        -0.6547528536002811,
                        -0.32992295634368796,
                        -0.3932097029840619,
                        -0.26488881803345343,
                        0.5676937474352638,
                        -0.8600953528368713,
                        0.15115415588188816,
                        0.14283679375490274,
                        0.8543054218943961,
                        0.9833227189338587,
                        0.7698700594575472,
                        -0.6758190624768934,
                        -0.4437650466907728,
                        0.34910832227695837,
                        -0.2811326550479228,
                        -1.2963458402837196,
                        0.004326732631745337,
                        0.5396430473538402,
                        0.9880893593598574,
                        0.3940852859029944,
                        -0.36063941139996514,
                        0.12357523906363534,
                        -0.40358002953903577,
                        0.02031499706400784,
                        -0.1888084779544323,
                        -0.08932783392816758,
                        -0.7903235507152618,
                        -0.2684401056116633,
                        0.9527226583812025,
                        -0.04619676854749988,
                        -1.1963580708458286,
                        -0.8812867393620161,
                        0.6001062465832132,
                        -0.2665835177835931,
                        0.17680869865082616
                    ]
                },
                {
                    "bias": 0.06990759173217297,
                    "weights": [
                        -0.18464314433962248,
                        -0.4014363071887923,
                        -0.20765305832384762,
                        -0.3809895093464244,
                        -0.9423660505294642,
                        -0.43778299979762314,
                        -0.0568085708919952,
                        -0.38528822333798196,
                        0.9121681963615902,
                        0.7384290042046593,
                        -0.2548020014477136,
                        -0.27641899071472364,
                        -0.18573753871323323,
                        -0.2371969052271783,
                        -0.6736028462991132,
                        0.9226683126402406,
                        -0.7863134461391315,
                        -0.49013556939394254,
                        -0.6168545566739788,
                        -0.39451054534100766,
                        0.484957941132962,
                        -0.46735894691069557,
                        0.04545228752853551,
                        0.37038986169285604,
                        0.7153322266951818,
                        0.5473505519464927,
                        0.8118329761397105,
                        0.08417080189693668,
                        -1.0521866415972478,
                        -0.0515949144048244,
                        -0.5003650863513269,
                        -0.09486562157742007,
                        0.5874597689078467,
                        0.27239690003623207,
                        0.5297625518091761,
                        0.5591960106365801,
                        0.6965239514901556,
                        -0.5234818727471885,
                        -0.5958526920074243,
                        0.7508134766252774,
                        -0.7942346994738256,
                        0.17560561583233528,
                        -0.3209060365332309,
                        0.06297174880911727,
                        -1.0851903613034806,
                        -0.0039057492174764895,
                        0.11544429365359199,
                        -0.6987555882422047,
                        0.6539966769767909,
                        0.453748498328898,
                        -0.2573916186905655,
                        0.13262108508011042,
                        -0.5861304313371662,
                        -0.8403490734755328,
                        -0.5259174225080575,
                        -0.9612711481569666,
                        0.38551526767458544,
                        -0.7458588815042092,
                        0.35416732512142857,
                        0.38267598293917127,
                        0.15042038802613666,
                        0.838248664437909,
                        -0.6195728330032774,
                        -0.16950303649972331
                    ]
                },
                {
                    "bias": 0.5377652030473599,
                    "weights": [
                        0.9045720370042007,
                        -0.5244093190526633,
                        -0.0466777752370936,
                        -0.6280916666742842,
                        -0.2646038240122627,
                        -0.29586429954313875,
                        -0.4223263652167871,
                        0.9150331727764724,
                        0.3872610458113537,
                        0.6650204079528435,
                        -0.6648033500928842,
                        -0.29669593670166466,
                        -0.21128856985143013,
                        -0.39146207545097905,
                        -0.9492197800191211,
                        -0.7630968772634383,
                        0.10325481421465743,
                        0.3734370583993427,
                        -0.21479239478768697,
                        -0.08652064057309357,
                        0.42718082330042967,
                        -0.07791597933459446,
                        -0.18664469695498556,
                        0.818638961677737,
                        0.9531959257801976,
                        0.6895909336737627,
                        0.055292121491579686,
                        1.1702993832555981,
                        -0.3572327982280612,
                        0.9389601587208235,
                        -0.1581262757159978,
                        -0.7217836993382236,
                        -0.6322362002135423,
                        0.8210223357656172,
                        -0.3511221617264159,
                        0.25497273451380686,
                        -0.19918326474873138,
                        0.2301472718241225,
                        -0.21488399139121417,
                        0.9508405038858021,
                        -0.10718132327645147,
                        -0.017637243559226332,
                        -0.6907973749620797,
                        0.6515625689949867,
                        0.6029837373225734,
                        -0.5995313323679959,
                        0.6400691120787204,
                        -0.5721255659927267,
                        0.5208483680714147,
                        -0.43796412875217233,
                        0.6202498877487682,
                        -0.01449158407640845,
                        -0.16365529067965706,
                        -1.1311458110432562,
                        -0.14249138017494029,
                        -0.08271843431644066,
                        -0.9285751189703937,
                        0.9656613264072973,
                        -0.2912738450296567,
                        -0.48052527874475887,
                        0.9322400208831569,
                        0.614847687825024,
                        -0.27671455278839663,
                        -0.7744017558984466
                    ]
                },
                {
                    "bias": -0.0032890757327241056,
                    "weights": [
                        0.37341008213041826,
                        0.3287582198757484,
                        -0.9621290974142631,
                        -0.39879164909887665,
                        -0.6530486334362293,
                        0.988711406471539,
                        0.4940270276246719,
                        0.3677355448565145,
                        -0.6636645475698936,
                        0.06188119531696712,
                        -0.5243380564667418,
                        -0.6099943543989744,
                        -0.21887657380201977,
                        -0.026434391276177985,
                        -0.74441191262771,
                        0.23169552592173948,
                        -0.31948692692419833,
                        0.1628095824836636,
                        -1.1103844019695353,
                        -0.11010098285006158,
                        -0.6624708774370434,
                        -0.2967128308415459,
                        -0.4830496984327965,
                        -0.7894192066925667,
                        0.8217888874103263,
                        0.5620812478632077,
                        -0.9823366493976035,
                        0.06044981760814586,
                        0.7886004079719817,
                        -0.7935517476165193,
                        -0.17666856530299246,
                        0.37191041250336476,
                        0.6227717015998306,
                        -0.06566091417926218,
                        1.0551611426839331,
                        0.8544182432842305,
                        -0.3085889889048026,
                        0.5146512815222061,
                        0.6066406054755215,
                        0.273845779371376,
                        -0.47097301551651816,
                        -0.9846460588423912,
                        -1.0058743369080656,
                        0.37692375135222167,
                        -0.15234017244980047,
                        -0.7325705234429308,
                        -0.15577051555267102,
                        0.8305564494014515,
                        0.6051078837388697,
                        -0.4023396705697376,
                        -0.5276984807738914,
                        1.0550356141500499,
                        1.2112423891104673,
                        0.7330290431257401,
                        -0.8182315289352625,
                        0.7579937818264559,
                        -0.3053620733811343,
                        -0.8709766174997094,
                        0.19463035613048363,
                        -0.5087058044439214,
                        -0.7788071972113608,
                        -0.8944416259855226,
                        -0.9349513314361457,
                        -0.9541914341757965
                    ]
                },
                {
                    "bias": -0.25667305969713866,
                    "weights": [
                        -0.9618325689629803,
                        -0.9844683660121953,
                        0.9918676232881227,
                        0.505313221134857,
                        0.3529902470079205,
                        0.2657134026594987,
                        -0.9656597953129838,
                        0.3828040246771667,
                        0.27429890133175006,
                        0.4300056767789673,
                        0.3604998205937234,
                        1.4661615001997088,
                        -0.7301659124865179,
                        0.034942501305602794,
                        0.14358037018383873,
                        -0.11949116416251804,
                        -0.04731884647501583,
                        0.6407329234970409,
                        0.5638755252289946,
                        -1.2430808108188958,
                        -0.3804419233214425,
                        0.6123959087009606,
                        0.9799804768999721,
                        0.1832392472695743,
                        0.7693378682105512,
                        -0.18509677495172058,
                        0.5597430817446837,
                        1.9538675858687062,
                        1.4789726572496074,
                        0.8088184881479897,
                        -0.12571274826404785,
                        0.863096479262736,
                        0.6676163122372778,
                        -0.12111501170626007,
                        0.24058759405495722,
                        0.35183979725338305,
                        -0.19467546871930907,
                        0.29337056249608007,
                        -1.3392529585182427,
                        0.46113346398860844,
                        -0.1672444199990688,
                        -0.10597819050372817,
                        -0.04263022220136472,
                        -0.02067441030772133,
                        1.0892925344458735,
                        -0.8896633702500225,
                        0.19346779957886126,
                        -0.7476570176648242,
                        0.13679404050893806,
                        0.1421557923894158,
                        -0.18749885805127373,
                        -1.2613330363718402,
                        -0.4464043773748824,
                        -0.09779462713125571,
                        0.1772227447779421,
                        -0.0686097997560211,
                        0.45106967978694934,
                        -0.019474735958257106,
                        -0.1937135575309925,
                        0.6653759564592021,
                        0.021987170737754577,
                        0.7355399810408894,
                        0.13909520541275633,
                        -0.6997737473341514
                    ]
                },
                {
                    "bias": -0.2870750784164658,
                    "weights": [
                        -0.492495096052296,
                        0.32083281191104684,
                        -0.15650429537357036,
                        0.910254809032313,
                        0.7242433939707666,
                        -0.6953708323162844,
                        -0.25698961189807845,
                        -0.3394986248293419,
                        0.30423511904861544,
                        0.6331326419641881,
                        1.060348947349066,
                        0.5392092467087378,
                        0.39101575856655796,
                        -0.7130142582235216,
                        -0.41578452075635297,
                        0.991108550685974,
                        -0.16304663343496928,
                        -0.1425887525499197,
                        0.22694881118474833,
                        -0.5847910469815147,
                        -0.9454592989559287,
                        -0.8018609896211203,
                        1.1089045186171627,
                        0.1299998011114074,
                        -0.10916247643025712,
                        0.11648422734690686,
                        0.7422199042054978,
                        -0.23728560979763025,
                        -0.5249005305027392,
                        -0.9347565710390813,
                        0.28516283994294306,
                        -0.09818881708112959,
                        0.3836688070481964,
                        -0.9088592530602758,
                        -0.2528340410876024,
                        0.13039371497785682,
                        -0.4967163014108841,
                        0.5099775055963132,
                        0.6398393569083443,
                        0.7353986360763194,
                        0.1882090210859706,
                        0.6931831786975292,
                        0.14742647240676532,
                        -0.40121841845046013,
                        1.041072415888429,
                        0.7217725642498932,
                        -0.5296561190634357,
                        -0.22196366601715034,
                        -0.45773906235477846,
                        0.830075539732094,
                        0.30113733783731894,
                        -0.43664597698870805,
                        0.6667056267133306,
                        0.11330383175527942,
                        0.7737403415373115,
                        -0.288369212899529,
                        -0.4593975792915549,
                        0.5843450173662719,
                        0.33800829171110336,
                        -0.0371417948681615,
                        0.6751305179556458,
                        -0.37895306357133807,
                        0.8367198835298046,
                        0.030849818620295233
                    ]
                },
                {
                    "bias": 0.4479811993720717,
                    "weights": [
                        -0.35121412638165717,
                        -0.8612379822233869,
                        0.17874480280035399,
                        -0.7961377472598747,
                        0.9071755939662343,
                        -0.08585656112332674,
                        0.39207127382609586,
                        0.635752374136705,
                        -0.903036487243621,
                        0.984044024713358,
                        -0.05492957249270723,
                        0.12559515249096384,
                        -0.6257551908885788,
                        -1.1581240673135522,
                        -0.5937399964750465,
                        -0.6966324931460584,
                        0.661050677141664,
                        -0.39167741942780177,
                        -1.472151125693184,
                        0.3853264239577238,
                        0.21652313362727946,
                        -0.9854859448127355,
                        -0.2042712109102672,
                        -0.4959242313615625,
                        -0.8262001517350785,
                        0.1346081798616444,
                        -0.8254504042008832,
                        -1.0366074531419636,
                        -1.2422535127231944,
                        0.046491076534326915,
                        0.5829964456749628,
                        -0.09254109817209699,
                        0.3208686166074446,
                        -0.274526446996289,
                        0.175172576168332,
                        -0.04226304636736554,
                        0.15542634570433572,
                        -0.4305803337969666,
                        0.4116672252753225,
                        0.7322798248996398,
                        -0.5125635478238406,
                        -0.5550673949292907,
                        0.6005795705164955,
                        -0.01245074157098552,
                        -0.8150788790592703,
                        -1.004559930709481,
                        0.7756312499343972,
                        -0.5434457219873767,
                        0.10053437068151982,
                        0.07432796374156574,
                        0.23343863403772258,
                        -0.6819797143525798,
                        -0.26559405285477716,
                        0.44865710229938566,
                        -0.33669815814173,
                        -0.5083185394798957,
                        0.31199389291554414,
                        -0.3244023291973408,
                        0.28652824521368747,
                        0.24315616480957766,
                        0.530193513317965,
                        -0.171043684320079,
                        -0.5218741779783155,
                        0.17857288624093526
                    ]
                }
            ]
        },
        {
            "activation": "linear",
            "nodes": [
                {
                    "bias": -0.48694143889537317,
                    "weights": [
                        0.7336340035065003,
                        -0.6715609249075891,
                        0.4382844912507076,
                        -0.9431209785803751,
                        0.44636815914391514,
                        0.31244642779793386,
                        -0.7687876988750127,
                        1.0541012107349597,
                        -0.5938836128989683,
                        0.8907724597285562,
                        -0.7417697583008702,
                        0.05879638958434464,
                        0.35320530516758636,
                        0.2781819701543598,
                        0.8931822069348552,
                        -0.8760876767878696,
                        -0.8745571747635202,
                        1.1359525130862276,
                        0.36310304726839376,
                        0.6214982419861139,
                        -1.124895202708543,
                        0.7070603084946588,
                        -0.5480383035746069,
                        -0.2348139708059148,
                        -0.05908195773492668,
                        -0.8477771526591609,
                        -0.2004088988606898,
                        0.33694268324264803,
                        -0.7604638366616155,
                        1.1659376053837927,
                        0.2811171943387996,
                        -0.8534672412991763
                    ]
                }
            ]
        }
    ]
}