{
    "layers": [
        {
            "activation": "sigmoid",
            "nodes": [
                {
                    "bias": -0.28853664480222974,
                    "weights": [
                        -0.015951319139428155,
                        0.7534026493101393,
                        -0.4312490240816256,
                        -0.8360115167852544,
                        0.8860655882796578,
                        0.8282580225860039,
                        -0.6153694203195019,
                        0.42135625305648716,
                        0.7393035095833724,
                        0.9508045334139861,
                        -0.21374972418714241,
                        0.2621233988823054,
                        -0.49948627288184333,
                        0.22117237341937107,
                        -0.5389431209950444,
                        0.8333513959466254,
                        -0.9558498542550252,
                        0.29756991717811354,
                        0.04259632754149,
                        -0.8854169396485696,
                        0.7873081452648261,
                        0.4727220894736804,
                        -0.15235467784923637,
                        0.6869425399633788,
                        -0.052125094017072104,
                        -0.017537568567298167,
                        -0.2714411456230213,
                        -0.2843928603214018,
                        -1.231872641632194,
                        0.10898707385985974,
                        0.9825853901045583,
                        0.02260956029529204,
                        -0.13214751478850262,
                        -0.5756710313449579,
                        0.3124085247656465,
                        -0.39300481196979825,
                        -1.1541554855925458,
                        0.5747047726192837,
                        -0.6185875602892006,
                        0.9066682541308311,
                        0.5220331566045215,
                        0.23007301816956802,
                        0.3282311085906409,
                        -1.0029614217550973,
                        -0.6576612788973573,
                        0.718000859452006,
                        1.074482057642617,
                        -0.3949273533164185,
                        0.21661114935605386,
                        -0.012561568364758994,
                        -0.483746599175788,
                        -0.10146178747378054,
                        -0.33016623994176136,
                        0.6742611666348026,
                        -0.48530766307170603,
                        0.5918470479510012,
                        -0.6900320899160728,
                        0.2668340798778619,
                        -0.38142246631040355,
                        -0.6349018192677899,
                        -0.6021466920758948,
                        -0.6110667202673232,
                        0.37113834888261676,
                        0.24913640099071732
                    ]
                },
                {
                    "bias": 0.7579581632809518,
                    "weights": [
                        -0.44226360760734584,
                        -0.9969455264494501,
                        -0.10459525375840961,
                        -0.871034985348133,
                        -0.8216712008331303,
                        -0.1979270005589011,
                        0.6509981712563886,
                        0.3231795706428493,
                        -0.954918139593172,
                        0.7457046619363616,
                        0.8031091043603291,
                        0.7463793503016484,
                        0.6537055158970244,
                        -0.6065318859914679,
                        -0.034241249335110746,
                        -0.24971670901855303,
                        0.09766386127921933,
                        0.7774659285640798,
                        0.42308391862305006,
                        -0.161351331597854,
                        -0.5957526936867393,
                        -0.001069548532732903,
                        0.06859427013713973,
                        0.6417421864540047,
                        0.6046800136587955,
                        0.454355507259722,
                        -0.9771455499782766,
                        0.9436988288264159,
                        -0.25142495992520375,
                        0.29852978755986487,
                        -0.19894077475070623,
                        0.36508417193083287,
                        0.27521697677449186,
                        0.6213336037485816,
                        0.43641815464537953,
                        0.41632060974668317,
                        -0.5702610308308278,
                        0.14110478356570164,
                        -0.23705651483726534,
                        -0.5357871006875239,
                        -0.10924798115587231,
                        -0.334897020344271,
                        -0.7823639360259786,
                        -0.45342095598216337,
                        0.1501240368843151,
                        0.16228410497413545,
                        0.2946189215436976,
                        -0.7523340050840444,
                        0.005981409459366205,
                        -0.2928187833280766,
                        0.05163206888174991,
                        0.34710833459912693,
                        0.6466609491102027,
                        -0.9038387137538619,
                        0.025143910702583618,
                        0.2998357803094367,
                        0.5492687986927427,
                        0.04565780472273828,
                        0.2934490727695864,
                        -0.6151950742990994,
                        -0.6539913445833405,
                        -0.9848976330761321,
                        0.7217007492304317,
                        0.5930372837898494
                    ]
                },
                {
                    "bias": -0.01657508525019902,
                    "weights": [
                        0.21574993581313162,
                        0.046583058799888555,
                        -0.9487085537746123,
                        -0.6392027072791022,
                        0.8233084044527768,
                        -0.48449565446213616,
                        0.25154931156502536,
                        -0.5158641792442017,
                        -0.27113515384082454,
                        0.8160638761781454,
                        0.9242444068801491,
                        1.1170928451055595,
                        0.2910834702225979,
                        1.162912955397843,
                        -0.08603449309525757,
                        0.839915019385477,
                        -0.09281732472256632,
                        -0.2637818034176899,
                        0.895436255782059,
                        -0.10964267072311872,
                        0.03634529023759315,
                        0.1098221364421985,
                        0.08567828448414379,
                        -0.636855470778819,
                        -0.8716443608848585,
                        -0.8902744633875532,
                        -0.3270677501356639,
                        -0.19942941879312945,
                        0.19257054047839461,
                        -0.6409144527096633,
                        0.45150278158282114,
                        0.8635781043505195,
                        0.3205851778949542,
                        0.6068815089224141,
                        -1.2217139445107947,
                        0.44775055243129985,
                        0.20601243204559305,
                        0.48620386706566554,
                        0.0669121893859964,
                        0.07127905128117606,
                        0.29198858295194263,
                        0.04213900590302027,
                        -0.2407652019351692,
                        -0.3598114344875544,
                        0.7023984206481598,
                        0.8271146959637968,
                        -1.1354400431462301,
                        -0.9488460197806573,
                        -0.8119163223597763,
                        1.0497214472477947,
                        0.3918719304678709,
                        0.3480999919818666,
                        -0.5337251719259052,
                        0.6256957301406855,
                        0.9595073193700681,
                        -0.23890167532437556,
                        -0.4329657151517299,
                        -0.45032023147229117,
                        -0.09544366928536618,
                        0.23255020895115844,
                        -0.15863035588040228,
                        -0.31982525592661704,
                        0.07844055680485473,
                        -0.8557329344822713
                    ]
                },
                {
                    "bias": 0.6890360138204418,
                    "weights": [
                        0.30281595294494923,
                        0.2881606478654597,
                        -0.15050119215180224,
                        -0.22125934028125338,
                        -0.08380994996233371,
                        0.9207778600606964,
                        -0.9292707573293106,
                        -0.8216425933975925,
                        -0.09995899214407378,
                        -0.5064204435359783,
                        0.7299621974024327,
                        0.020631758727343654,
                        -0.06010608137106939,
                        0.7779055884347068,
                        -0.01864665980387792,
                        -0.4458189911422408,
                        -0.5551212837710611,
                        0.027903628702028185,
                        0.547632192961453,
                        -1.138298874170442,
                        -1.0017921827551797,
                        1.2352586838156645,
                        0.2568849107231777,
                        -0.09468155591500993,
                        -0.1474216492601771,
                        -0.04045133758452934,
                        0.7379614450582104,
                        1.316501464311923,
                        0.6005559629676588,
                        0.9370076684365549,
                        -1.3728859150037624,
                        -0.7510611702460149,
                        0.16142804602227545,
                        -0.3499328301633362,
                        -0.40802140339341697,
                        -0.5750456354852668,
                        0.719911336258556,
                        0.09906384654839044,
                        -1.3401366287710827,
                        0.7101553723729008,
                        0.5919882895387654,
                        0.339034878655729,
                        -0.7358443015534585,
                        -0.39650139934209966,
                        0.5637951233291241,
                        0.4099513925163255,
                        -0.5259449994020203,
                        0.39666562313058673,
                        0.9717021165283872,
                        -0.6217291915740681,
                        0.8025572254457742,
                        -0.8378176734469133,
                        -1.1309091513055394,
                        -0.8997515798971987,
                        0.31306604256700027,
                        -0.10996174677739001,
                        -0.9970466075451331,
                        -0.03834043305289947,
                        -0.5772086528955067,
                        -0.05945496548888808,
                        -0.17360427151151875,
                        -0.5373709562874264,
                        0.1980151008805331,
                        0.9963550101948693
                    ]
                },
                {
                    "bias": -0.33420458612623777,
                    "weights": [
                        -0.7743054096467352,
                        -0.9260268946765116,
                        -0.8379200873141737,
                        0.3241033234280084,
                        -0.6700513929454849,
                        0.8722352850587272,
                        -0.08390838796454869,
                        0.9082528221925035,
                        -0.6243396818751188,
                        0.2644247912170481,
                        -0.23445097151810482,
                        0.8966736861869407,
                        -0.825872343044423,
                        -0.8599117626228246,
                        0.8321408088468671,
                        -0.7436231382859979,
                        0.7391565561942555,
                        -0.8763357154569104,
                        -0.611254856780621,
                        0.976107006025044,
                        0.43514682653519654,
                        0.23492955371087498,
                        0.8785096632313383,
                        -0.6461995996749959,
                        0.6066663645238926,
                        -0.18632806673317145,
                        0.19901192679265806,
                        -0.9663080565943928,
                        -1.023521933614956,
                        0.24382270084572366,
                        0.5285739824253225,
                        -0.7498330184024913,
                        0.2590554800159557,
                        0.5713196297454988,
                        0.4666297229360849,
                        0.5760491738804052,
                        0.562320641131148,
                        -0.48784371251278325,
                        0.4342480718310068,
                        0.8312364741373977,
                        0.7547867082780164,
                        -0.6547246056451328,
                        0.6796539243162645,
                        0.9171584136008832,
                        -0.3395776917846164,
                        0.5134455117688221,
                        -0.8611290944112178,
                        -0.646841457880494,
                        0.6832975725099899,
                        -0.4988349801861335,
                        -0.684425353078263,
                        0.03858183479538638,
                        0.5968313473994428,
                        -0.8953424073781064,
                        0.44621957150711505,
                        0.2624806953885037,
                        -0.06857551684071106,
                        -0.38203382928950425,
                        0.3317761036249698,
                        0.004598782694570089,
                        0.8517504527626816,
                        -0.24696293903838984,
                        0.2060638569323643,
                        0.06210402448759611
                    ]
                },
                {
                    "bias": 0.4539948463551768,
                    "weights": [
                        -0.21966583804211848,
                        -0.3488918893732559,
                        0.791954086065271,
                        0.27069607901884996,
                        -0.8516349810416042,
                        0.623190559271346,
                        0.025482786365543797,
                        -0.49433834547844635,
                        0.314865724795901,
                        -0.05279152610003557,
                        -0.030710711480586517,
                        -0.23870905948242907,
                        0.054647185827001406,
                        0.31627766659414563,
                        -0.4780207301853321,
                        0.5972503365935993,
                        0.7004083551934028,
                        0.41134308229152605,
                        0.1399736701187811,
                        0.8850860625949857,
                        0.14206723800510984,
                        -0.5809151946617842,
                        -0.46217419987070263,
                        0.6446226526259551,
                        0.8473214664716839,
                        0.9994180300778897,
                        0.44633502156952937,
                        -0.6719985339311814,
                        -0.3336135990879368,
                        -0.5065755861120814,
                        0.1020130421630329,
                        0.679094923510726,
                        0.16088333128061305,
                        -0.19909805797186725,
                        0.07060227637268039,
                        0.17910802818107546,
                        -0.9486745307301401,
                        0.9718226169431389,
                        1.0029313954635632,
                        0.666746826687244,
                        -0.07751773906756088,
                        0.006785044615502441,
                        -0.4223600775312656,
                        -1.0383244618675835,
                        -0.794531906675637,
                        0.0366915365261987,
                        0.776307519664998,
                        -0.8921958161015975,
                        -0.37517453142217105,
                        -0.1883363712453813,
                        0.8129858180584492,
                        0.686332572339984,
                        0.4423341069186253,
                        -0.357040023440039,
                        0.26690399134477255,
                        0.2609751165197114,
                        -0.657323336069157,
                        -0.2562242016458065,
                        0.8613336430216831,
                        0.24399169743410096,
                        0.25610529095847473,
                        -0.20192989949226836,
                        -0.07946765193690897,
                        -0.5855656497113246
                    ]
                },
                {
                    "bias": -0.23418289820782015,
                    "weights": [
                        0.8703233496613443,
                        0.7236827005276842,
                        0.8786417459503941,
                        0.8455971376251417,
                        0.5385927052882467,
                        0.5453885726376384,
                        -0.2319206023737419,
                        -0.526833648573064,
                        -0.9491829043017621,
                        -0.1841273182929155,
                        -0.4561508270523864,
                        -0.07548387404391703,
                        -0.6784060963857457,
                        -0.36204530527821266,
                        0.7030503580826568,
                        0.3590245886515009,
                        -0.09845390408227872,
                        -0.05888027827684974,
                        -0.4577301035863664,
                        0.748916466439114,
                        -0.07527290115060079,
                        -1.1612442776464829,
                        0.4532997288386655,
                        0.39441270911805915,
                        0.8949869973096005,
                        0.822425903734845,
                        -0.3396181461340519,
                        -0.9046111558665927,
                        -1.4570332254506908,
                        0.03865227183157091,
                        -0.40356176667185256,
                        0.9264956432983724,
                        -0.2139192219888415,
                        -0.7270737938362691,
                        1.050749284259058,
                        -0.9542917811707184,
                        -0.008190706246123636,
                        -0.4560834227033417,
                        0.2201579590142721,
                        0.6946651543000084,
                        0.3560448593255341,
                        0.8528687359891977,
                        -0.05264323692688702,
                        0.6253718457092958,
                        -0.7726723393348217,
                        -0.4854913458002106,
                        0.47610407074604527,
                        0.5683144766689812,
                        0.8304727086007935,
                        0.7585303648986245,
                        -0.08248298068915177,
                        -0.4268902887201361,
                        1.0606187712743316,
                        0.015644703972464362,
                        0.8104708956619271,
                        0.8773043387929464,
                        -0.8503172024387481,
                        -0.47651394618512777,
                        -0.42963856525236677,
                        -0.7693681969013408,
                        0.6106608441300481,
                        -0.2098208243073061,
                        -0.8676492655033475,
                        -0.628035090690495
                    ]
                },
                {
                    "bias": -1.0042333347349004,
                    "weights": [
                        0.9044435144888441,
                        -0.30336160832241255,
                        -0.4675132806727259,
                        -0.5553843088240289,
                        0.49447822640392847,
                        -0.77284812730404,
                        0.8006605505015052,
                        0.17288024126220503,
                        4.191556947397146e-05,
                        0.6176217103459043,
                        0.8314934287448714,
                        0.4648102249577417,
                        -0.21625265496580776,
                        0.39969424780480195,
                        0.3064550241951156,
                        -0.25772855489408997,
                        -0.4721965703518114,
                        0.7736966545531563,
                        -0.29229609885402924,
                        0.5401413620278049,
                        0.6670948435162066,
                        -0.4102403800920633,
                        0.6768133357554765,
                        -0.8134269778679251,
                        0.17225455919851296,
                        0.921872760739462,
                        0.7710742594407994,
                        0.9422750462951832,
                        -0.9875622107229158,
                        -0.8609565216819495,
                        -0.1398456738467511,
                        0.934178421243177,
                        -0.15893954465116356,
                        0.3898778591886287,
                        -0.6083265922322016,
                        -0.6785489914419734,
                        0.576237963175478,
                        -0.825076165203917,
                        0.5272053812560643,
                        -0.38924709772190413,
                        0.7970763723352348,
                        0.354386287410434,
                        -0.9069460378829396,
                        -0.41685029883522046,
                        -0.26397120402312046,
                        0.39075060066313033,
                        0.3430970064840526,
                        0.2838340705651017,
                        0.1807548837646631,
                        -0.9515832107314098,
                        -0.18977889973597886,
                        -0.1559295751470922,
                        -0.3404478975149239,
                        -0.48838844638470763,
                        0.02583100339824808,
                        0.831691745590275,
                        -0.5854063954136364,
                        -0.19712797142431515,
                        0.7941254804814819,
                        -0.558845231545928,
                        -0.05587965063969214,
                        -0.35480212483313034,
                        -0.6214930692787716,
                        0.7883545466644477
                    ]
                },
                {
                    "bias": 0.4223077570970289,
                    "weights": [
                        -0.2426989568596235,
                        -0.8761067734454324,
                        0.6394679777507988,
                        -0.06324429487029293,
                        0.632312148638215,
                        -0.7497791199711055,
                        -0.26616792346638063,
                        -0.019620309127317936,
                        -0.6630439020986874,
                        0.3245159077106583,
                        0.9531991367806665,
                        0.9184783427243228,
                        -0.2047652286911294,
                        0.2241097939149493,
                        -0.089098777197813,
                        -0.28498475499683285,
                        0.8459247536239796,
                        1.1249484094404218,
                        0.7162009637157041,
                        -0.7158910307918208,
                        -0.4472837981431163,
                        0.46637734147740734,
                        0.23275770026294776,
                        0.588029976742356,
                        0.0002696556040411302,
                        -0.5125189869869275,
                        -0.4744105590337145,
                        1.216891662980576,
                        1.0659228403872523,
                        -0.5830508568486891,
                        0.4139820653576495,
                        -0.6421357251899948,
                        -0.5524281587230173,
                        0.12351929517248629,
                        -0.13379432825321438,
                        -0.6613083099931901,
                        1.352722453062533,
                        -0.9631019902653237,
                        -0.45028868830080726,
                        0.9008694765627707,
                        0.3529679632526672,
                        -0.3934991918139249,
                        0.440842612140217,
                        -0.8040375423782196,
                        1.3228208909362829,
                        -0.5187660990199036,
                        -0.6426844992333761,
                        0.6628431657621838,
                        -0.7033398885761108,
                        -0.682009600771815,
                        -0.6699191189050928,
                        -0.07040309227736721,
                        0.14090643253685928,
                        -0.2080228944108976,
                        -0.24355186090007994,
                        -0.6936793474916738,
                        -0.9742385577290499,
                        0.20517210439088385,
                        0.9517881842105593,
                        0.6633895260478896,
                        0.5659155702892884,
                        0.6260127050923243,
                        0.9841889496819065,
                        0.9764225603902819
                    ]
                },
                {
                    "bias": -1.1898478566321058,
                    "weights": [
                        0.27880892869029616,
                        -0.9436934515571657,
                        -0.49638141854497675,
                        0.3072609842323051,
                        0.11657022923071403,
                        -0.5955119419822059,
                        -0.3397710525150276,
                        0.9132442408768666,
                        -0.964496127313234,
                        -0.32933190713139804,
                        1.0631498470407206,
                        -0.3601105659970441,
                        0.4747173189123554,
                        0.7532297355406444,
                        -0.1259189774868632,
                        0.4960293050371247,
                        0.4189831695607784,
                        1.277836757509227,
                        -0.14650069469632412,
                        -1.0317040484166822,
                        -0.6175957203806317,
                        0.1796913330251609,
                        -0.44802744037886616,
                        0.8309192237588201,
                        0.060189138660295516,
                        0.4346483261659826,
                        0.3475443735267163,
                        0.12515189675018504,
                        1.2514520058652927,
                        0.2881819443250752,
                        0.27452310086728104,
                        0.1377723045357373,
                        0.39249905077391256,
                        -0.9791805284217459,
                        -0.634208481027441,
                        -0.3025353378680891,
                        -0.1542467044787787,
                        0.07566654625436176,
                        -0.7946440516401205,
                        -0.43048244036290906,
                        0.7759303291216169,
                        -0.956229984389035,
                        0.038232314303384564,
                        0.30638566699770514,
                        0.7880662605992022,
                        -1.0074818048491585,
                        -0.49590731857957393,
                        -0.03553483962804771,
                        0.976918576274495,
                        0.5777534182902403,
                        0.2274620636917328,
                        -0.4351523242283393,
                        -0.43201792239642184,
                        0.4139724086564059,
                        -0.548434190131416,
                        0.6387525124655815,
                        0.31037765150441676,
                        0.7933548604107252,
                        -0.6750456447131212,
                        0.09518813944745794,
                        0.055394472976757744,
                        0.9508614027643862,
                        -0.6928866690457272,
                        -0.4779535892782517
                    ]
                },
                {
                    "bias": -0.8209859107541336,
                    "weights": [
                        -0.24785338120900713,
                        0.03111569072637499,
                        -0.38559928321540327,
                        0.8574088550440078,
                        0.45342921067654585,
                        0.1839182764216878,
                        0.633339183234302,
                        0.605905382710465,
                        -0.6691432537832964,
                        -0.1946080053200051,
                        0.24438217293846023,
                        -0.6294433038784231,
                        0.4963218029018953,
                        -0.7855135796322598,
                        -0.6712051852006489,
                        -0.05636347041296008,
                        0.3030060042175493,
                        0.014723966600860349,
                        0.5311490177313004,
                        -0.33153787998195533,
                        0.3046296616977473,
                        0.17399875106426063,
                        -0.8790228740884144,
                        0.15840028652846816,
                        0.4859067711447862,
                        0.13185099986907242,
                        -0.7058817354656949,
                        0.5391470391119453,
                        0.6191831764816762,
                        -0.2031809891506585,
                        0.43976407675582235,
                        -0.7224121455673185,
                        0.84110974885575,
                        -0.8933411887363039,
                        -0.8688958489448594,
                        0.33841481248594213,
                        0.375616784706661,
                        0.7664340539473286,
                        -0.1409428081128659,
                        0.6463309440977549,
                        -0.42627211447165914,
                        -0.9730653953625907,
                        0.9733100742895886,
                        -0.9185404386303236,
                        -0.7815681482974927,
                        -0.6787687875288334,
                        -0.03706138682120731,
                        0.47069025108157203,
                        0.2584625069324218,
                        -0.45442199102349107,
                        -0.783223260729956,
                        -0.3805498321263697,
                        0.6755721674092124,
                        -0.7498636643307226,
                        0.7810008379300789,
                        0.15989761574189076,
                        0.4766142617336542,
                        -0.9301441330137402,
                        -0.40333421128025937,
                        -0.020627585011790163,
                        -0.14283315634017657,
                        -0.886179007536815,
                        0.27964335180802435,
                        -0.2790403260286154
                    ]
                },
                {
                    "bias": 0.32409166956645097,
                    "weights": [
                        0.4146400612847134,
                        -0.9845013674276422,
                        0.5608511118036001,
                        0.1829759521330594,
                        -0.08405702611620403,
                        0.2071820549700325,
                        0.7567038385927229,
                        -0.032225312214449686,
                        0.20538923852396618,
                        0.8039058352838764,
                        0.4628858285265912,
                        0.5990079179087978,
                        -0.1229046060744562,
                        -0.041451033237759644,
                        -0.2091462571216497,
                        0.30778279030126643,
                        -0.18455133735414186,
                        0.7241333562745106,
                        0.030735102398895712,
                        -0.1713408418214478,
                        -0.031150749681405986,
                        -0.7928658432629128,
                        -0.16600570497366293,
                        0.2661257643560533,
                        -0.26166296063999783,
                        0.1607674241524397,
                        -0.8550422257797654,
                        0.2604326847514077,
                        0.2015819388218963,
                        -0.17649701566184006,
                        -0.22408697551797013,
                        -0.7533118118314593,
                        -0.11756600398456962,
                        -0.44244757510784516,
                        0.3726123869895278,
                        0.9766596120481796,
                        1.1473105228337872,
                        0.16906226374085231,
                        -0.4259220466431223,
                        0.07095735011201221,
                        -0.0097261867531232,
                        0.8007769587458456,
                        -0.4974850465992404,
                        0.9145498342143168,
                        -0.271468493652385,
                        0.3719945899797957,
                        -0.045619733602401444,
                        0.3232084379173854,
                        -0.19143599513519372,
                        -0.8163711476948616,
                        -0.5633336135061101,
                        -1.0207155446264173,
                        -0.7843307081267604,
                        -0.07093903606536385,
                        0.28417416906267146,
                        -0.04541711092247491,
                        -0.5003024886829324,
                        0.4169353541996961,
                        0.8067409218320347,
                        0.2584383490702028,
                        -0.78943657335057,
                        -0.09572413242222932,
                        0.5784338282320807,
                        0.166304713658199
                    ]
                },
                {
                    "bias": 0.1299110987858338,
                    "weights": [
                        0.008097968533680833,
                        -0.03531831644257455,
                        0.4282300367151526,
                        -0.8055340535033187,
                        0.7308333403108798,
                        -0.500812613172835,
                        0.18473975974355805,
                        0.632443931713907,
                        0.10253597288510585,
                        -0.030242066378817878,
                        -1.2548106351114947,
                        -0.6565456746812888,
                        -1.081933824350846,
                        0.04948588141445019,
                        0.3053023057548805,
                        -0.8628665049853113,
                        0.8603556006496564,
                        -0.14813143621428737,
                        -0.8631579320146595,
                        0.05816995590560919,
                        -0.10512920802363686,
                        0.11775341855014748,
                        -0.1689347124299299,
                        0.9980312250545393,
                        0.1147031547104489,
                        0.36616271816198137,
                        -0.7061022130852401,
                        -1.6328430640719136,
                        -1.346122796211542,
                        0.4423306211698923,
                        1.010697761574023,
                        0.22562328317464475,
                        -0.5871116610183901,
                        0.1958224718035235,
                        0.6873069386793198,
                        -1.1543071143460009,
                        -0.15113714640804055,
                        -0.3830341284052575,
                        1.209703180860252,
                        -0.38840565895121804,
                        0.5745869230360663,
                        1.102320806596203,
                        0.2942841314745474,
                        0.42918887613447554,
                        -0.07576156398781819,
                        -0.5418127530096053,
                        1.0853296196510567,
                        0.2401370607503397,
                        0.723771153820572,
                        -1.0740001614097066,
                        -1.141048704293736,
                        -0.6010420367258574,
                        0.5107999106687492,
                        0.36705696001839294,
                        -0.7574315130033983,
                        -0.4496759527594205,
                        0.9942227303954878,
                        -0.41519980943538237,
                        -0.4306969314025235,
                        -0.7428006507096074,
                        -0.9215418488259346,
                        -0.8490559858498424,
                        0.4373713282110967,
                        -0.554104815029588
                    ]
                },
                {
                    "bias": -0.03747330958065699,
                    "weights": [
                        -0.1425394421175772,
                        -0.41038313666842097,
                        -0.33012663448700985,
                        0.462289547297307,
                        -0.6342175265933468,
                        0.2814677065617721,
                        0.03687647033337349,
                        -0.717848210464161,
                        -0.6101996514993718,
                        -0.32597771069313297,
                        0.8485975181694483,
                        -0.2598009748089506,
                        -0.5638150799923396,
                        0.12554211279541422,
                        -0.4727935518477082,
                        -0.4240397361219115,
                        -0.05014429290319988,
                        -0.09575798590341726,
                        -1.1661508390651867,
                        -0.8937940016682331,
                        0.050686494276107115,
                        -0.5415324208223374,
                        -0.7056306673896457,
                        0.7197719112596344,
                        0.1312082722462753,
                        -0.43342419677154026,
                        0.7440107316168016,
                        0.33226190759044666,
                        1.028423885647908,
                        -0.9085940655302327,
                        -0.733361993650088,
                        -0.1942103901851039,
                        -0.21170919538089505,
                        0.13052589575372864,
                        -0.522730981785307,
                        0.16854446916012844,
                        -0.8238471113364093,
                        0.2746965089025826,
                        0.5645756580426962,
                        -0.21589129754150815,
                        0.9789779167524435,
                        0.11584356462443404,
                        0.6052292460791727,
                        -0.5620436345320005,
                        -1.0997598700492968,
                        -0.8712355489584445,
                        0.09111159827247041,
                        -0.04991566531821878,
                        -0.05317608129846685,
                        -0.025944382839160902,
                        0.09165134040679718,
                        -0.849354367250057,
                        0.6823836749369077,
                        0.5454427681403659,
                        0.7644032972010533,
                        -0.29206558283980266,
                        -0.9347613118285133,
                        0.5543463060419755,
                        0.9900867044879527,
                        -1.086234678741356,
                        0.6532178284841945,
                        -0.5669460136289457,
                        -0.180642650081144,
                        -0.45868894898271606
                    ]
                },
                {
                    "bias": -1.066376821883134,
                    "weights": [
                        0.08743650703105921,
                        0.6953843299743647,
                        0.9402029886563323,
                        -0.6076078673860095,
                        0.13160939660463922,
                        -0.2756883088851759,
                        -0.6286299515648884,
                        -0.7702322861972415,
                        -0.6881443111636416,
                        -0.20135043058607283,
                        -0.9703833866577692,
                        -0.7452749220564712,
                        0.6773605279860841,
                        -0.0011341516740155809,
                        0.37343005341171764,
                        -0.18328970539536782,
                        -0.5648480400279388,
                        0.14152343931247752,
                        -0.891767141767059,
                        1.0652838261829387,
                        0.44596666695020265,
                        -0.10935157119376436,
                        -1.3170369123099692,
                        -0.18886045421886277,
                        0.09145756116670434,
                        -0.39270061060899,
                        -0.4691411640213476,
                        0.06547307916265817,
                        -0.47838652574477847,
                        0.029430589277469145,
                        0.23596933610231194,
                        0.9750332105788557,
                        -0.19914482682903523,
                        0.15700428465376462,
                        -0.31485074525651197,
                        0.7290265389514883,
                        0.12183459554681376,
                        -0.2792385908833404,
                        -0.4433679032567662,
                        -0.9532234519502257,
                        0.537444961041885,
                        -0.46137626034136925,
                        -0.3802222006848681,
                        0.18451845982542922,
                        0.1694887470759936,
                        0.8962646656761899,
                        -0.5656636652017387,
                        -0.9925387408549612,
                        0.3020384289799436,
                        -0.6584023534998693,
                        0.7398779333928517,
                        -0.31897238352401275,
                        0.7922127541735112,
                        -0.9203958802992327,
                        0.3203702802183404,
                        -0.2576905336499635,
                        -0.8801948511415137,
                        0.9341310076108813,
                        -0.7331789870435275,
                        -0.020317391661657726,
                        0.011882606739540794,
                        0.33722719426137737,
                        -0.017564937946184078,
                        0.8404570239784461
                    ]
                },
                {
                    "bias": -0.7127297615706966,
                    "weights": [
                        0.34986040524666207,
                        0.7729215937540501,
                        -0.9172427774952924,
                        -0.9113442040567027,
                        0.93515387640109,
                        -0.8704662294455181,
                        0.6261007569851822,
                        -0.6726174995641305,
                        -0.3970835457542369,
                        -0.03456492956474655,
                        1.030708257051148,
                        -0.5247011891658949,
                        0.15436393389047912,
                        1.0482410857338882,
                        0.7517676203287056,
                        0.6709607269945372,
                        0.904047244183741,
                        -0.5697379800329998,
                        0.3360285270027307,
                        0.8574808392341466,
                        0.5937920270980677,
                        -0.9139623549261657,
                        -0.8186447204921838,
                        0.6147015111589347,
                        -0.6690568894469444,
                        -0.05681613515394186,
                        -0.3432591892820024,
                        0.8215976559211342,
                        -0.7938975970544611,
                        -0.5234996914646844,
                        -1.1063720633635217,
                        0.415115507978534,
                        -0.7323180221637329,
                        -0.9378992227459456,
                        0.49218755677171816,
                        -0.7297779664132514,
                        -0.6746152286999291,
                        0.12533762411193092,
                        -0.5352666579781497,
                        -0.16878588458932275,
                        -0.904692870520378,
                        -0.6067529581429817,
                        0.24428019433438247,
                        0.2664382563164281,
                        -0.5844634393221942,
                        0.02601530274819625,
                        -0.1578415563458858,
                        -0.7588895427802995,
                        0.34331021427331043,
                        -0.748582338058859,
                        -0.7918175412333405,
                        0.018561550430821274,
                        -0.7215653340455925,
                        -0.7344596385398773,
                        -0.3585665392958465,
                        -0.39537462377705357,
                        0.35496172651413915,
                        0.29288558908406914,
                        -0.7272043198939433,
                        0.3897239975478629,
                        0.7571531414681402,
                        -0.7111976527195413,
                        -0.16466766277545486,
                        -0.944672048997447
                    ]
                },
                {
                    "bias": -0.5321245060928458,
                    "weights": [
                        -0.6608963588536234,
                        -0.7418361947600898,
                        -0.3841361018755176,
                        0.46897570112206766,
                        -0.21161784101818593,
                        0.44707801353515975,
                        0.5642828315330124,
                        0.21829231326388765,
                        -0.2719786806367238,
                        -0.21893036049740866,
                        0.9628974542717805,
                        0.8183047666804054,
                        0.7566404133224289,
                        1.2460870121790149,
                        0.10404245886208607,
                        0.8783773416086926,
                        0.9931894810838575,
                        -0.4903055137424475,
                        -0.8161384890276211,
                        -1.0543875221962717,
                        -0.5274426678485977,
                        -0.1759419373213559,
                        0.9697856612687822,
                        -0.9406090071148281,
                        0.029480662676263814,
                        -0.48957714062852575,
                        0.810654110687172,
                        0.83775763350492,
                        1.3521858309211017,
                        0.8300068628696559,
                        0.2464405252253392,
                        -0.7850542998803101,
                        -0.8394712767747563,
                        -0.8104707409002286,
                        0.6097866735753416,
                        0.1799218451296123,
                        1.119067287145243,
                        0.20812471753584827,
                        -1.0789412100902904,
                        -0.5031875229921134,
                        -0.9707261295852838,
                        0.5903748367611131,
                        -0.8746391643443395,
                        0.857069061537764,
                        0.7919632424982499,
                        0.3325115052083003,
                        0.3913530900005751,
                        0.5122141873055204,
                        0.48951035714219815,
                        0.8361574054748808,
                        0.7975188749271462,
                        -0.7735909717866096,
                        -0.5023146575661245,
                        0.38453999721932236,
                        -0.6569874355752201,
                        0.514693638083848,
                        -0.5616520333856587,
                        -0.8375562801200693,
                        -0.1670233519594294,
                        -0.7892432930210384,
                        -1.0386246807434227,
                        -0.4611741050431384,
                        -0.4708642742926554,
                        -0.7746626389094919
                    ]
                },
                {
                    "bias": -0.3596893969495828,
                    "weights": [
                        -0.7869428730508978,
                        0.1742482442288884,
                        -0.370669801426432,
                        0.4612613587925496,
                        0.34145143969983405,
                        0.1261426765127771,
                        0.49053523013858835,
                        0.06401016147062655,
                        0.3836873981094395,
                        0.18862627502001184,
                        -0.6239114677998406,
                        -0.3925804446498552,
                        -0.3460934389401262,
                        -1.110113692121533,
                        -0.765215064289614,
                        -0.5063773465838177,
                        0.8727944082919483,
                        -0.805573995291846,
                        -0.24844775177899925,
                        0.3663908891307214,
                        -0.008605957091238988,
                        -0.6839693648324823,
                        0.3713787337254631,
                        -0.03134882963790975,
                        0.3265059130855399,
                        -0.44652122352082074,
                        0.03488700445824629,
                        0.4258792296070303,
                        -0.8141983209704309,
                        0.2098161564598206,
                        -0.04526206905079478,
                        -0.23463650105271328,
                        -0.566954586453249,
                        0.4934860014671126,
                        -0.5044346377837131,
                        0.5672916813736124,
                        -1.0739200709368324,
                        0.7094062681899223,
                        0.1947379411808798,
                        0.8650311221671436,
                        -0.09421363896420865,
                        0.5598268363316827,
                        -0.25140934627380557,
                        0.5267624485888063,
                        0.15472639090871546,
                        -0.12039530167463963,
                        -0.584619877989556,
                        0.38958534569925884,
                        0.3358913321680814,
                        -0.018601791025721705,
                        -0.5419820464196577,
                        -0.7675046171916637,
                        0.7288487583617145,
                        -0.628249549293883,
                        0.05370438788383844,
                        -0.03662551894626842,
                        -0.6076307360118398,
                        -0.855790238760314,
                        -0.17129371090386702,
                        -0.06362108460766153,
                        0.39471021089486513,
                        0.554577138067492,
                        0.7100391349336315,
                        0.8360523459669447
                    ]
                },
                {
                    "bias": -0.7918726359502145,
                    "weights": [
                        0.9366639917421453,
                        0.6105491982822069,
                        0.39112190873880026,
                        0.6538240786892473,
                        -0.5509437879319041,
                        0.2561530299746213,
                        -0.4403895612062838,
                        0.8705980954089194,
                        0.8664587307099527,
                        -0.7695085395916871,
                        0.6346259801385359,
                        -0.20116777129092833,
                        -0.5208142717898228,
                        0.03418211690409956,
                        -0.9525593025388938,
                        0.5383344392936371,
                        0.43719237550962364,
                        -0.5430981341835868,
                        0.28261130906063375,
                        0.6433446377244009,
                        0.11711763832704954,
                        -0.7656190932619278,
                        -0.5353275931596725,
                        0.4444991934320419,
                        -0.03271622258830642,
                        -0.2316572432905528,
                        -0.14490591864889493,
                        -0.11558343186402614,
                        0.1702612921406356,
                        -0.3203738843461639,
                        0.19711418781693785,
                        -0.2098609820054197,
                        -0.7058923326925804,
                        -0.27742041696088005,
                        -0.674893532430375,
                        -0.09462134828000587,
                        -0.5867565010068919,
                        0.001091416303364552,
                        -0.6062806631148162,
                        0.9453727686523332,
                        0.23406499588585694,
                        -1.099030420121938,
                        -0.44325929191460406,
                        0.7478608815544059,
                        0.016787345590926855,
                        -0.3202765340542775,
                        0.012923200189602151,
                        -0.7846822420995134,
                        -0.10609768941351105,
                        -0.5365699790494814,
                        -0.8839460106676774,
                        -0.850970665320607,
                        -0.5540165517684906,
                        -0.7945971703478487,
                        0.6613271865951585,
                        0.44845884174502393,
                        0.3639048996213381,
                        -0.5138029397995225,
                        0.9703197562928869,
                        -0.818680467644441,
                        0.13369513663880053,
                        0.40195885645316864,
                        0.007518943868353389,
                        0.46386319839575485
                    ]
                },
                {
                    "bias": -0.1926049195718289,
                    "weights": [
                        0.45148203962085853,
                        -0.7929729222287298,
                        -0.6963660976366913,
                        -0.5449444267642425,
                        -0.179210947444295,
                        -0.750993328984358,
                        0.6891205691216145,
                        -0.1780599417062756,
                        -0.09407119503899997,
                        0.3181807004465631,
                        0.4546091000269697,
                        0.5547744764429434,
                        -0.5691624390981682,
                        0.6603188570208882,
                        -0.4958060539773693,
                        -0.17182715384840364,
                        0.837091950623827,
                        -0.4700550936050709,
                        0.23084630974280124,
                        -0.8517204096480157,
                        -0.5492203008817599,
                        -0.3125326638487362,
                        0.24781081996223167,
                        -0.17672631478715983,
                        -0.2718734933398075,
                        0.9133577978988633,
                        1.00241960897707,
                        -1.1120518196644902,
                        -0.5648992506831183,
                        0.4558145953657979,
                        -0.47594073645243523,
                        -0.9021532358146055,
                        0.6639194915368778,
                        -0.2734681700906007,
                        -0.3508062665018409,
                        -0.6303241786372116,
                        -0.3402230866885715,
                        -0.7538406575407698,
                        0.4669873390319476,
                        0.8133746058742397,
                        0.5602036069893295,
                        -0.0251932569173036,
                        0.49175894132218306,
                        -1.0305009554458642,
                        -0.4464286275469013,
                        0.9397943097634768,
                        -0.012260116754374422,
                        -0.4408108086515269,
                        -0.3737541238655122,
                        -0.8857901279692856,
                        -0.45136399979952185,
                        -0.007503192064660289,
                        -0.03932731092241649,
                        -0.9652021298384436,
                        0.7608564764631217,
                        0.6692328898558546,
                        0.6770617876560714,
                        0.7796254017295434,
                        0.7993182529692158,
                        -0.6602456178273117,
                        0.2528456835845878,
                        -0.8458765213591403,
                        -0.5787267226626756,
                        -0.0995626948306163
                    ]
                },
                {
                    "bias": 0.3055828832712608,
                    "weights": [
                        -0.025824384310200954,
                        0.3851458483306438,
                        0.7200084094516972,
                        0.21619852316388788,
                        -0.30820555021437146,
                        0.5333830143946143,
                        -0.2235978707781051,
                        0.5985084928565232,
                        -0.04295074522632669,
                        -0.1778189945862717,
                        -0.9721388437355958,
                        -0.2894284477721487,
                        0.5496289007686718,
                        -0.41872996834374054,
                        0.511155318241173,
                        0.879432359654192,
                        0.49654507427315453,
                        -0.9318917918511972,
                        -0.46742418095143473,
                        0.6810018296986774,
                        -0.4790602127955159,
                        -0.7417988677106493,
                        -0.2459990359996876,
                        -0.9593005943853876,
                        -0.7109101161877206,
                        1.2740452732096528,
                        0.29513974123059805,
                        -1.1640349765348206,
                        0.4439566568108031,
                        -0.8766554752850568,
                        0.6062030400990771,
                        -0.06930172679447655,
                        0.5628003736784684,
                        0.163708573664208,
                        -0.5001016856316063,
                        -1.033802197383077,
                        -1.2355515070938499,
                        -0.07955878325463792,
                        1.3319130404534982,
                        0.4662166496115814,
                        0.7454799310050346,
                        -0.6383667578086191,
                        -0.46094971599213896,
                        0.24615522157551814,
                        -0.4328389932672064,
                        0.9054547014070403,
                        0.6608841585952127,
                        -0.44995095182673583,
                        -0.6632407734465045,
                        -1.062032293474775,
                        -1.1695384155480146,
                        -0.28782193406535134,
                        -0.2600800920765213,
                        0.2915724792558217,
                        -0.44331555048702737,
                        -0.07955472594106328,
                        -0.1681176261827897,
                        0.9157498571629403,
                        0.3636586374433983,
                        -0.2140936530497816,
                        -0.9090943018719514,
                        -0.380565391565005,
                        0.7191033036071357,
                        0.656204756189233
                    ]
                },
                {
                    "bias": 0.7571755875524687,
                    "weights": [
                        0.8660000990452246,
                        0.9107995787220073,
                        -0.8956136172151257,
                        -0.2107009762947918,
                        0.7639028941113049,
                        0.5706030333277783,
                        -0.46522104622107974,
                        0.937611943081772,
                        0.9217291241147225,
                        0.9763916116097904,
                        0.3830812577126187,
                        0.91784099390377,
                        0.42803051415593146,
                        0.9547789226684065,
                        -0.8792302412349872,
                        0.43902038756712347,
                        0.6259750926988084,
                        0.1596697513012822,
                        -0.7466923419209661,
                        -0.3387633684007169,
                        0.046662751945418995,
                        0.15724491261403875,
                        1.2065020045190795,
                        0.2728854842823396,
                        -0.6455203116152064,
                        -1.145683506248983,
                        0.34803587107743583,
                        0.5951378784052214,
                        -0.19511423711270948,
                        0.016469869871300016,
                        -0.8584755926987663,
                        -0.8720011077225214,
                        -0.0667058001583003,
                        -0.5041938069770799,
                        -0.32046176311085806,
                        -0.022970849242558863,
                        -0.15526986802462775,
                        0.4351073353153483,
                        -0.7644544727132605,
                        -0.8341481759371926,
                        0.4284684804400749,
                        0.44821147669397887,
                        0.7721488817456161,
                        -0.07640755045853216,
                        0.5863272897410583,
                        -0.9748127221922743,
                        -1.1237179921314162,
                        -0.20693499092335577,
                        -0.21076489389443998,
                        -0.5803540556513949,
                        0.873719785059785,
                        -0.939973452989772,
                        0.16142675456237338,
                        0.45456940657252914,
                        0.4739920982247279,
                        0.5806020123793754,
                        -0.9869409548057899,
                        -0.21445391756224164,
                        -0.44548369173215874,
                        -0.7810908333211293,
                        0.7518920327411798,
                        0.12364959396591857,
                        -0.5969432692960572,
                        -0.2586650966008497
                    ]
                },
                {
                    "bias": 0.4643587687172529,
                    "weights": [
                        0.3203546466866296,
                        0.4385319964208323,
                        -0.9587080376030449,
                        -0.22756848448308575,
                        -0.9266589693383588,
                        -0.7928562135402375,
                        -0.799100004043011,
                        0.699265982815654,
                        -0.8429938563345902,
                        -0.07319489543940638,
                        0.021896484952873815,
                        -0.75561395792335,
                        0.11850570630819453,
                        0.8303098938519574,
                        0.016873365741629787,
                        0.32703187192186345,
                        0.37509400275307425,
                        0.3132570432231887,
                        -0.43562566407707926,
                        -0.28350792279166837,
                        -0.5407375222058411,
                        -0.8418951476471387,
                        0.0005820095669950871,
                        0.3680463989116467,
                        -0.3117274834363384,
                        -0.08864316250950269,
                        0.15477063120122703,
                        1.0181508852168417,
                        0.7243057077440839,
                        0.8878346072189074,
                        0.4261451572595825,
                        -0.14321418159791,
                        0.35595400135775757,
                        0.5923312493765649,
                        0.5844404294915737,
                        0.5157116987905734,
                        1.0005834710714872,
                        0.8082774694326333,
                        0.0221005276326168,
                        -0.9854667363620674,
                        -0.2430775655634131,
                        0.9368648270983793,
                        -0.8158805617935158,
                        0.9110269267464338,
                        0.7651201132181531,
                        0.23879450376773964,
                        0.09167771802187318,
                        0.029431821326460605,
                        -0.5777110120177786,
                        0.7708957906980479,
                        0.8805884429689459,
                        -0.018093141137955602,
                        0.8550612636677645,
                        -0.2800557078346963,
                        -0.6146545238352537,
                        -0.4491321749282685,
                        0.8663804213825521,
                        0.5489228049055315,
                        -0.6372100653300108,
                        0.35946526982169885,
                        0.42299848656614286,
                        0.971881306717117,
                        -0.7404025884998975,
                        -0.1777011897311086
                    ]
                },
                {
                    "bias": -0.15818638237416066,
                    "weights": [
                        0.8888147463504295,
                        -0.7484061586430325,
                        0.4797917602024002,
                        0.7189320762264226,
                        0.3801548552606977,
                        0.4943250247716555,
                        -0.5241454902683131,
                        0.3750717664952725,
                        0.7364965480456578,
                        -0.6754924569630494,
                        0.16598245701299458,
                        0.06782189520069347,
                        0.5595620124949361,
                        -0.803879945540146,
                        0.417830425974834,
                        0.22903154940764958,
                        0.9335307841811007,
                        -0.39644617193506965,
                        0.20826854267609424,
                        -0.4106665440926717,
                        -0.32610910239840196,
                        0.7334875945939846,
                        -0.2681420400159188,
                        -0.655621764089736,
                        -0.9947153832738825,
                        0.6287750159231544,
                        0.8060742958486433,
                        1.2351097090964098,
                        -0.5852247273935588,
                        -0.3478991378841903,
                        0.45405923081300115,
                        -0.9158590659107356,
                        -0.1153843035527432,
                        -0.006779723078753571,
                        0.6547030621876917,
                        -0.6171584625329376,
                        -0.11973890994965683,
                        -0.7200001502738329,
                        0.4375651409783036,
                        -0.6899561061011423,
                        -0.3965649378469982,
                        -0.4167501427510555,
                        0.21958328586852577,
                        -0.8100688562784123,
                        -0.06932792768915459,
                        -0.3028125360182736,
                        0.18944985954909302,
                        -0.33837590801453954,
                        0.14603548550328038,
                        -0.4807441170430619,
                        0.43118586940637976,
                        0.8871780620552581,
                        -0.9868264794671054,
                        0.8518321888982495,
                        -0.6835317363109094,
                        -0.9279347844086284,
                        0.7968068187110158,
                        -0.9034078027603253,
                        -0.9507688618967165,
                        0.983205614722928,
                        -0.27931334032828004,
                        0.6486617008450728,
                        -0.9237260585295624,
                        0.6142297487772208
                    ]
                },
                {
                    "bias": 0.7004683875465555,
                    "weights": [
                        0.8793469517861245,
                        0.8790002995538526,
                        0.3014313687111396,
                        -0.8417255290978242,
                        0.5188426168257569,
                        0.6114752626099975,
                        -0.23829046694482237,
                        -0.8119054817650027,
                        -0.08293940736117744,
                        -0.13466295652774296,
                        0.2682562686511037,
                        0.8085590588067554,
                        -0.6588271693605122,
                        0.9357054622195939,
                        -0.21348816585423802,
                        -0.3777179808252109,
                        -0.09402722636890937,
                        0.1706707411432643,
                        -0.05225512578059011,
                        -0.44184090102852175,
                        -0.28561935728097315,
                        -0.028266131824825156,
                        0.04322384437505557,
                        0.11046410217437153,
                        -0.1896410282653016,
                        -1.173679928815058,
                        0.833826986848903,
                        0.09184052433192014,
                        0.17109710032325937,
                        0.48655431746867306,
                        -0.1838776820956145,
                        -0.48838846920448753,
                        0.3333082019040865,
                        -0.7076201581812878,
                        -0.6533679894440142,
                        0.13805296688736154,
                        -0.19567191146129695,
                        0.4271437261435154,
                        -0.42467005173703976,
                        0.01687191660370302,
                        -0.7030674217748769,
                        0.7604769425367044,
                        -0.5386079552213103,
                        -0.2983868794279008,
                        1.009888686450743,
                        0.38617749113012195,
                        -0.21525617738233438,
                        -0.5597821472025393,
                        -0.828137149022956,
                        1.026709455022475,
                        0.43521984067540287,
                        0.06595202258921402,
                        -0.5465564784398226,
                        0.7477682142655327,
                        -0.638745535902995,
                        0.37776012503437695,
                        -0.6728830643337607,
                        -0.8637229892721973,
                        0.8367807966828258,
                        -0.06742797144143194,
                        0.5637754269609794,
                        0.023685490257891573,
                        0.4709930473337849,
                        -0.07610688501787688
                    ]
                },
                {
                    "bias": -0.8789258499214055,
                    "weights": [
                        -0.8591209518998493,
                        0.7760439337119664,
                        0.6118328765089778,
                        0.5724745837843392,
                        -0.18371073118583803,
                        -0.3712952068873193,
                        0.8694071629407849,
                        -0.22727756911296282,
                        0.2860530583588654,
                        -0.6356641564684287,
                        -0.7404276732479756,
                        -0.32439070766887146,
                        0.441983193095415,
                        -0.29627663206152366,
                        -0.09822399127214398,
                        0.2878198629654105,
                        0.9544540308203799,
                        -1.0062783434551676,
                        0.7545232279146674,
                        0.7334121620473217,
                        -0.5620646240378686,
                        0.15588022029155937,
                        -1.0678220865267474,
                        -0.4800133693404558,
                        0.06976193611964665,
                        0.21378075424019188,
                        -0.8869194737916706,
                        -1.05935164224031,
                        -0.6389373526439968,
                        0.004383972269587718,
                        0.6706142040140897,
                        -0.3760491252765288,
                        -0.18949140756832972,
                        0.2662577845796297,
                        -0.6814944463665419,
                        0.5546909312188665,
                        0.621612478093596,
                        -0.9375178238182734,
                        -0.4581096230922311,
                        0.1320597059708366,
                        -0.5698315359511559,
                        -0.24455626773338265,
                        0.9109287938019893,
                        0.8630229396136946,
                        0.31156694261028756,
                        -0.22318922163093707,
                        0.3020777443991714,
                        0.4081271977201697,
                        -0.1487403638422211,
                        -0.0024983859994184604,
                        0.04381706328373324,
                        0.27545723312059595,
                        -0.6678418094979404,
                        0.18443203097711117,
                        0.7291138974212,
                        0.3574989621329583,
                        -0.8015164312913625,
                        0.8655274323492905,
                        0.4509463885104965,
                        -0.3360461301833675,
                        -0.11760943444633074,
                        0.05641536743213216,
                        0.30550627098675176,
                        0.7105006835006646
                    ]
                },
                {
                    "bias": 0.19576860319183736,
                    "weights": [
                        0.5019317294945622,
                        0.3372985438151743,
                        -0.880276130456606,
                        0.567764350011835,
                        0.7368188359480439,
                        0.2517835755142306,
                        0.9979328140606791,
                        -0.5566933618656794,
                        0.11375643923587941,
                        0.9096478214066699,
                        1.336851883106296,
                        1.0363186372868154,
                        0.2604814772408333,
                        0.7682575581551763,
                        -0.2712350521568372,
                        -0.8360614226367611,
                        -0.5611854724405265,
                        1.472816816881952,
                        -0.32030053707625494,
                        0.3366460253604659,
                        0.36090626604920095,
                        1.0131873982327622,
                        1.354706527498274,
                        0.5842175239623606,
                        0.2601209540200051,
                        -1.3170582976822098,
                        -0.5424790440700662,
                        0.04295370617501177,
                        1.4422852676547058,
                        -0.804205155460508,
                        -0.9032291141352004,
                        0.31269628056916243,
                        0.5320088404845487,
                        -0.5009542633809841,
                        -0.42160260946581224,
                        0.5962840628787056,
                        1.6886192812765597,
                        -0.14244303821263432,
                        0.22906382039140918,
                        0.07551742674574147,
                        -0.2119587358142988,
                        0.3981824442244085,
                        -0.25790893694548883,
                        1.1274117751314892,
                        0.41654775945058536,
                        0.6261771317606806,
                        -1.289865319236839,
                        0.3530356489834541,
                        0.6455218911382938,
                        -0.2721258287425414,
                        0.1754858081018489,
                        0.2552752265384103,
                        -0.7636455757998636,
                        -0.21448989142660035,
                        0.01838533555886377,
                        0.582133657104398,
                        0.3072161326684133,
                        0.4326391198824342,
                        0.8986699776252127,
                        0.061012679831172006,
                        0.5703814117086425,
                        -0.51107647992255,
                        -0.5693230356878243,
                        0.1593582570363572
                    ]
                },
                {
                    "bias": 0.15240108865285415,
                    "weights": [
                        0.31113759489317316,
                        -0.5718140674623726,
                        0.1606619195829433,
                        -0.8104689632591181,
                        -0.859679753826782,
                        -0.7638206536713152,
                        -0.022427699073417018,
                        0.7494343667055641,
                        0.18920208475981015,
                        -0.12520374316964478,
                        -0.15412914649427178,
                        -0.15558785881365447,
                        -0.05720656687670714,
                        -0.7732199098122101,
                        -0.48348833782760814,
                        0.44879692674092797,
                        -0.005053897856294176,
                        0.9952549801979564,
                        0.6765479689442616,
                        0.6215232305113695,
                        -0.27854354154211836,
                        0.3048348137214881,
                        0.1692469906764813,
                        -0.7382077303427308,
                        0.25161326269228623,
                        -0.851515104859006,
                        0.873587257217441,
                        0.8662822580121425,
                        -0.21183936399199568,
                        -0.0268148262537543,
                        -0.2473070500574894,
                        0.9639153294097238,
                        0.47668587578306254,
                        -0.9211281016133078,
                        -0.750692908727399,
                        0.6683152269194219,
                        -0.715946819188927,
                        0.1051083277057575,
                        0.38569048643379755,
                        0.5254810655142559,
                        -0.9941850770237786,
                        -0.9911317601790077,
                        -0.624756899490715,
                        -0.020854443659918093,
                        -0.9563187794341067,
                        -0.08968111475253943,
                        -0.5994888275463514,
                        0.04173321325412638,
                        -0.20629385728682104,
                        -0.8384851122130949,
                        -0.2500858095902317,
                        0.6510901588647015,
                        0.5704280069195593,
                        0.931177673756455,
                        0.8701969125541584,
                        -0.23406318353212585,
                        -0.8351419790811566,
                        0.7737932492856836,
                        -0.4935264016937122,
                        -0.2623058749329328,
                        -0.2576484387685307,
                        0.4459113131491055,
                        -0.21844891608620476,
                        -0.701020933548464
                    ]
                },
                {
                    "bias": 0.7507460627873687,
                    "weights": [
                        -0.06500255086692164,
                        0.9159851893391391,
                        0.8822899273979896,
                        -0.9339838847210555,
                        0.2824256761383386,
                        0.4077709919809229,
                        -0.9281689617448342,
                        0.3125216510670825,
                        0.8042418285292767,
                        0.013604751328753606,
                        0.10765826426373333,
                        -0.35747096865966776,
                        0.3220232823860812,
                        -0.8680369046907386,
                        0.5109304681005564,
                        0.5655556589204611,
                        0.239679140616059,
                        -0.11863370571895956,
                        0.00441095025524442,
                        0.3519347814184321,
                        0.1887126812155192,
                        0.7682301194189433,
                        0.10940871245250683,
                        -0.2077654279804627,
                        -0.6477103734611116,
                        -0.5001127126501151,
                        0.6074658295645637,
                        0.4569548543618665,
                        -0.35651828805527824,
                        0.9318244920763358,
                        0.5912546404983121,
                        0.8814787007316383,
                        0.8294920194100086,
                        0.30902506020907344,
                        1.0162532662358683,
                        -0.04698206689225465,
                        -0.6452804384101976,
                        -0.9768942502394514,
                        -0.3963608686234661,
                        -0.5614853666915955,
                        0.03293060652582458,
                        0.866271355272473,
                        0.23826220517532704,
                        -0.6720299815876248,
                        -1.0210224351763535,
                        -0.3237750849127286,
                        -0.8736779364920028,
                        0.4244692239092984,
                        0.8004591873849087,
                        -0.017015880609804836,
                        -0.45859108063384935,
                        -0.16080423490773144,
                        -0.06877623064820593,
                        0.9562939337229889,
                        0.593701933514031,
                        0.28064652312577065,
                        -0.8808698048260388,
                        0.22566284668895542,
                        0.07884746281376454,
                        0.10713308192007144,
                        0.1806913119073747,
                        -0.5769406508546977,
                        -0.052909853427163256,
                        -0.03133830383016645
                    ]
                },
                {
                    "bias": -0.500188302036839,
                    "weights": [
                        -0.10541503741658065,
                        -0.9194206092131421,
                        -0.7161660323460428,
                        -0.08608918221950956,
                        -0.49498126352903493,
                        -0.27765139903763836,
                        0.946841424306315,
                        -0.7112331556674247,
                        0.878087560589466,
                        -0.6160525798872358,
                        -0.7034076788616721,
                        -0.5300555411662614,
                        -0.6829119649422478,
                        0.7122746018019823,
                        -0.6547838270919322,
                        0.4691499431939563,
                        -0.49506823415638335,
                        -0.04906460227525499,
                        -0.7135223694484689,
                        -0.43342463996162356,
                        -0.08108798745206616,
                        0.5825329383484156,
                        -0.646940249555791,
                        -0.999085388145915,
                        -0.24299917707359375,
                        0.9979804174184145,
                        0.14980224470901396,
                        -0.12811217422638396,
                        -0.674934502168698,
                        -0.8986128427687803,
                        0.03197439566984236,
                        0.4855485444355516,
                        -0.8106746253607211,
                        0.20355518235736322,
                        -0.4622031273833329,
                        -0.45002211373084106,
                        0.5067010861435589,
                        -0.6490370901323288,
                        0.19768911195127795,
                        0.7138914641523229,
                        -0.2697517952275238,
                        0.5467677637568289,
                        -0.6512516705676473,
                        0.018632477610236484,
                        0.13199095678156533,
                        -0.3762185584421041,
                        -0.26081074008495875,
                        0.8596258004473643,
                        0.7679813065417025,
                        -0.11094629402192874,
                        -0.7781931834333415,
                        -0.41101971825406114,
                        -0.3013723123695955,
                        -0.10223683159682835,
                        -0.4891039794503507,
                        0.4186682446946708,
                        -0.45910698429639774,
                        0.6842319731061495,
                        -0.40127158416494335,
                        0.14853940794656356,
                        0.8096607673494028,
                        0.42834975078159476,
                        -0.3825948589400364,
                        0.9823033325291719
                    ]
                },
                {
                    "bias": 0.8229794056082999,
                    "weights": [
                        0.016864502344682952,
                        -0.323352556360584,
                        -0.6223910430550533,
                        0.3631652870043951,
                        0.6597584000135579,
                        -0.908499579834053,
                        -0.9065865091544513,
                        0.11642628401351462,
                        -0.6498511301585711,
                        0.21027077045769937,
                        -0.4252060182450098,
                        -0.0481892070289278,
                        0.8043496404559408,
                        -0.553979516029792,
                        -0.27800520103331894,
                        -0.220207946943216,
                        -0.35049628901784136,
                        0.3539027352865911,
                        0.42425797498384626,
                        0.45092127639219026,
                        0.7287723377448058,
                        -0.14167745801503773,
                        -0.8351120053315816,
                        0.49360752734057955,
                        0.4588561344234534,
                        0.10296860317714737,
                        0.27112232738061737,
                        0.0030458301624654432,
                        0.94577526514773,
                        0.23898972667788856,
                        0.31052320063599026,
                        -0.14645745192955129,
                        0.9455362586050928,
                        0.7744437903248707,
                        -0.789266292690343,
                        0.6496177798601704,
                        0.9480650817063112,
                        -0.7085745853126619,
                        -0.32355027573475226,
                        -0.7517308163231848,
                        0.5203920963780917,
                        0.1606651551108918,
                        0.17010657275722624,
                        0.35096297819879047,
                        0.5709753801680089,
                        0.9096569354715591,
                        -0.9428542146197515,
                        -0.8269089114977554,
                        0.18950534574198796,
                        0.5559609181402546,
                        0.7010865277396672,
                        -0.0114842800237351,
                        -0.6007151458454669,
                        0.7932674121244674,
                        -0.505327955652556,
                        0.8569054668102905,
                        0.02630359540987004,
                        0.7790739106848248,
                        -0.25588864984730664,
                        -0.17444277914650125,
                        0.010538304437041858,
                        -0.8268777121914912,
                        0.7165241901374069,
                        -0.006501016675727889
                    ]
                },
                {
                    "bias": 0.37417244768440544,
                    "weights": [
                        0.933232024280928,
                        -0.40120635898839974,
                        0.8778624971759796,
                        -0.756646650730002,
                        0.32051458271244293,
                        -0.8738683200785278,
                        0.7637454456480897,
                        -0.48664415883209755,
                        0.32841435695458876,
                        0.08041553342734264,
                        -1.0505599777517751,
                        0.17662656830782217,
                        0.11560889677624332,
                        -0.875424423556702,
                        -0.5578028222349485,
                        -0.2852007119381803,
                        0.9296486889615883,
                        0.30485168650707345,
                        -0.011939838061218008,
                        0.7629137967956375,
                        1.008524118805725,
                        -0.12661655881556122,
                        -0.39559326603361006,
                        0.7126404148119689,
                        0.7138654374116404,
                        0.8765551597549424,
                        -0.24418269203360302,
                        0.6803345440149267,
                        0.17210507311067236,
                        0.7206049058590714,
                        0.962604777732242,
                        0.2757208269442062,
                        -0.6471042379956247,
                        0.8071915633679431,
                        0.6527463785547977,
                        0.5703116101432101,
                        0.5885807929086275,
                        0.271672251986716,
                        -0.6390380298172988,
                        0.19913843981881563,
                        -0.6367648465730087,
                        -0.7136914350021022,
                        -0.48557056773293406,
                        0.4712666815015998,
                        -0.7466990582986212,
                        -0.09635071599860551,
                        -0.6259138916733833,
                        -0.6366076002067922,
                        -0.6648944735829228,
                        0.28762372460695335,
                        -1.011964661269703,
                        -0.6921543539210778,
                        -0.6212670962439989,
                        -0.14445036360932642,
                        0.9514334768593474,
                        -0.9486197409912105,
                        -0.5109806365850291,
                        -0.2580844160439839,
                        0.9383679842289387,
                        0.8167356885904342,
                        -0.518754773470343,
                        0.8050978899957137,
                        0.10722899302245525,
                        -0.15108653211551093
                    ]
                }
            ]
        },
        {
            "activation": "linear",
            "nodes": [
                {
                    "bias": -0.3955394701424689,
                    "weights": [
                        -0.34537277867430677,
                        0.9334470796789219,
                        2.524097257609695,
                        2.9678119598475585,
                        1.0346751586627803,
                        -0.6660261061064733,
                        -1.1577735739521484,
                        -0.00837309921506104,
                        2.6313079673448323,
                        0.07308494765539156,
                        -0.07206981737870086,
                        -0.1777406936760591,
                        -1.1038628925844383,
                        -2.1147013446907073,
                        -3.133662822436833,
                        -0.18912049119796348,
                        -1.0172818603892468,
                        -1.5639710068051165,
                        0.5594029758988198,
                        -0.22562627936484325,
                        -1.6310313190081178,
                        0.6903549450629731,
                        -0.31084122347980736,
                        0.766533488410488,
                        1.670055012320766,
                        -0.8454807292697175,
                        0.8961430000764927,
                        -1.5285313924471733,
                        -0.22126117298242434,
                        -0.49798248734711786,
                        -0.36980566651782476,
                        -0.8621120276625013
                    ]
                }
            ]
        }
    ]
}