{
  "layers": [
    {
      "activation": "sigmoid",
      "nodes": [
        {
          "weights": [-0.51064, 0.640542, 0.08108, -0.126291, 0.954996, -0.73426, -0.973144, -0.223932, -0.323994, 0.994453, 1.98495, 1.04358, 0.599247, 0.606689, 0.411438, 0.035874, -0.52012, 1.15937, 0.690165, -1.70536, -1.73582, -0.232907, 1.33689, 0.481853, -0.428596, -1.29062, -0.16835, 1.99842, 0.79466, 0.926888, 0.352548, 0.192957, 0.0660335, -1.05808, -1.74881, -0.470506, -0.628171, -0.971316, 0.431358, -0.0290004, -0.912025, 0.652255, -0.600245, 0.880125, 0.275974, 0.229802, -0.773226, 0.259532, -0.146455, 1.31521, 1.23435, -0.384686, -0.309522, -1.85776, -0.521382, -0.580545, -0.10856, 0.108192, -0.96675, 0.968369, -0.092984, -0.0185761, -0.212006, 0.599717],
          "bias": 0.122619
        },
        {
          "weights": [-0.14534, -0.379254, 0.305671, -0.0518181, -0.582157, -0.723329, 0.036157, -0.842566, -0.236239, -0.301637, -2.04026, -1.51607, -0.00649585, -2.22515, 0.515835, 0.0952978, 0.768223, -2.17538, -1.24595, 2.48053, 2.17715, -0.832196, -2.76292, -0.299994, 0.396054, 0.737585, -0.637362, -2.82762, -1.56, -0.941566, -0.134663, -0.96474, 0.454152, -0.250057, 0.622708, 1.27756, -0.374882, -1.18316, -0.483491, 0.734258, -0.282038, 0.0226314, -0.547335, -1.39482, -0.777055, 1.57424, 0.74695, -0.0686456, -0.274719, -1.99397, -1.13197, 0.0778094, 1.83215, 1.94041, 0.440746, -0.0880911, -0.972337, -0.749211, 0.289387, -0.257665, -0.381733, -0.322458, 0.243524, -0.461653],
          "bias": 0.0413341
        },
        {
          "weights": [-0.773034, -0.589659, -0.658135, -0.753434, -0.56023, -0.923877, -0.0354723, 0.406285, -0.527328, 0.0789321, -1.9917, -1.60661, -0.959603, -0.618739, 0.110336, -0.558315, -0.661744, -1.20884, -0.10928, 2.28619, 0.83257, -1.06671, -3.02141, -0.304679, -0.841164, 1.21335, 0.0737523, -1.79833, -1.71743, -1.26254, -1.35953, -0.320272, -0.271796, -0.310042, 0.527906, 0.53375, -0.827316, 0.696521, 0.145519, 0.0984059, -0.0302465, 0.284022, 0.623808, -0.108303, -1.15316, 0.153857, 1.24944, -0.0172981, -0.978771, -0.490314, -0.80899, 0.30995, 0.812859, 1.16762, 0.509841, -0.314102, -0.833775, -0.0594035, 0.522276, -0.648665, -0.00919392, 0.730022, 0.298715, 0.986662],
          "bias": -0.232554
        },
        {
          "weights": [-0.774991, 0.154636, -0.0946322, -0.88417, 0.728895, -0.996226, 0.0855838, -0.12743, 0.487235, -0.656028, 0.707001, -0.716996, -0.814148, -0.158917, -0.897739, 0.701658, 0.455732, -0.372107, -0.69942, -0.635458, 0.811038, -0.0360268, -0.665182, -0.330302, -0.563105, 0.452948, 0.9074, -0.978743, -0.684287, 0.805543, -0.570884, -0.278344, 0.0694557, 0.246369, 0.166048, 0.0426786, 0.652834, 1.11779, 0.536854, -0.157073, -0.732958, 0.082388, -0.18159, -0.587418, 0.817669, 0.217912, -0.975461, 0.143388, 0.594242, -0.462197, 0.416421, 0.321432, 0.305553, -0.845593, 1.03225, 0.592979, 0.332984, 0.921199, 0.759897, 0.565945, 0.572333, -0.793552, -0.448713, -0.0945257],
          "bias": 0.0606015
        },
        {
          "weights": [0.388774, 0.703825, -0.0859413, 0.311844, 0.374746, 0.756986, 0.578886, -0.437316, -0.319055, 0.889973, -1.17675, 0.430974, 0.932485, 0.151682, 0.301407, -0.855817, -0.0501659, -0.912655, -0.0862367, 0.541746, 0.184966, -0.371564, -1.2932, -0.461008, -0.346856, -0.385701, -0.853221, -0.625125, -0.483705, 0.0952756, -0.858874, -0.812438, -0.0156903, 0.414546, 0.865916, -0.413659, -0.0789381, 0.0667519, 0.194184, 0.769948, -0.031734, 0.254608, 0.559642, -0.182707, -0.677799, 0.0470267, 0.28854, 0.51564, 0.403271, -1.11624, -0.665068, -0.528879, 0.843788, 0.543189, -0.304568, 0.861826, 0.265897, -0.0649346, -0.278582, -1.02552, -0.87466, 0.139376, -0.747752, 0.19986],
          "bias": -0.0156305
        },
        {
          "weights": [0.751655, 0.558916, 0.560396, -0.170052, -0.519345, 0.330343, 0.798214, 0.652735, -0.192543, -0.330803, -0.700972, 0.704961, 0.691863, 0.932599, -0.0107521, 0.9998, -0.665292, 0.0483912, 0.285059, 0.280117, 0.539785, 0.0519418, -0.5982, -0.494568, 0.791726, -0.102147, -0.325649, -0.287288, -0.359706, 0.79218, 0.455658, -0.312411, 0.479757, -0.182797, 0.669536, 1.08721, -0.410166, 0.44237, 0.39957, 0.100691, 0.984948, 0.686, -0.45902, 0.694511, 0.658957, 0.776147, 0.583525, 0.900578, -0.313773, 0.206068, 0.100844, -0.92703, 0.88221, 0.764583, -0.21689, 0.739629, -0.44363, 0.483008, -0.329268, 0.219324, 0.130869, -0.926773, -0.820106, -0.116394],
          "bias": -0.818508
        },
        {
          "weights": [0.697431, -0.155982, 0.329353, 0.0131823, -0.542835, -0.569956, -0.00186943, -0.711147, 0.116712, -0.332556, 1.10832, -0.203303, -1.04973, 0.494162, 0.478856, 0.214151, 0.008983, 1.38907, 0.566146, -0.758215, -1.54243, 0.0732637, 1.7739, 0.980483, 0.572415, -0.991975, 0.645113, 1.42872, 0.656159, -0.398049, 0.151714, -0.192333, 0.111956, -1.12775, -0.400281, -0.150738, -0.683386, -0.529252, 0.481523, 0.557871, 0.486423, 0.573837, -0.788361, 0.742624, 0.625235, 0.00869096, -0.506392, -0.523018, 0.564806, -0.52555, 0.887118, -1.76678, -1.24293, -1.14709, -1.20472, -0.326717, 0.727026, 0.427097, -0.681075, 0.213574, 1.07135, 0.00068667, 0.644928, -0.193009],
          "bias": -0.389285
        },
        {
          "weights": [0.465777, -0.623887, 0.45296, -0.715243, -0.765912, 0.0108311, 0.77118, 0.946786, 0.361331, 0.59416, 0.0945676, -0.0635366, -0.611037, 0.530802, -0.244507, -0.169526, 0.250416, -0.365494, 0.814068, -0.875008, -0.19852, -0.647336, 0.633869, -0.712364, -0.0764498, -0.413205, 0.843739, 0.672948, -0.973352, -0.339372, -0.00182897, 0.722093, 0.165774, -0.805372, -1.36748, 0.322211, 0.462095, 0.605986, 0.138257, -0.23884, 0.37219, -0.432936, 0.757477, -1.07786, -0.414114, -0.494398, -0.341058, 0.903617, 0.525113, -0.231911, 0.886089, -0.86173, 0.0817907, 0.573665, -0.3288, -0.706529, -0.663766, -0.344041, -0.782292, -0.525429, 0.327641, 0.153746, -0.685357, -0.388605],
          "bias": 0.095008
        },
        {
          "weights": [-0.678506, -0.988743, -0.0574276, -0.900476, 0.357905, 0.703732, 0.471713, -0.880661, 0.655579, 0.475193, -0.890895, -1.07, -0.72114, -0.764924, 0.888031, 0.0744431, -0.373124, -1.48717, -1.08597, -0.0151312, 0.677538, -0.67717, -1.27734, 0.60293, -0.0444572, 0.759739, -0.282821, -1.6039, 0.162252, 0.39546, 0.329024, 0.916642, 0.671203, -0.352374, -0.62895, 0.29566, -0.907976, 0.427837, 0.449406, 0.953916, -0.0369275, 0.974008, -0.630144, 0.174468, -0.748547, -0.505317, -0.337934, 0.224019, -0.521451, -0.773643, 0.225682, 0.941994, 1.26769, -0.0948975, 0.199765, -0.515596, 0.5442, -0.922998, -0.406307, 0.00237098, 0.59997, -0.754275, 0.0559914, 0.40815],
          "bias": 0.399124
        },
        {
          "weights": [0.0721575, -0.562742, 0.138666, -0.439963, 0.585705, 0.0925818, 0.523109, 0.506691, 0.409415, -0.204671, -0.842677, 0.71699, 0.152478, 0.512918, -0.907171, 0.933018, -0.0964069, 0.518101, 0.510853, 0.124286, -0.442464, 0.909942, -0.559389, -0.376197, -0.460023, 1.09633, -0.705545, -0.472348, -0.407746, 0.627508, 0.662707, 0.978987, -0.793841, -0.381983, -0.283291, 0.938533, 1.1436, -0.808631, 0.100559, 0.266695, -0.142538, 0.255707, -0.265706, 1.02278, -0.195118, 0.0925421, 0.868318, 0.633835, -0.507845, 0.698538, -0.373705, -0.115691, 0.317566, 0.435805, 0.691015, 0.880613, 0.36345, -0.97649, -0.333684, -1.01319, 0.508942, -0.707652, -0.750734, 0.998571],
          "bias": -0.75931
        },
        {
          "weights": [-0.21171, 0.790435, -0.0856743, -0.149577, 0.0889896, -0.818979, 0.707885, -0.508622, 0.0619967, 0.707339, -1.66013, -2.09757, 0.286554, -1.45877, -0.472043, 0.0341629, 0.656578, -1.36005, -1.80379, 1.69768, 1.80338, -1.89725, -2.98113, 0.253182, -0.0782715, 1.11292, -0.809758, -1.90606, -1.59604, -0.722022, -1.28915, 0.840475, -0.165402, 0.230805, 0.368282, 1.37674, 0.0584751, -0.780589, -0.107987, -0.571535, -0.893877, 0.681945, -0.490375, 0.287811, -1.39777, 0.664614, 0.316652, -0.85138, -0.440863, -0.958404, -0.648183, 1.56814, 1.75716, 2.15209, 0.458653, -0.667963, -0.346631, -0.912416, 0.546113, 0.223608, -0.350198, 0.817235, 0.546029, 0.966346],
          "bias": -0.191406
        },
        {
          "weights": [-0.763072, 0.889934, -0.630849, -0.364288, -0.695099, -0.202384, -0.258165, 0.941488, 0.261884, -0.512231, -0.762916, -0.849489, 0.164863, -0.526703, -0.186756, -0.577238, 0.899959, -0.597569, 0.726296, 0.843852, 0.740665, -1.00869, -0.953637, 0.731629, 0.711221, -0.702275, -0.303699, 0.176163, 0.317619, -0.348598, -0.48974, 0.892289, -0.280342, -0.241102, -0.452423, 0.115779, 0.822062, 0.249306, -0.176695, -0.0402103, 0.757604, 0.258184, 0.072505, -0.0222392, 0.935366, -0.940558, 0.391588, 0.881684, -0.370805, 0.342617, 0.43832, -0.82088, 0.439883, -0.973833, -0.950135, 0.15763, -0.854798, -0.131754, -0.313914, 0.587478, 0.484885, 0.217224, 0.692852, -0.582372],
          "bias": -1.40279
        },
        {
          "weights": [-0.779147, 0.442187, 0.81542, 0.490689, -0.591766, -0.22479, 0.248293, 0.80781, 0.989107, -0.726237, -0.556704, -1.74518, 0.839957, 0.196404, -0.354556, 0.00329661, 0.303313, -1.91261, -1.79678, 1.80338, 1.87281, -0.306715, -2.37095, 0.791799, -0.706579, 1.89238, -0.414217, -1.51572, -1.47614, 0.043776, -0.310407, 0.198653, 0.349584, 0.529489, 1.28435, 1.77635, -0.898271, 1.09806, 1.18702, -0.792105, -0.788602, 0.441073, -0.689946, 0.775879, -0.666614, 1.01649, 0.747647, -0.670305, 0.788271, -0.611471, -0.569635, 0.980272, 2.1336, 1.80808, 0.00357274, 0.287152, -0.561788, 0.993393, -0.202203, -0.332554, 0.152223, -0.574044, -0.385334, 0.250374],
          "bias": 1.36943
        },
        {
          "weights": [0.304007, 0.0081913, -0.911676, 0.241642, -0.426181, -0.703781, 0.45304, 0.928981, -0.479637, 0.386433, 1.41464, 1.2462, -0.43806, 1.3252, 0.178222, 0.709517, -0.0460627, 2.38552, 0.595708, -2.11325, -1.86299, 1.84239, 1.45575, -0.612936, -0.211802, -0.0425855, -0.0839862, 1.81012, 0.799699, 1.08716, 0.508596, 0.880098, -0.453581, 0.0792461, -0.422097, -0.222965, 0.756162, -0.291152, -0.382814, 0.988596, 0.961214, -1.08818, 0.285779, -0.355252, 0.989318, -0.983952, 0.532995, -0.756421, -0.553184, 0.616337, 0.0449321, -0.835665, -1.40778, -1.16288, -0.092494, 0.4757, -0.142382, 0.515405, -0.310146, 0.726978, 0.346903, 0.773543, 0.313807, 0.600052],
          "bias": -0.0841094
        },
        {
          "weights": [-0.564453, -0.27971, -0.58621, 0.010328, 0.769509, -0.597614, -0.0284583, 0.774092, 0.780933, 0.255878, -1.39952, -1.58608, 0.0234034, -0.72511, -0.215482, 0.946833, 0.658092, -0.92443, -1.37563, 0.791208, 1.17566, -1.7804, -1.53502, -0.63204, -0.200112, 0.812397, -0.265173, -1.99394, -1.96787, -0.550892, -0.0187785, -0.405035, 0.741935, 1.02723, 1.18341, 0.89365, -1.04505, -0.598217, 0.784069, -0.883903, 0.832712, -0.556279, -0.451749, -0.240989, -0.0709334, 0.766251, 0.530463, 0.314673, -0.136678, -0.384229, 0.125617, 1.50405, 1.99264, 1.41367, -0.577904, -0.426468, -0.873529, 0.505431, 0.146964, -1.01449, -0.773305, -0.334048, -0.119146, -0.730989],
          "bias": 0.00301264
        },
        {
          "weights": [-0.513853, 0.780455, -0.0661052, 0.0629817, 0.0659906, 0.0499921, -0.104306, 0.41526, 0.503791, 0.978137, -2.47727, -1.7898, -0.301194, -2.30558, 0.605431, -0.328976, -0.744529, -2.44966, -2.3091, 2.77683, 2.86751, -1.55818, -3.00966, -0.0894229, -0.834836, 2.87784, -0.792725, -3.10656, -2.32731, -0.381217, -0.507378, 0.315692, 0.487119, -0.540078, 0.59821, 0.402838, -0.0662651, 0.0879826, 1.77491, -0.0824755, 0.252505, 0.13639, 0.755814, -1.25981, -0.803367, 1.3332, 0.852425, 0.682194, -0.413627, -1.31723, -1.16896, 2.42023, 1.67954, 1.9452, 0.531551, -0.441025, -0.169982, -0.660251, 0.390091, -0.0308148, -1.64396, -0.180063, -0.0247454, 0.533531],
          "bias": 0.596209
        },
        {
          "weights": [0.353928, -0.913359, -0.402589, -0.371704, -0.944991, 0.514935, 0.880801, 0.0952188, 0.174569, -0.85928, 0.142079, -0.103966, 0.152589, -0.225779, 0.0260054, -0.552727, 0.42266, 0.633462, 0.293285, -1.23522, 0.384609, 0.703919, 0.647454, -0.740631, -0.209851, -0.363234, -0.492861, 0.972443, 0.894424, 0.918792, 0.0565431, 0.12275, 0.925954, 0.185339, 0.651899, 0.965839, 0.358803, 0.813815, -0.349835, -0.919322, 0.772568, 0.392289, -0.685524, -0.00497601, 1.17324, 0.426398, 0.00145361, 0.224919, -0.436159, -0.134799, 0.655684, -1.01569, -0.016554, -0.890489, -0.365228, -0.677206, 0.456477, 0.0486115, 0.93288, 0.0529428, -0.284431, -0.273356, -0.651952, -0.186122],
          "bias": -1.90379
        },
        {
          "weights": [-0.900906, -0.205158, 0.0239278, 0.730941, 0.871024, 0.104606, 0.503509, 0.469147, 0.624917, -0.652261, 0.63972, 0.432812, 0.648779, -0.188185, 0.735074, 0.771829, -0.97477, -0.385621, 0.593584, -0.670637, -0.424943, 0.784991, -0.510573, -0.990024, 0.560149, 0.247102, 0.0162881, -0.499537, 0.782249, 0.7486, -0.398312, 0.817056, -0.493379, 0.24382, 0.386782, -0.650592, -0.149461, 0.139362, 0.513642, -0.841938, 0.399246, -0.066521, 0.144577, 0.129839, 0.854304, -0.0702676, -0.419927, 0.639753, 0.282904, -0.382883, -0.582217, -1.14466, 0.300307, -0.941715, -0.826123, 0.30221, 0.842424, 0.152146, 0.589004, 0.427539, -0.268923, 0.993615, 0.377443, 0.370545],
          "bias": -0.333308
        },
        {
          "weights": [-0.0745594, 0.74819, 0.955299, 0.976947, 0.594982, -0.886638, 0.376193, -0.286821, 0.442657, -0.585319, 0.594164, 0.272417, 0.556868, 2.01277, 0.789931, 0.339791, -0.704653, 0.182782, 0.729362, -1.16674, -1.52827, 0.0570258, 0.887581, 0.44059, 0.973066, -1.46684, -0.27462, 2.14293, 1.51663, 1.01555, 0.62272, -0.526451, 0.42325, 0.149688, -0.754789, 0.0164676, 0.859379, 1.03846, 0.322371, -0.0998464, -0.758629, -1.13534, 0.212733, 0.893401, -0.331811, -0.119196, -0.503593, -0.678087, 0.23131, 1.7157, 0.524904, 0.116362, -1.35246, -0.042369, -0.253391, -0.754859, 0.870715, 0.264858, -0.788178, 0.452381, -0.026525, 0.600658, 0.892373, -0.636832],
          "bias": 0.0660059
        },
        {
          "weights": [-0.65713, 0.381399, -0.597711, -0.83044, 0.112809, 0.302443, -0.589069, 0.171921, -0.290377, 0.877302, -1.97824, -0.373678, -0.546282, -0.845163, 0.138044, -0.428524, -0.38983, -2.75626, -1.67419, 1.25721, 2.80245, -1.29172, -4.14429, -0.117, 0.300514, 2.38388, -0.276756, -2.74529, -1.47188, -1.82242, 0.0223945, 0.835003, 0.567484, -0.746188, 0.158614, 0.532275, 0.280003, -0.681841, 1.46701, -0.73968, -0.707204, 0.0562595, -0.827388, -0.432267, -1.44666, 1.29505, 1.33575, 0.181273, 0.962896, -1.95345, -0.786743, 1.79603, 2.50613, 2.46126, 0.0234224, -0.219509, 0.272187, -0.713044, 0.681663, -0.968068, -1.25935, 0.527628, -0.400678, -0.959473],
          "bias": 0.922569
        },
        {
          "weights": [-0.396115, -0.27918, 0.32658, 0.0193788, -0.426965, 0.5869, 0.312175, 0.623736, 0.753954, -0.711567, -2.77167, -1.12296, 0.476139, -1.01138, 0.0219482, -0.772548, -0.132396, -2.41958, -0.530652, 1.14651, 1.72957, -1.70555, -1.80082, 0.353981, -0.830417, 0.940484, -0.0649804, -1.50267, -1.52158, 0.082916, -0.111794, 0.779744, -0.41163, -0.129032, 0.516948, 0.623549, -0.986706, -1.08287, 0.321337, -0.859472, -0.600269, 0.051274, 0.270875, -1.24442, -1.58913, -0.079173, 0.0485404, 0.223695, -0.175485, -2.0355, -0.231377, 1.74924, 1.09541, 1.95659, 0.683891, -0.171718, -0.847517, 0.072543, -0.474506, -0.141834, -0.530084, 0.998588, 0.108087, 0.528463],
          "bias": -0.306689
        },
        {
          "weights": [0.90721, -0.310133, 0.184835, -0.981493, 0.475008, 0.325364, -0.581762, -0.545012, -0.475056, -0.345864, 0.781416, 0.292234, 0.0499687, -0.483237, 0.570988, 0.288266, 0.798501, 1.69108, 1.75094, -0.663408, -1.58802, 0.364296, 2.28712, 0.78059, 0.300741, -1.12804, 0.251607, 1.55535, 1.82319, -0.270919, -0.338056, 0.870569, -0.0609875, 0.142522, -0.04068, -1.1623, -0.18263, -0.744387, -0.638224, 0.132733, -0.0385505, 0.540184, 0.739303, -0.776527, 1.22673, -0.250211, -0.212183, 0.513362, -0.0872796, 1.10992, 0.566857, -0.285795, -2.3055, -1.72196, 0.0899959, 0.390154, 0.270011, -0.87796, -0.310517, 0.552952, -0.309234, -0.212927, 0.103939, 0.310198],
          "bias": -1.55445
        },
        {
          "weights": [-0.00698543, 0.724218, -0.322713, 0.300328, -0.406774, 0.81002, -0.738222, -0.726687, 0.689226, -0.659287, 1.80979, 0.651856, 0.761786, 1.10528, -0.94786, 0.0220805, -0.610654, 1.56884, 0.69825, -0.963661, -0.767801, -0.0542898, 0.119538, 0.196304, 0.191131, -0.222255, 0.910072, 1.77619, -0.0997869, 0.11064, -0.621155, 0.40442, -0.398095, -0.444239, -0.688304, -0.00769995, -0.10002, 0.0499753, 0.0137867, -0.775765, 0.307239, 0.287389, 0.194425, 0.193629, 0.422058, 0.0733115, -1.3728, 0.347501, 0.0887005, 0.901226, -0.502344, -1.46729, -0.197755, -1.54813, 0.168626, -0.158493, 0.533149, -0.0732423, -0.180289, 0.969455, 0.829345, -0.132587, 0.348975, -0.593651],
          "bias": -0.152455
        },
        {
          "weights": [-0.946276, 0.60148, -0.872588, 0.0202498, 0.0699243, -0.648353, -0.672511, -0.473458, 0.715301, 0.342643, 1.61754, 0.92588, 0.569429, 0.771683, -0.780205, -0.471395, -0.0162168, 0.537865, -0.00396776, -0.733821, -0.223524, 0.640165, 0.915965, -0.331214, 0.840199, -0.782255, -0.0667514, 0.614789, -0.448703, 0.160199, -0.244041, -0.910132, -0.51894, -0.807053, -0.164875, 0.429219, 0.393344, 0.69998, -1.51828, -0.505624, -0.219751, 0.327743, 0.39099, -0.56025, 0.0353697, 0.56184, -0.762664, 0.378205, -0.771975, 0.97409, -0.0071573, 0.228337, -0.0468697, -0.58252, -0.57866, 0.7284, -0.982547, 0.112071, -0.563987, -1.01823, 0.919825, -0.263972, -0.856535, -0.527289],
          "bias": -0.997525
        },
        {
          "weights": [0.253582, -0.976304, 0.94253, -0.308811, -0.898777, -0.563094, 0.471438, 0.663447, -0.937624, 0.631564, 0.391066, 1.70132, -0.483218, 1.39643, -0.864332, 0.188008, -0.976256, 0.495898, 0.926864, -0.782682, -1.44913, 0.57128, 2.1075, 0.856632, 0.240622, -0.483547, 1.42808, 2.40809, 1.61445, -0.204946, 0.553633, -0.177875, -0.65531, -0.0340886, -0.00623079, -0.867599, 0.86648, 0.112971, -1.35696, 0.581919, -0.383684, -0.949496, 0.372836, 0.258756, 1.27504, 0.126726, -1.35063, 0.627047, 0.73095, 1.12169, 0.607385, -1.22186, -2.06478, -1.66068, -0.958246, 0.24606, 0.777635, -0.819573, 0.22271, 0.566359, -0.278398, -0.637184, -0.831697, -0.153889],
          "bias": 0.156022
        },
        {
          "weights": [0.681616, 0.292023, -0.0350062, -0.333632, 0.401383, -0.453088, 0.282684, 0.568612, -0.963527, -0.780705, 0.833493, 1.11545, -0.507784, 0.418252, 0.392651, 0.544744, 0.780037, 1.46292, 0.937106, -1.38068, -1.24615, 0.117762, 1.41505, -0.619268, -0.981048, 0.0830862, 0.0670387, -0.193207, 0.687899, 0.824139, 1.00879, 0.106326, 0.0202875, -0.394906, 0.74233, -0.528914, 0.724264, 0.241188, 0.644338, 0.375598, 0.274672, -0.0249224, -0.14982, 0.824795, 1.32619, -0.670243, -0.0534001, 0.741195, -0.701887, 0.348673, 0.997558, -0.856216, 0.112832, 0.320274, -0.221243, 0.528706, 0.0404231, 0.761304, 0.910474, -0.68271, 0.341726, 0.737693, 0.571458, -0.490144],
          "bias": -1.04123
        },
        {
          "weights": [0.344152, -0.0684735, 0.869031, -0.600471, -0.078191, 0.24463, 0.674201, -0.915994, -0.718071, 0.292789, -1.1855, -0.408943, -0.372695, 0.846527, 0.00999278, 0.169633, 0.660148, 0.033009, -0.68617, 0.846018, 0.03415, -0.962742, -1.33166, -0.851133, -0.881433, 0.43672, 0.401755, 0.377314, -0.755797, -1.06784, -0.971979, 0.865329, 0.079817, -0.65861, -0.0633659, -0.608522, 0.431484, 1.06378, -0.628738, 0.781756, 0.231848, -0.783011, -0.420171, 0.720414, 0.750164, 0.933205, 0.195778, 0.577303, 0.0120397, 0.212944, -0.342918, 0.944844, 1.58116, 1.0974, 0.709065, 0.863649, -0.544226, 0.186903, 0.719909, -0.225157, 0.133085, -0.893926, -0.157719, -0.584989],
          "bias": -0.114074
        },
        {
          "weights": [0.107139, -0.583363, 0.861097, 0.046199, -0.497731, 0.642853, -0.721953, -0.366935, -0.863511, 0.966015, -0.358232, 0.655348, -0.476549, -1.09655, -0.347843, -0.639396, 0.14899, -0.522195, -0.544586, -0.73667, -0.125984, 1.01161, 0.879527, -0.21287, 0.689243, -1.40318, -0.697362, 1.13208, 0.0723556, -0.30384, -0.398207, -0.96281, -0.0460281, -1.22252, -0.833978, 0.0207397, 0.837405, 0.177597, -1.36885, 0.797027, 0.327452, -0.600681, 0.196938, -0.905337, -0.0714095, -1.47008, -0.950037, 0.916037, -0.858941, 0.0376535, -0.0789669, -0.00621878, -1.47643, -0.0467284, -0.641053, -0.724066, 0.769669, -0.349258, -0.928749, -0.201378, 0.286979, -0.772161, -0.263091, -0.857951],
          "bias": -1.6836
        },
        {
          "weights": [0.820298, 0.598289, 0.906064, 0.181734, 0.687594, 0.703091, -0.490814, -0.672881, 0.140235, -0.339747, -2.04287, -1.08046, -0.0700028, -1.40724, 0.370595, 0.789283, 0.581285, -2.24381, -2.15268, 2.1583, 2.75407, -1.67776, -3.06212, -0.708959, -0.27684, 2.3318, -0.584965, -2.49365, -2.26864, -0.290756, -0.641049, -0.710221, 0.219455, 0.181663, 1.50852, 0.647167, -0.650784, 0.808052, 0.949647, 0.945913, -0.359048, -0.592589, 0.254525, 0.402075, -0.708666, 0.43452, 1.40744, -0.0801756, 0.657926, -0.513488, -1.99718, 1.56759, 1.61901, 1.98617, 1.12264, 0.353202, -0.0515668, 0.0683834, -0.695799, -0.152486, -0.880851, 0.500725, 0.707693, 0.909004],
          "bias": 0.210514
        },
        {
          "weights": [0.179206, -0.183947, 0.408991, 0.159905, -0.949779, 0.354904, 0.800858, -0.621443, -0.469647, 0.613735, 1.36039, 0.419874, 0.0996719, -0.130022, -0.265676, 0.19403, -0.180071, -0.0585609, 1.43314, -1.72373, -0.403298, 0.550516, 1.33312, -0.309801, 0.481476, -1.37721, 0.777734, 0.893939, -0.265988, 0.639449, 1.07462, 0.289037, -0.895195, -0.195695, -1.44685, -1.31131, -0.43312, -0.839506, -0.944755, -0.120238, 0.863536, -0.93952, 0.76596, 0.182589, 0.278897, -0.939136, -1.23406, 0.707528, -0.276967, -0.264819, 1.30293, -1.43879, -0.919067, -1.20074, -0.214151, -0.243716, 0.129679, -0.585204, 0.738485, 0.460131, 0.92417, 0.323998, -0.471454, 0.808354],
          "bias": -1.27643
        },
        {
          "weights": [-0.0225112, 0.963381, -0.332089, 0.227289, -0.503036, 0.547673, 0.0908244, -0.252356, 0.503833, -0.829744, -1.12416, -1.93039, -0.822571, -0.914851, -0.0826498, -0.45875, 0.0860896, -1.59556, -0.407008, 2.30675, 0.888723, -1.4824, -2.34627, -0.287957, -0.689174, 0.31132, -1.38557, -1.19648, -1.58356, -1.43065, 0.286987, 0.688854, -0.812673, -0.206711, 0.618372, 0.110473, -1.36451, -1.21581, 1.10249, 0.672745, -0.822777, 0.239229, 1.03911, -0.785307, -1.4948, 0.426151, 0.800654, 0.496039, -0.953389, -1.35161, -0.556759, 0.337462, 2.04597, 0.650001, 0.454547, 0.861415, -0.564201, 0.471493, 0.496239, -0.144693, 0.403583, 0.449566, -0.163982, 0.882766],
          "bias": -0.269747
        },
        {
          "weights": [0.752161, -0.432943, -0.760285, 0.759129, 0.998992, 0.91246, 0.936352, 0.0661703, 0.779521, -0.442709, 1.81493, 0.289725, 0.807804, 0.79691, -0.389456, -0.302272, -0.718172, 1.43127, 0.112173, -1.71567, -2.37824, -0.113583, 2.01243, 0.481797, 0.60597, -2.04934, 0.769338, 1.67668, 1.20316, 0.619894, 0.60502, -0.29405, 0.62706, 0.216881, -1.38711, 0.13757, 0.494882, -0.603627, -0.811811, 0.0580361, -0.041278, -0.980832, 0.472795, -0.016491, 0.800667, -1.49852, -0.195912, 0.422329, 0.186915, 1.48894, 1.69758, -0.630042, -0.607337, -1.27551, -0.669784, 0.339948, 0.0455148, 0.856251, -0.604517, 1.34727, 0.26422, 0.521823, -0.294746, -0.456687],
          "bias": -0.168311
        }
      ]
    },
    {
      "activation": "linear",
      "nodes": [
        {
          "weights": [-0.596781, 0.622562, -0.744908, 0.972666, -0.729262, 1.44155, -0.23024, -0.0674926, -1.2415, 1.21952, 0.393997, 0.449221, -0.299445, -0.0471385, -0.556208, -0.700129, 1.49168, 0.716795, -0.943464, -0.52209, 0.301981, 0.778707, 1.35188, 1.96755, 0.812795, 0.486726, -0.373541, 0.442037, -1.34854, 0.327246, -0.903296, -0.396911],
          "bias": 0.687722
        }
      ]
    }
  ]
}
