{
  "layers": [
    {
      "activation": "sigmoid",
      "nodes": [
        {
          "weights": [0.326665, 0.924947, -0.346583, -0.120223, 0.287456, -0.358894, -0.0902117, -0.100983, -0.0750767, -0.492865, -0.731089, -0.854347, 0.630513, -1.04223, 0.427922, 0.301261, 0.344109, -1.00076, 0.169862, -0.149736, -0.268985, -0.565988, -0.319259, -0.818494, -0.754295, 0.839397, 0.456552, -0.32719, 0.336731, -0.679751, 0.113583, -0.308266, -0.979946, 0.411877, 0.563255, 0.188689, -1.06233, -0.307182, -0.565974, -0.0381707, -0.0115658, -0.351164, 0.132599, -0.372271, -0.334089, -0.465911, 1.00372, -0.90647, -0.309701, -0.0456671, -0.201244, 0.27759, 0.520715, 0.612226, 0.348844, 0.645977, -0.0266551, -0.337254, -0.454262, -0.656745, -0.237305, 0.288121, 0.0301475, -0.222092],
          "bias": 0.839925
        },
        {
          "weights": [-0.398341, -0.914581, -0.279173, 0.0829583, -0.708055, 0.682656, -0.928607, -0.075295, -0.200822, -0.42879, 0.848029, 0.359648, -0.769531, 0.943418, -0.966078, 0.341557, -0.565001, 0.336399, -0.269144, 0.60035, -0.762151, -0.61171, 0.0189212, 0.189318, -0.066456, -0.133888, 0.780596, -0.556194, -0.729516, -0.524916, -0.487724, -0.140363, -0.189501, 0.600242, 0.960823, 0.22447, 0.391763, -1.21861, -1.2225, -0.891752, -0.414803, 0.675105, 0.4257, -0.187553, 0.547377, 0.490869, -0.921221, 0.903931, -0.324714, 0.0601684, 0.649328, 0.0562842, 0.284961, -0.461294, -0.624912, -0.637779, 0.937251, -0.661651, -0.416114, -0.818953, 0.0492485, 0.489472, 0.0548656, 0.873929],
          "bias": -1.15334
        },
        {
          "weights": [-0.00253933, -0.0236263, -0.575045, 0.0114482, 0.00352336, -0.466797, 0.596645, -0.295201, 0.985073, -0.44587, -0.66967, 0.482164, -0.279614, -0.763997, -0.853848, 0.894043, 0.897666, 0.480921, 0.310331, -0.682299, 0.47349, 0.683119, -0.337615, -0.922463, -0.731173, -0.57418, -0.0169543, 0.937812, 0.802739, -0.192477, -0.462297, -0.208108, 0.991269, 0.270845, 0.813597, 0.0800353, 0.887764, 0.207476, 0.489436, 0.817415, 0.954116, 0.84503, 0.259986, -0.320982, 1.00458, 0.431657, -0.485047, 0.848652, -0.217558, -0.959748, -0.702479, -0.614237, 0.574868, -0.157738, -0.410045, 0.97782, 0.739641, 0.740132, 0.736119, 0.514694, -0.264351, -0.389697, -0.674036, -0.253703],
          "bias": -0.22579
        },
        {
          "weights": [-0.870695, 0.74109, 0.741784, 0.52929, 0.440682, 0.559199, 0.483406, 0.314005, -0.152521, -0.709306, -0.00458405, -0.770002, 0.197911, -0.156966, 0.0643529, 0.0160772, 0.569381, 0.37235, -0.2709, 0.0449173, -0.395334, -0.318152, -0.87263, 0.925281, -0.560991, 1.36516, -0.0634816, -0.272414, -0.830713, 0.803362, 0.535311, -0.701562, 0.167697, -0.267245, 0.772098, -0.582467, -0.85354, 0.655985, 1.29646, 0.107215, 0.601829, 0.219593, 0.421343, -0.18163, -0.81632, -0.566185, 0.933156, 0.8704, -0.960539, -0.699839, -0.297281, -0.565536, 0.246713, 0.0137178, -0.824515, 0.4769, -0.407877, -0.169801, -0.473788, -0.225467, -0.729919, 0.484966, 0.0596953, 0.424502],
          "bias": 1.01358
        },
        {
          "weights": [-0.112576, -0.967119, -0.554759, -0.801441, 0.955266, 0.552456, 0.800388, 0.142641, -0.0584182, -0.605757, 0.462509, 0.420423, -1.00915, 0.332011, 0.434522, -0.660823, 0.753917, 0.651682, 0.376133, -0.529301, 0.803149, -0.12791, 0.0812005, -0.360779, 0.380181, 0.868093, -0.140682, -0.157106, -0.110731, -0.691576, 0.0541516, 0.80337, -0.646589, 0.490209, -0.971111, -0.693037, 0.0174393, 0.796556, 0.441707, 0.98993, -0.80344, -0.110705, 0.379307, -0.813651, -0.801419, -0.180323, -0.462953, 0.962956, -0.521356, 0.923742, -0.572897, -0.725177, -0.242792, 0.520781, -0.0755295, -0.84887, 0.417072, 0.822914, 0.0162778, -0.672262, -0.861837, -0.933071, -0.863611, -0.503145],
          "bias": 0.524259
        },
        {
          "weights": [-0.861682, -0.194468, -0.388831, 0.940636, -0.74315, -0.398901, -0.862804, 0.151828, 0.986089, -0.662069, 0.616357, -0.164695, -0.329236, 0.581591, 0.284245, -0.205176, 0.789649, 0.785276, 0.553352, -0.1121, -0.921647, 0.72252, -0.0454575, -0.678287, -0.266818, -0.414889, -0.782402, 0.110126, 0.248241, -0.39217, -1.19695, 0.375267, 0.767543, -0.0632889, 0.347002, -0.809556, 0.683338, 0.125283, -0.178843, 0.56129, 0.791031, -0.500304, -0.670499, -0.543851, 0.965857, 0.65906, 0.151671, 0.650558, 0.223048, 0.0583648, -0.250454, 0.509961, -0.463232, 0.516838, -0.977036, 0.479557, -0.130869, -0.491285, -0.720331, -0.91464, 0.450007, -0.357399, 0.481347, 0.23827],
          "bias": -1.2104
        },
        {
          "weights": [-0.20275, 0.262663, 0.191904, -0.74965, -0.561117, -0.246806, -0.95862, -0.0240301, 0.120085, -0.289745, 0.0515653, -0.174907, -0.995287, -0.29636, 0.99427, 0.203425, 0.488466, 0.870371, 0.943242, -0.12689, 0.436179, 0.457283, -0.747039, -0.73161, 0.709027, -1.11768, 0.509756, -0.467374, 0.689382, -0.272004, 0.580827, -0.489155, -0.75995, 0.126166, -0.184981, -0.229241, 0.936227, -0.419354, 0.403949, 0.0335125, 0.512829, -0.542286, 0.770667, 0.513989, 0.0233121, 0.804073, -0.323125, -0.532315, 0.51512, -0.130658, 0.493535, 0.102167, -0.901746, 0.619346, 0.5312, 0.978393, -0.916864, 0.282301, -0.66998, 0.772821, -0.764221, -0.701649, -0.692425, -0.500262],
          "bias": -0.887879
        },
        {
          "weights": [0.0687694, 0.178671, 0.372012, 0.871344, -0.166426, -0.594475, 0.384173, 0.325355, -0.789741, 0.0709557, -0.567754, -0.959251, 0.855785, -0.100666, 0.524383, -0.198829, -0.503019, -0.113092, 0.0620813, -0.88518, -0.850747, 0.0629114, -0.498169, 0.624663, 0.378949, -1.00355, 0.744228, 0.808402, -0.48204, -0.799069, -0.124569, 0.60408, 0.562761, -0.514547, 0.509827, -0.517138, -0.0528499, -0.306655, 0.542045, 0.123681, 0.930554, -0.99618, 0.1105, 0.782532, -0.15346, -0.339464, -0.460507, 0.295505, 0.456505, 0.78201, 0.498653, 0.692405, -0.294706, -1.07262, 0.409588, -0.808698, -0.697884, 0.307882, 0.868601, -0.175672, 0.678872, 0.00448605, -0.558493, 0.254732],
          "bias": -0.351684
        },
        {
          "weights": [0.916932, 0.651066, -0.574195, -0.22347, 0.372756, 0.549486, -0.292917, 0.39902, -0.31757, -0.4012, -0.823482, 0.348329, 0.309539, 0.471232, -0.203739, 0.0551101, 0.136423, -0.434381, 0.867552, 0.249682, -0.933981, -0.9332, 0.483664, 0.326539, 0.927366, -0.583883, 0.0295243, -0.114423, -0.222071, -0.692422, -0.488972, -0.291215, 0.924309, -0.128744, 0.494761, 0.27815, -0.607896, -0.77352, -0.267915, 0.101954, -0.208803, -0.105154, -0.557072, -0.898584, -0.629574, 0.236503, 0.172098, 0.5231, 0.8331, 0.00518284, -0.255936, 0.870421, 0.0820938, -0.743787, 0.179085, -0.0084136, -0.402831, -0.803193, 0.923438, 0.388597, -0.530376, -0.632327, -0.902193, -0.605641],
          "bias": 0.426425
        },
        {
          "weights": [0.583122, 0.691424, 0.657236, 0.775519, -0.612491, -0.240809, -0.433283, 0.281137, 0.200902, -0.350399, 0.60687, -0.598032, 0.829923, 0.131824, -0.728026, -0.206948, 0.924818, -0.901829, 0.855752, -0.725087, 0.369915, -0.174197, -0.244755, 0.498835, -0.227703, -0.77225, 1.04242, 0.108202, -0.716371, -0.562376, -0.534768, 0.83876, -0.945333, -0.956098, 0.575884, -0.592171, -0.197363, -0.756619, 0.794349, 0.99501, -0.169403, 0.400111, -0.557132, -0.332322, -0.430525, -0.299448, 0.466139, -0.49314, -0.170412, 0.255688, -0.24564, -0.827076, -0.839461, 0.525857, 0.636922, -0.110326, 0.605142, 0.599335, -0.970356, 0.865618, 0.967415, -0.592674, 0.69954, -0.982756],
          "bias": -0.265112
        },
        {
          "weights": [0.31382, -0.540581, 0.236352, 0.494816, -0.817268, 0.231362, -0.674587, 0.573859, 0.665245, -0.0563941, -0.910743, -0.65587, -0.603608, -0.402682, 0.200691, 0.623368, 0.341262, 0.28918, 0.73729, -0.103242, 0.0474247, -0.386072, -0.640132, -0.437909, -0.339936, -0.648289, -0.41067, 0.0113173, 0.962688, -0.383839, 0.618506, 0.267856, 0.00133274, -0.246869, -0.26298, 0.14886, 0.969238, 0.153053, -0.167708, 0.642592, -0.968309, -0.0790292, -0.979159, -0.566085, 0.556737, 0.209754, -0.928701, -0.0821523, -0.453309, 0.740857, 0.770278, 0.550305, -0.576868, -0.834289, -0.925566, 0.0411377, -0.645369, -0.403791, -0.891473, -0.687886, 0.14157, 0.61816, 0.576522, -0.860545],
          "bias": -0.277338
        },
        {
          "weights": [-0.660806, 0.32352, -0.65851, 0.427278, -0.918557, 0.984082, 0.458969, -0.00473239, 0.997776, 0.84551, -0.340044, 0.194938, 0.770622, 0.580237, 0.758853, 0.606075, 0.196121, 0.359737, 0.973258, 0.123355, 0.163607, 0.00916816, 0.737995, 0.93605, 0.136813, 0.741103, -0.0100515, -0.114132, 0.56001, 0.0831464, -0.107966, 0.87527, -0.462854, 0.441393, 0.284329, -0.327995, 0.499566, -0.364635, 0.479948, 0.442466, -0.392972, -0.833504, -0.364587, -0.612764, 0.714894, -0.593673, -1.05576, -0.128468, 0.681782, -0.93933, -0.916109, -0.0662792, -0.00151147, 0.73654, -0.0473034, -0.779229, 0.77823, -0.968156, -0.0242565, 0.300392, 0.231556, -0.90514, 0.189576, 0.782617],
          "bias": -0.20085
        },
        {
          "weights": [-0.507876, -0.598794, 0.000157375, 0.253641, -0.984937, -0.557377, 0.860669, -0.799227, 0.097251, -0.676884, 0.796302, 0.454158, -0.564388, -0.330461, 0.192513, -0.552691, -0.0844949, -0.821223, 0.519217, -0.141963, 0.251139, 0.713458, -0.506656, 0.203651, -0.272219, 0.897921, -0.465112, -0.207319, 0.0512696, -0.695402, -0.530441, 0.508418, -0.367056, 0.382235, -0.294786, -0.382861, 0.840206, -0.320702, -0.0803358, -0.0818593, -0.054156, -0.271068, -0.567159, 0.397463, 0.465744, 0.607082, 0.835701, -0.611815, 0.83552, 0.299013, 0.20916, 0.0503524, 0.112824, 0.724031, -0.78431, 0.795876, 0.461497, -0.3399, -0.381483, -0.521925, -0.107879, -0.00337358, 0.986209, 0.524782],
          "bias": -0.303955
        },
        {
          "weights": [-0.251731, -0.827212, -0.804217, 0.370997, 0.0215679, 0.113923, -0.683159, 0.746531, 0.542795, 0.654323, 0.372595, 0.165929, 0.308704, 0.762524, -0.000299255, -0.244827, -0.270238, -0.854124, 0.81048, -0.919255, -1.05125, 0.609581, 0.951829, -0.121893, -0.762338, -1.04665, 0.626775, 0.456136, -0.688209, 0.0569467, 0.231956, 0.0383068, 0.467514, 0.780969, -0.587099, -0.389965, 0.0133573, -0.498579, -1.00206, -0.538317, -0.619533, 0.430829, 0.601868, 0.68827, 0.144586, -0.371791, -0.638022, 0.791982, -0.367408, -0.587247, -0.990168, -0.283228, -1.11492, 0.83594, 0.713343, -0.745169, -0.713611, 0.49865, 0.48912, -0.435728, -0.218779, 0.0983012, 0.614733, -0.73911],
          "bias": -1.29776
        },
        {
          "weights": [-0.975963, -0.250028, 0.822153, -0.249819, -0.014414, -0.716165, 0.130648, -0.559589, 0.909698, -0.0497695, 0.321944, -0.514995, 0.653474, 0.11488, 0.167855, 0.923009, 0.451136, -1.11331, 0.93884, 0.742872, 1.00742, -0.83078, 0.611833, 0.245809, 0.684129, -0.377709, -0.788467, -0.41992, 0.920861, -0.45287, 1.04999, 0.935282, 0.0500474, 0.52794, -0.366878, -1.09489, 0.726027, 1.03965, -0.279939, 0.701382, -0.233658, 0.998767, -0.743263, -0.56385, 0.194186, 0.389118, -0.578072, -0.275576, 0.422952, -0.871022, -0.665424, 0.299669, -0.519965, 1.05764, -0.567062, -0.966347, -0.825282, -0.544895, -0.183917, -0.906855, -0.237639, -0.498222, -0.978754, 0.805227],
          "bias": 0.162843
        },
        {
          "weights": [-0.293291, 0.84086, 0.801309, -0.47718, -0.683096, 0.502691, 0.289162, -0.704421, 0.739335, 0.58049, 0.740924, 0.14542, 0.654243, -0.532526, -0.433215, 0.949343, -0.548587, 0.896117, -0.712381, -0.983022, -1.14699, -0.67777, -0.350444, -0.392079, 0.148603, -0.800648, 0.210092, 0.901157, -0.357865, -0.089691, 0.241653, 0.318254, 0.00918771, 0.436888, 0.843484, 0.458233, 0.0720356, -0.113778, 0.362349, -0.296657, -0.289272, 0.16611, 0.822747, -0.637184, 0.575983, -0.581759, -0.77784, 0.935242, -0.849143, -0.230517, -0.890684, -0.840752, -0.0560132, -0.385936, -0.103525, -0.765111, 0.359498, -0.725307, 0.885271, 0.959197, 0.431173, 0.545279, 0.289299, -0.547792],
          "bias": -1.32299
        },
        {
          "weights": [0.130374, 0.7783, 0.970604, -0.739389, 0.399971, -0.326054, -0.0286615, -0.40949, -0.478878, 0.476894, -0.8017, 0.00118399, 0.843001, -0.868559, 0.0859391, -0.314443, -0.725557, 0.44932, 0.773692, -0.16911, -0.847295, -0.951731, -0.559615, -0.424102, 0.892002, -0.769931, -1.12887, 0.497859, 0.614554, -0.66556, -0.730949, -0.206144, -0.750573, -0.604452, 0.12225, 0.701761, 0.0661873, -1.08842, -0.892996, 0.609549, 0.502699, -0.704685, -0.474301, 0.335603, -0.661087, 0.638566, -0.983827, -0.401727, 0.0201816, 0.915824, 0.490972, 0.233226, 0.80836, -1.10946, 0.887565, 0.790624, -0.580762, 0.916203, 0.227905, -0.929645, -0.625035, 0.671782, -0.123424, -0.363242],
          "bias": -1.54278
        },
        {
          "weights": [0.931044, -0.713844, 0.174689, 0.956849, -0.473935, -0.215762, 0.459548, -0.159688, 0.328869, -0.105961, 0.430221, 0.0292247, -0.18751, 1.02759, 0.979621, -0.0940227, 0.404328, 0.490535, -0.202166, -0.0182948, -0.192835, -0.370072, 1.02397, 0.114494, 0.823129, 0.482179, 0.230084, 0.768882, -0.194812, -1.21672, 0.0575971, -0.24104, -0.575262, -0.282497, -0.211824, 0.121256, 0.612861, -1.14576, 0.439303, -0.13103, 0.0693963, -0.0831026, 0.790049, -1.13159, -0.183948, 0.820599, -0.310518, -0.878, 0.109036, 0.831159, 0.294138, -0.896289, -0.815237, 0.158931, 0.39866, -0.787588, 0.391341, -0.0763549, 0.707322, -0.801446, 0.0415241, 0.288496, -0.0217835, 0.486965],
          "bias": -2.67384
        },
        {
          "weights": [0.694025, -0.562233, 0.584459, 0.869382, -0.771117, -0.546571, -0.0612215, 0.18414, -0.718162, 0.0222619, 0.737704, -0.944059, -0.869126, -1.14036, 0.198903, 0.805782, 0.595193, 0.375954, -0.80503, 0.318452, 0.177479, -0.60773, -0.684959, 0.851697, -0.885201, -0.0418987, 0.065264, 0.208494, 0.620624, -0.377935, 0.79, 0.318033, -0.161344, 0.0506183, 0.153308, -0.0456241, 0.417401, -0.671411, -0.527263, 0.767379, 0.148456, -0.828005, 0.875752, 0.290679, -0.894752, 0.044737, 0.157164, 0.772492, -0.43762, 0.140719, -0.0392688, 0.61117, 0.689178, 0.388727, 0.354907, 0.683301, 0.880012, -0.743948, 0.0865961, 0.511452, -0.335627, -0.465751, -0.177948, 0.495596],
          "bias": 1.64858
        },
        {
          "weights": [-0.990532, -0.436866, 0.0519031, -0.864339, -0.185188, -0.180718, 0.284117, -0.0316989, -0.323471, -0.555705, 0.324876, 0.717757, 0.254029, 0.0994266, -0.704941, -0.428719, 0.725779, 0.961265, -0.87864, -0.375501, -0.20438, 0.798105, 0.00367022, 0.383672, -0.0903193, -1.10488, -1.1177, 0.738026, 0.209149, 0.239487, -0.467397, 0.175551, -0.900658, -0.966829, 0.297805, 0.0718586, 0.021072, -0.689277, 0.585191, 0.558006, 0.0396239, -0.000967563, 0.261661, -0.70459, 1.05992, 0.586045, -0.248838, 0.671929, 0.371235, 0.175018, -0.529857, -0.661389, -0.174158, 0.310254, 0.863901, 0.893708, 0.815971, 0.923139, 0.337638, -0.0318176, 0.445474, -0.65207, -0.842395, 0.558689],
          "bias": -2.07984
        },
        {
          "weights": [0.468817, -0.527157, 0.291601, -0.935854, -0.644702, -0.150393, 0.10377, 0.383354, -0.859708, 0.553649, 0.115119, 0.643269, -0.274467, -0.210507, 0.0972708, 0.735752, 0.633361, 0.458272, -0.286457, 0.470408, 0.76723, -0.434463, -0.184212, 0.401791, 0.951127, 1.24352, 0.0806234, -0.898181, -0.899923, -0.302882, 0.0993894, 0.529749, -0.107331, -0.975955, 0.50826, 0.109068, -0.19189, -0.0574119, -0.0967027, -0.00931986, -0.748685, 0.984086, -0.260021, 0.000730467, -0.111853, 0.792549, -0.213292, -0.404385, 0.410112, 0.246834, 0.925725, 0.0394971, 1.04832, -0.148105, -0.689345, 0.846272, -0.474485, 0.151694, -0.854671, -0.405066, 0.580008, -0.145491, -0.883804, -0.535811],
          "bias": 1.11497
        },
        {
          "weights": [0.710092, 0.712156, 0.705679, -0.592242, -0.656524, -0.30364, -0.340927, -0.695701, 0.413075, 0.485197, 0.247408, 0.20467, -0.947769, 0.842558, -0.362826, 0.328731, 0.563086, 0.520817, 0.215508, -0.790422, 0.826776, 0.0529863, -0.288638, -0.0318105, 0.215477, 0.291783, -0.441174, -0.919469, 0.427502, 0.0043145, -0.074452, 0.123525, -0.283945, -0.372183, 0.508425, 0.0642462, 0.345618, -0.814925, 0.364245, -0.259609, 0.675552, -0.372755, 0.964314, 0.73618, -0.497445, -0.404235, 0.0465128, -0.94436, -0.869433, -0.730527, -0.739439, 0.95275, 0.350603, -0.0290506, -0.0846542, -0.439143, -0.751061, 0.454962, -0.369157, 0.65967, -0.543841, 0.55612, -0.214104, 0.174917],
          "bias": -0.800732
        },
        {
          "weights": [-0.682822, -0.765552, 0.514393, -0.492466, 0.598279, -0.745216, -0.816914, -0.771337, -0.777763, 0.905712, -0.199091, -0.114028, -0.0987068, -0.143971, -0.042569, 0.232301, 0.0177707, -0.0721612, -0.419558, 0.834007, 0.740625, 0.180272, -0.775095, 0.274707, 0.769382, 0.860537, 0.620303, 0.288831, -0.386984, -0.1215, 0.478634, -0.0161409, 0.142933, 0.0108227, 0.548443, -0.286198, 0.200636, 0.661347, -0.0616464, 0.503992, 0.58019, 0.674944, -0.685292, -0.518121, -0.572057, 0.287372, 0.75379, 0.485721, -0.807219, -0.635514, 0.343593, -1.04312, 0.429611, 0.561094, 0.289997, 0.25516, 0.554392, 0.0208009, -0.419338, -0.796177, 0.912036, -0.906758, 0.204931, 0.0722189],
          "bias": -0.133501
        },
        {
          "weights": [-0.303676, 0.813431, -0.598031, -0.629198, -0.216694, 0.905961, 0.950992, -0.525601, -0.763182, -0.51175, -0.0394581, 0.531823, -0.759643, -0.552978, 0.717886, -0.394951, 0.883264, 0.736501, -0.91456, 0.521226, -0.00589504, 0.350236, 0.114123, -0.961554, 0.92665, 0.32072, 0.93843, -0.985691, -0.471663, 0.028473, 0.124948, 0.23359, -0.146618, 0.534256, 0.611907, 0.63099, 0.430678, 0.547136, -0.900352, 0.684852, -0.956365, 0.045619, 0.20214, -0.710934, 0.47275, -0.0764692, -0.102202, 0.36477, -0.341743, 0.000764796, -0.108675, 0.657475, -0.674361, -0.996869, 0.713818, -0.730043, 0.365238, 0.68208, -0.710152, 0.894202, -0.286271, 0.429952, 0.136094, 0.575412],
          "bias": -0.119842
        },
        {
          "weights": [-0.259513, 0.212101, -0.57994, -0.704129, 0.323188, -0.895087, -0.660493, -0.623375, 0.314871, -0.359049, 0.981103, -0.702198, 0.457483, 0.343704, -0.0990282, -0.455236, -0.855458, -0.357515, -0.114202, -1.03549, -0.86435, 0.191101, 0.588448, 0.973302, 0.447876, 0.273506, -0.446168, -0.0346313, -0.454957, -0.883006, 0.648396, 0.321768, 0.482846, -0.750128, 0.674804, -0.124491, -0.625157, 0.823241, 0.0331531, 0.689697, -0.401903, 0.0207477, 0.91237, -0.952077, -0.704463, -0.161127, -0.431501, -0.591767, 0.410258, 0.599798, -0.559475, 0.612113, -0.355131, -1.02053, 0.663278, -0.815719, 0.573549, -0.629885, 0.0621095, -0.85736, -0.371329, -0.0880364, 0.476598, -0.876294],
          "bias": -0.5168
        },
        {
          "weights": [0.0942374, -0.0702596, 0.556705, 0.0513835, -0.887601, 0.246402, 0.649481, 0.153189, 0.178815, 0.795022, 0.686279, -0.936571, -0.729172, 1.09254, 0.422457, -0.936296, -0.589208, 0.327103, -0.214893, -0.944745, -0.618946, 0.00272819, -0.715057, 0.168834, -0.9535, -1.26042, 0.536556, 0.279509, 0.735794, 0.537204, -1.44186, -0.161632, -0.136859, 0.653561, 0.943423, 0.176158, 0.0525348, 0.17396, -1.26306, -0.877736, 0.334254, 0.502125, -0.909023, 0.596754, 0.496198, 0.563279, 0.543312, 0.781515, -0.319143, -0.282497, -0.958095, 0.263862, 0.450103, -0.850545, -0.378103, 0.714286, -0.299097, -0.541895, -0.32725, -0.577564, -0.631091, -0.186908, 0.283401, 0.254647],
          "bias": -2.36591
        },
        {
          "weights": [0.173152, -0.769812, 0.453588, -0.287616, -0.641082, 0.575851, -0.953363, 0.904528, 0.710314, 0.866218, 0.0928053, 0.198159, 0.876198, -0.123855, 0.94809, -0.567101, 0.377435, 0.307373, -0.906237, 1.11995, -0.676936, 0.775045, -0.58126, -0.465819, -0.512279, 0.250418, 0.108262, 0.127558, -0.729893, -0.583537, 1.14685, 0.413295, -0.589478, 0.282556, -0.945782, -0.350678, -0.200856, -0.61888, -0.0941147, -0.449296, -0.961466, 0.967235, 0.835954, 0.936547, -0.0594065, 0.746036, -0.586977, -0.616579, 0.193693, -0.707766, -0.61875, 0.396702, -0.734652, -0.103154, 0.820906, -0.375688, 0.662678, -0.270363, 0.925125, 0.908331, -0.0845186, 0.736076, 0.316116, 0.320493],
          "bias": 1.07605
        },
        {
          "weights": [0.441794, -0.910067, 0.841005, 0.61411, -0.2361, -0.608291, 0.652643, -0.286881, -0.790354, 0.440681, 0.821844, 0.961846, 0.569176, -0.791308, 0.169366, 0.983238, -0.703247, -0.453796, -0.889669, -0.192492, -0.956424, -0.272688, -0.233994, -0.0272769, -0.330734, -0.680213, 0.79163, -0.441651, 0.911428, 0.0553771, 0.145411, 0.326097, 0.293121, 0.230748, -0.073907, -0.87818, 0.705509, -0.548532, -0.381384, 0.848316, -0.966469, -0.526968, 0.807775, 0.606489, -0.361577, -0.00700089, 0.539292, -0.111476, 0.43249, 0.805405, 0.799673, 0.578946, -0.550847, -0.532294, -0.358178, 0.211621, 0.124766, -0.469007, 0.616962, -0.00114229, 0.72397, 0.0229186, -0.664834, 0.0273025],
          "bias": -1.5763
        },
        {
          "weights": [0.275373, 0.0843239, 0.90855, 0.868223, 0.854464, 0.756865, 0.901754, -0.656291, 0.580854, 0.596902, -0.151201, -0.511346, 0.317237, 0.741417, -0.993301, 0.0735021, 0.715216, 0.665889, 0.6006, -0.599574, -0.611093, -0.231495, 0.402663, -0.138434, -0.555559, -0.554667, -0.299698, 0.461915, -0.1968, 0.703126, 0.806807, -0.98383, -0.292626, 0.650638, 0.796458, -0.477194, 0.445393, 0.843736, -0.02085, -0.0164917, 0.383049, 0.845877, 0.562566, -0.277076, 0.660866, 0.545873, 0.777954, 0.380248, 0.24669, 0.323992, 0.760195, 0.616336, -0.781658, 0.162069, -0.552573, -0.380384, 0.454236, 0.0345775, -0.913025, -0.805119, -0.342524, 0.824214, -0.788797, 0.365002],
          "bias": 0.715375
        },
        {
          "weights": [-0.904405, 0.92684, -0.127343, 0.881742, -0.167612, 0.856166, 0.264791, -0.326583, 0.413883, 0.923127, -0.731959, -0.0822901, 0.689815, 0.650548, -0.775011, 0.00266152, 0.370741, 0.78297, 0.168373, -0.475397, -0.704785, 0.755871, 0.871048, 0.27566, 0.884427, -0.891863, 1.01485, 0.699551, -0.679215, 0.358704, 0.239296, -0.624588, 0.22513, -0.942722, -0.804744, -0.968857, 0.938855, 0.56561, -0.212218, 0.32135, 0.445072, 0.0753603, -0.694375, 0.14873, -0.214097, -0.486946, -0.860273, -0.841178, -0.673109, 0.262937, -0.338116, -0.398587, 0.113685, -0.461428, 0.848861, -0.0375861, -0.479638, 0.776921, -0.328945, -0.196915, 0.078118, 0.8497, 0.17559, -0.699659],
          "bias": 1.11438
        },
        {
          "weights": [0.432744, -0.64214, 0.808469, -0.0453105, 0.0887951, 0.129819, -0.600238, -0.841821, 0.429468, 0.499799, 0.235528, 0.993899, 0.371884, 0.396333, -0.719003, -0.116966, 0.68325, 0.0849816, 0.947558, -1.38488, -0.774021, -0.0653523, -0.139193, -0.530475, 0.59449, -0.10706, 0.261414, 0.776722, -0.360807, 0.458798, -0.265611, -0.936127, -0.797062, 0.109489, 0.0582116, 0.467166, -0.61, 0.0626083, 0.061504, 0.712947, -0.0818763, -0.647999, 0.622882, -0.714169, 0.6107, 0.954211, 0.0635968, 0.184504, -0.202979, 0.397917, 0.0336481, 0.25435, -0.945179, 0.688315, 0.938833, 0.882602, 0.4304, 0.503886, 0.326792, -0.964857, 0.322578, -0.328017, -0.874598, 0.551902],
          "bias": -1.18978
        },
        {
          "weights": [0.143965, -0.156366, -0.890878, -0.437711, -0.706454, 0.822069, 0.480413, -0.310281, 0.489122, -0.998965, -0.761061, 0.421988, 0.359659, 0.425042, -0.765807, -0.230631, -0.305021, 0.778363, 0.0488767, -0.423157, 0.583388, -0.0741162, -0.845825, 0.186854, -0.733125, -0.961829, -0.506149, 0.0139112, -0.691544, -0.977449, -0.359783, 0.431139, -0.0686463, -0.137705, 0.976133, 0.248815, -0.272284, 0.409286, 0.845741, -0.815186, 0.474877, -0.905736, 0.610658, -0.15693, 0.502121, 0.849243, 0.582853, -0.823951, 0.579996, -0.292773, -0.194161, 0.216136, 0.601273, -0.0925162, -0.550448, 0.913376, 0.107903, -0.0143649, -0.147767, 0.385929, 0.0642066, 0.616734, -0.173784, -0.995292],
          "bias": -0.930768
        }
      ]
    },
    {
      "activation": "linear",
      "nodes": [
        {
          "weights": [-1.53696, 1.28009, 1.37401, -1.71667, -0.337953, 1.97413, 1.37973, 0.494828, -0.390576, 0.0447454, -0.488031, 1.04101, -0.186975, 1.22204, -1.05594, 1.60118, 0.221146, 1.46476, -1.205, 1.71867, -0.871655, 0.0377145, 0.225428, -0.0261273, 0.277871, 1.60665, -0.815348, 1.17603, 0.304045, 0.092198, 2.27289, 0.798665],
          "bias": 0.94917
        }
      ]
    }
  ]
}
